tree
version=v4
num_class=1
num_tree_per_iteration=1
label_index=0
max_feature_idx=17
objective=binary sigmoid:1
feature_names=url_length domain_length num_dots num_subdomains num_hyphens num_slashes num_digits has_https has_ip has_at_symbol url_entropy domain_entropy has_login has_verify has_secure has_account has_update has_bank
feature_infos=[11:2307] [0:102] [0:36] [0:6] [0:42] [0:35] [0:545] [0:1] [0:1] [0:1] [1.1475091277133316:6.0006470226986881] [0:4.8360803184557435] [0:1] [0:1] [0:1] [0:1] [0:1] [0:1]
tree_sizes=9502 10885 10889 10866 10902 10929 10890 11002 10901 10922 10905 10961 10933 10938 10943 10904 10888 10943 10925 10895 10959 10918 10895 10922 10842 10929 10927 10946 10871 10916 10949 10886 10919 10915 10896 10923 10941 10870 10941 10887 10909 10960 10939 10919 10924 10956 10948 10960 10913 10949 10920 10949 11016 10917 10926 10871 10983 10931 10923 10848 10959 10924 10878 10923 10859 10856 10827 10964 10933 10836 10917 10905 10984 10926 10951 10904 10996 10764 10998 10847 11039 11000 10919 10934 10914 10944 10829 10857 10983 10892 10893 10982 10693 10758 10846 10855 10887 10816 10829 10748 10980 10984 10891 10861 10849 11010 10989 10846 10859 10833 10798 10903 10753 10811 10889 10961 10856 10820 10862 10878 10973 10887 11012 10804 10848 10826 10809 10723 10755 10830 10812 10775 10716 10808 10800 10769 10776 10652 10818 10905 10689 10763 10788 10679 10922 10828 10880 10760 10725 10766 10782 10714 10942 10727 10719 10699 10818 10811 10711 10738 10785 10725 10776 9915 10927 10713 11011 10875 10965 10770 11035 10741 10822 10715 10868 11002 10944 10842 10897 10804 10782 10951 11065 11051 10810 10718 10684 10714 10666 10714 10978 10774 10685 10078 9198 10966 10552 10810 10755 10800 10865 10855 10895 11047 10744 10726 10810 10716 10739 10927 10847 10913 10863 10827 10699 10760 10814 10806 10763 10880 11047 10766 10800 10879 10829 10728 10984 10767 11045 10750 11003 10842 10945 10695 10804 10820 10844 10947 10876 10339 10758 10812 10913 10715 10786 10807 10796 10834 10802 10988 10470 10731 10857 11014 10766 10778 10948 10695 10816 10810 10986 10872 10737 10753 10848 10729 10834 10795 10805 10745 10908 10883 10732 10812 10750 10769 10883 10823 10949 10979 10925 10930 10937 9064 10775 10838 10970 10855 9414 10781 10812 10793 10905 10766 10664 9768 10737 10822 10811 10887

Tree=0
num_leaves=100
num_cat=0
split_feature=2 12 10 8 2 0 0 16 2 8 12 1 0 10 14 9 10 0 1 16 0 0 2 10 0 0 0 10 12 2 10 2 0 2 10 2 2 2 10 10 10 0 17 10 0 10 0 9 1 0 10 10 0 0 0 0 0 10 2 10 2 0 0 10 0 2 2 10 10 0 10 0 10 0 10 0 0 9 2 0 10 2 0 0 0 0 0 10 14 10 10 0 0 10 0 9 10 10 10
split_gain=54271.6 24419.2 10583.2 7576.45 4392.51 6417.12 3299.77 2635.29 2004.05 1234.33 1478.48 1175.9 1164.06 1125.39 1028.74 934.848 932.893 864.703 729.204 674.423 634.02 629.85 555.918 519.494 457.613 418.233 365.603 351.259 293.095 307.396 278.364 147.059 144.429 142.003 141.869 139.095 124.803 124.631 121.976 120.89 99.0472 93.5432 77.4013 73.5886 66.1151 65.4069 107.615 54.0827 52.7387 52.7252 48.7373 47.7252 45.1171 42.3208 36.1213 31.8012 28.8809 38.2609 57.2419 28.2964 34.802 38.6344 39.2332 27.2566 24.2453 23.4293 33.927 23.388 21.3317 19.5483 18.4663 17.5101 21.9148 17.1909 16.6516 16.6241 18.208 16.1995 18.1624 20.5943 15.0937 14.9769 27.2156 14.4462 13.6708 13.2128 12.9611 12.5745 12.4137 11.5841 11.3076 10.9156 10.5562 10.3206 12.5343 10.1853 10.1051 8.85883 8.41256
threshold=3.5000000000000004 1.0000000180025095e-35 4.9636409603349039 1.0000000180025095e-35 2.5000000000000004 26.500000000000004 71.500000000000014 1.0000000180025095e-35 1.5000000000000002 1.0000000180025095e-35 1.0000000180025095e-35 1.0000000180025095e-35 33.500000000000007 3.9500823121442488 1.0000000180025095e-35 1.0000000180025095e-35 3.9012012086032848 131.50000000000003 1.0000000180025095e-35 1.0000000180025095e-35 47.500000000000007 13.500000000000002 1.5000000000000002 4.3663638767424837 24.500000000000004 74.500000000000014 20.500000000000004 3.9161621107965874 1.0000000180025095e-35 5.5000000000000009 5.1109071098542973 6.5000000000000009 112.50000000000001 1.5000000000000002 4.0560264725574955 5.5000000000000009 1.5000000000000002 5.5000000000000009 3.9647437825047649 3.5850368032243556 4.0832682451520173 39.500000000000007 1.0000000180025095e-35 3.9370809226340469 157.50000000000003 4.6420965702539796 165.50000000000003 1.0000000180025095e-35 1.0000000180025095e-35 23.500000000000004 4.1614516428183572 4.7593138100107 58.500000000000007 69.500000000000014 71.500000000000014 33.500000000000007 76.500000000000014 4.728570450047946 4.5000000000000009 5.2567915322281928 1.5000000000000002 128.50000000000003 151.50000000000003 4.9903415116796497 31.500000000000004 2.5000000000000004 1.5000000000000002 4.7491492382683758 3.232696905489449 56.500000000000007 5.0604710965089454 62.500000000000007 4.5233816702763612 101.50000000000001 4.3019506903190488 82.500000000000014 81.500000000000014 1.0000000180025095e-35 4.5000000000000009 95.500000000000014 5.1614562946961682 2.5000000000000004 81.500000000000014 183.50000000000003 80.500000000000014 80.500000000000014 96.500000000000014 4.8068455305063784 1.0000000180025095e-35 4.1917819231587741 4.0595262452598417 36.500000000000007 42.500000000000007 4.5968857336465154 111.50000000000001 1.0000000180025095e-35 4.7491492382683758 5.1109071098542973 4.4892031160090538
decision_type=2 2 2 2 2 2 2 2 2 2 2 2 2 2 2 2 2 2 2 2 2 2 2 2 2 2 2 2 2 2 2 2 2 2 2 2 2 2 2 2 2 2 2 2 2 2 2 2 2 2 2 2 2 2 2 2 2 2 2 2 2 2 2 2 2 2 2 2 2 2 2 2 2 2 2 2 2 2 2 2 2 2 2 2 2 2 2 2 2 2 2 2 2 2 2 2 2 2 2
left_child=1 2 3 4 5 13 9 8 14 10 20 12 -10 21 16 17 -7 18 19 23 35 33 27 -6 -24 52 -15 -23 29 32 36 -11 56 39 38 41 73 42 -28 -1 -36 43 47 49 63 46 -19 48 51 -2 -43 -22 97 65 -55 90 57 95 -59 60 61 -32 -63 -38 -51 66 80 77 -35 -33 -56 -9 88 84 -57 76 -69 78 79 -58 -54 82 -65 96 -27 -83 -77 -78 -73 -39 -45 -37 -52 94 -31 -8 -47 -4 -94
right_child=6 -3 25 -5 15 7 28 71 11 31 -12 -13 -14 26 -16 -17 -18 45 -20 -21 37 22 24 -25 -26 30 34 -29 -30 93 59 69 -34 68 40 91 44 89 -40 -41 -42 50 -44 55 -46 83 -48 -49 -50 64 92 -53 53 54 70 74 67 58 -60 -61 -62 62 -64 81 -66 -67 -68 75 -70 -71 -72 72 -74 -75 -76 86 87 -79 -80 -81 -82 85 -84 -85 -86 -87 -88 -89 -90 -91 -92 -93 98 -95 -96 -97 -98 -99 -100
leaf_value=0.013023117784966022 -0.038831168831168821 0.0595870316733626 0.038154463390170507 0.059795432048978997 0.0016489728388253135 -0.011501879961008215 0.033909151193633948 0.052876925470670605 -0.0060714503989055361 0.059704085195530734 0.059727302595553609 0.059795918367346934 -0.017392332753788847 0.038330308529945546 0.058595839524517086 0.057348254931714707 -0.026487651901215211 -0.0068374558303886928 0.059782850779510018 0.055230849947534098 0.023389731394487544 -0.0098610765981238732 0.0066864391124976915 -0.0089533847603044878 -0.010737194830062231 -0.011696750902527076 0.059750692520775625 0.011111549073709103 0.059951266441661662 0.050649608470276816 0.045902165196471535 -0.040212765957446793 0.052904993622147685 -0.0061615529117094543 0.040570054945054945 0.0566580310880829 0.020045516613563956 0.050220537560303237 0.0041174903746034816 0.045910364145658265 0.014580730711519 0.015941345902068599 0.058352745424292841 -0.01599303135888502 0.053666084352383327 0.027943925233644855 0.0489760348583878 0.053704735376044567 0.059745403111739745 0.00032092712279919766 -0.0063976083707025407 -0.0040791738382099834 0.0068624420401854711 0.041532846715328461 -0.028949416342412444 -0.0043479536452985176 0.037023346303501938 -0.019155405405405404 0.050421686746987944 0.056666415208207609 0.051778858037406277 -0.023542234332425065 0.042648083623693371 0.047749683944374212 0.013820224719101121 0.026544502617801044 -0.017894221351616064 0.039505494505494503 -0.029900166389351081 0.019342105263157897 0.018066298342541438 0.025530253741054002 0.049774375503626109 -0.0063868986693961108 -0.030061601642710472 0.051802525832376572 0.032820512820512827 0.05812754409769335 0.042097137343197165 0.023218116805721098 0.05852459016393443 -0.0022429906542056075 0.02704323570432357 0.056752741422002116 0.020583657587548636 0.045531259624268558 0.041115173674588661 -0.026122448979591834 0.059224137931034475 0.038926758520667147 -0.033582497721057425 0.033157894736842101 0.0065416323165704863 0.058059585391466689 0.058527551942186083 0.059413680781758953 0.047064712191633898 -0.0022429906542056075 -0.014354838709677417
leaf_weight=1684.75 23 4816.25 49.75 1363.75 14143.25 4308.5 301.5 321.25 10635.25 1145.5 913 191 35343.75 468.25 134.5 263.5 28316 56.5 179.5 190.5 2565 12877.5 4872 5891.75 1880 13.749999999999998 36 761 6340.5 453.25 62.25 14.000000000000002 1058.25 79.75 145.5 38.5 109.75 145 2064.75 107 1432.75 572.75 60 86 200.25 32 68.75 53.75 35.25 224.25 100.25 58 32.25 41 12.750000000000002 340.75 462.5 29.5 16.5 1325.5 606.75 18.25 14.249999999999998 79 258 19 102 54.5 60 7.4999999999999991 18 76.75 124 48.75 24.25 304.75 5.7499999999999982 36.75 466.25 125.75 5.9999999999999991 5.2499999999999991 215 141.25 77 162.25 164 7.25 11.499999999999998 206.75 54.75 36 242.5 2571 332 15.249999999999998 139.75 5.2499999999999991 18.5
leaf_count=6739 92 19265 199 5455 56573 17234 1206 1285 42541 4582 3652 764 141375 1873 538 1054 113264 226 718 762 10260 51510 19488 23567 7520 55 144 3044 25362 1813 249 56 4233 319 582 154 439 580 8259 428 5731 2291 240 344 801 128 275 215 141 897 401 232 129 164 51 1363 1850 118 66 5302 2427 73 57 316 1032 76 408 218 240 30 72 307 496 195 97 1219 23 147 1865 503 24 21 860 565 308 649 656 29 46 827 219 144 970 10284 1328 61 559 21 74
internal_value=0 -0.0067604 -0.00918815 -0.0105361 -0.0112912 -0.0137812 0.0461929 -0.0180428 -0.018492 0.0299919 0.0245465 -0.0144651 -0.0147738 -0.000987633 -0.0241672 0.00120586 -0.0245087 0.000495698 -0.000399753 -0.000934311 0.0182997 -0.00365409 -0.00520519 -0.00146877 0.00183454 0.0444952 0.0133632 -0.00869055 0.0553741 0.0508415 0.0478666 0.0582444 0.0439372 0.0127185 0.0101837 0.00519756 0.0340764 0.0267689 0.00507509 0.0149912 0.016981 0.0036538 0.0246301 -0.00266739 0.0387986 0.0421855 0.0237894 0.0238808 0.0232746 0.00542594 0.0104989 0.0227811 0.00984621 0.00401125 0.0231315 -0.0107581 0.039165 0.031451 0.00579176 0.054061 0.0491263 0.0320717 0.00542945 0.0335731 0.00755053 -0.00459366 -0.00884931 0.0408804 -0.016389 -0.0193056 -0.00136143 0.0484014 0.0415917 0.0079298 -0.00607231 0.0460557 0.0319083 0.0383305 0.0376323 0.0340818 0.015176 0.0367786 0.0326318 0.0495273 0.0156522 0.0440155 0.0480793 0 0.030017 0.0436038 -0.0228754 0.0454021 0.00185969 0.0571103 0.0539912 0.0351649 0.043538 0.0342468 0.00504404
internal_weight=0 136442 131626 128402 127038 105932 19968.5 79462.5 78929 7223.25 6056.25 46170 45979 26469.2 32759 21106.8 32624.5 20843.2 20405 20225.5 5143.25 22322 20390.5 20035 6752 3224 4147.25 13638.5 12745.2 6404.75 2938 1167 3048.5 1931.5 3679 2019.5 911 3123.75 2100.75 1791.75 1578.25 1945 2772 1011 771.5 438.25 125.25 2712 2658.25 505.25 934 2623 286 231 71.75 505.75 1990.25 362.75 46 2027 701.5 94.75 32.5 571.25 482.25 159.25 140.25 1627.5 139.75 21.5 30.75 533.5 212.25 139.5 365 536.25 67.5 1091.25 1054.5 588.25 38.25 461.5 294 313 90.75 167.5 468.75 13 88.25 351.75 140.75 74.5 361.25 3356.25 785.25 316.75 171.75 55 261
internal_count=625644 545770 526505 513609 508154 423727 79874 317850 315716 28893 24225 184680 183916 105877 131036 84427 130498 83373 81620 80902 20573 89288 81562 80140 27008 12896 16589 54554 50981 25619 11752 4668 12194 7726 14716 8078 3644 12495 8403 7167 6313 7780 11088 4044 3086 1753 501 10848 10633 2021 3736 10492 1144 924 287 2023 7961 1451 184 8108 2806 379 130 2285 1929 637 561 6510 559 86 123 2134 849 558 1460 2145 270 4365 4218 2353 153 1846 1176 1252 363 670 1875 52 353 1407 563 298 1445 13425 3141 1267 687 220 1044
is_linear=0
shrinkage=0.03


Tree=1
num_leaves=100
num_cat=0
split_feature=2 6 4 12 5 6 5 0 6 5 2 0 10 5 5 10 6 0 2 4 0 8 12 10 12 10 4 6 5 6 6 2 0 6 9 5 5 6 15 10 8 4 0 6 12 2 6 6 0 10 2 6 5 6 4 4 5 4 6 10 4 5 2 0 2 2 0 2 2 4 0 4 2 2 10 15 10 0 5 0 5 4 9 0 0 4 4 0 0 5 0 5 6 10 4 10 0 10 4
split_gain=51094.2 36968.6 26135.8 11354.9 8962.86 8887.06 8443.97 5169.84 11415.8 8884.65 5803.99 3111.21 2907.07 2801.45 2196.41 2167.3 2131.62 2091.44 1665.2 1229.94 4124.54 1163.58 1393.44 1125.4 1115.66 950.457 888.638 739.067 704.47 808.482 696.693 604.311 596.792 565.63 545.042 511.065 449.741 357.293 344.282 326.586 326.096 309.169 281.68 305.994 276.723 290.075 270.574 266.292 264.186 262.716 511.092 253.149 322.181 239.649 234.154 206.723 203.895 194.922 188.897 188.519 180.905 159.073 138.541 136.202 130.994 126.984 123.886 118.179 117.638 113.67 112.812 111.039 109.297 108.696 99.8471 98.6365 88.4893 88.0252 167.645 90.0343 85.2059 83.4679 77.4996 211.788 77.0171 76.8038 72.5175 69.2061 66.8703 66.5233 85.5694 64.8576 64.7719 98.5623 77.9287 62.3254 60.9183 60.7821 59.957
threshold=3.5000000000000004 17.500000000000004 2.5000000000000004 1.0000000180025095e-35 3.5000000000000004 2.5000000000000004 1.0000000180025095e-35 30.500000000000004 1.0000000180025095e-35 1.5000000000000002 2.5000000000000004 71.500000000000014 4.9054943313772812 1.5000000000000002 4.5000000000000009 4.2721402182010477 2.5000000000000004 56.500000000000007 1.5000000000000002 3.5000000000000004 145.50000000000003 1.0000000180025095e-35 1.0000000180025095e-35 4.9636409603349039 1.0000000180025095e-35 4.8068455305063784 1.0000000180025095e-35 3.5000000000000004 5.5000000000000009 11.500000000000002 4.5000000000000009 2.5000000000000004 47.500000000000007 16.500000000000004 1.0000000180025095e-35 4.5000000000000009 2.5000000000000004 11.500000000000002 1.0000000180025095e-35 5.1614562946961682 1.0000000180025095e-35 1.5000000000000002 110.50000000000001 3.5000000000000004 1.0000000180025095e-35 5.5000000000000009 3.5000000000000004 1.5000000000000002 108.50000000000001 3.7799939417541011 1.5000000000000002 3.5000000000000004 4.5000000000000009 1.5000000000000002 15.500000000000002 9.5000000000000018 4.5000000000000009 2.5000000000000004 14.500000000000002 4.1803988938864842 4.5000000000000009 1.5000000000000002 6.5000000000000009 112.50000000000001 5.5000000000000009 5.5000000000000009 42.500000000000007 1.5000000000000002 1.5000000000000002 5.5000000000000009 74.500000000000014 1.0000000180025095e-35 2.5000000000000004 4.5000000000000009 4.0760724318683446 1.0000000180025095e-35 4.8465929777228363 39.500000000000007 1.5000000000000002 31.500000000000004 4.5000000000000009 1.5000000000000002 1.0000000180025095e-35 55.500000000000007 54.500000000000007 4.5000000000000009 3.5000000000000004 43.500000000000007 38.500000000000007 7.5000000000000009 78.500000000000014 1.5000000000000002 28.500000000000004 5.3897124635631615 1.0000000180025095e-35 4.6334283733314985 94.500000000000014 4.4834516878145614 1.0000000180025095e-35
decision_type=2 2 2 2 2 2 2 2 2 2 2 2 2 2 2 2 2 2 2 2 2 2 2 2 2 2 2 2 2 2 2 2 2 2 2 2 2 2 2 2 2 2 2 2 2 2 2 2 2 2 2 2 2 2 2 2 2 2 2 2 2 2 2 2 2 2 2 2 2 2 2 2 2 2 2 2 2 2 2 2 2 2 2 2 2 2 2 2 2 2 2 2 2 2 2 2 2 2 2
left_child=1 2 3 4 6 14 -1 8 13 27 12 21 15 18 26 -9 -11 30 -8 61 72 22 32 34 31 28 49 -10 29 -19 59 38 64 40 -12 46 -15 -14 39 51 -32 47 43 85 45 63 -33 -28 -30 -6 -51 52 67 56 95 -44 65 73 -48 80 -54 92 -23 69 77 98 -35 -4 -43 91 -27 89 75 -55 81 -21 88 78 -2 -80 -7 -73 -63 -84 -45 -37 -60 -61 -53 90 -16 -13 93 94 -3 -22 -78 -75 -34
right_child=11 19 24 -5 5 17 7 10 9 16 23 44 37 36 71 -17 -18 25 -20 20 54 62 -24 -25 -26 70 41 -29 48 -31 33 35 53 66 -36 42 -38 -39 -40 -41 -42 68 55 84 -46 -47 58 -49 -50 50 -52 76 60 57 -56 -57 -58 -59 86 87 -62 82 -64 -65 -66 -67 -68 -69 -70 -71 -72 74 -74 97 -76 -77 96 -79 79 -81 -82 -83 83 -85 -86 -87 -88 -89 -90 -91 -92 -93 -94 -95 -96 -97 -98 -99 -100
leaf_value=0.059354846681965973 0.010744420166047352 0.031873906815552779 -0.052885404792458235 0.057628145370726219 0.031036350638307508 -0.014505679010908358 -0.031493621574839537 -0.020306276459221225 0.04111150313539684 0.013705215490767036 -0.0028943542750121884 0.018641415200217889 0.041580467566470831 -0.0059251455340905953 0.038333676458951187 -0.03523323899151911 -0.030763746690210564 -0.025215344312665301 -0.011926680356555633 -0.051513738926155218 -0.035556143593265248 0.057965272490040319 0.057987892867237316 0.051783768780646618 0.0540560668601913 0.00069245226411711271 0.039454427321000664 0.022302475864110251 0.0076399795623420565 0.021750651432757187 -0.044450894654010718 -0.016051740064797357 0.018771459174141625 0.059493102435004802 0.053977079066364828 0.040300177114916215 0.011185542985456298 -0.0037422056250611467 0.029783694002381678 0.043315831131096716 0.057947121548867359 -0.015188185534427747 0.045978175414981351 0.051456064152722365 0.058205563633637721 0.05544288264402801 -0.05051650169485359 -0.0040908244565560367 0.047878246383624541 -0.010846205517679735 0.012880792973171901 -0.027543043257222614 -0.0019351640540526689 0.0045515058931502959 -0.034396659168663316 -0.055508966479365596 0.050338027122184985 0.044711632305263108 0.052495658385093721 -0.017626148631909581 -0.048670612357900087 0.054513001475793445 -0.018730733983528123 0.051354276837542019 0.044069264439367553 0.050580228193869765 -0.028627525695458116 -0.042515903704641617 0.018775506743142517 -0.011050358993455228 0.043408341550320424 0.037181994901946604 -0.0044656043953880493 0.015329726383736404 0.049410672248625519 0.059227156192642516 -0.051799165707264193 0.010184272438835868 -0.037445675522680182 -0.0075396100288491674 -0.042849364093351994 -0.0092042646492855925 -0.058777315757124915 0.057510819980478502 -0.044244337751678776 -0.033838559779373945 -0.019524693763646413 0.0059675915822427769 -0.056190114793166948 0.052533654370342769 0.018556306178886241 0.040528122542001978 0.050288354543907225 0.056258480957265218 -0.0025917955575662436 0.05686409599918598 -0.024693742537896191 0.038195591467055867 0.033916311345075507
leaf_weight=1493.3032072335482 461.22421875596046 212.6940116584301 2452.8414870351553 2464.8113873004913 392.73383791744709 220.2274054735899 9703.6165612190962 24008.081603765488 6206.9102673530579 1428.441520139575 11302.025615543127 131.44453291594982 638.77096292376518 7073.7823410183191 2226.5008240640163 13780.635409891605 3022.9162654280663 1641.1166341602802 6562.4047724157572 463.42619566619396 6.4990116208791724 1144.4798032641411 912.1862176656723 359.27570748329163 94.665942013263702 63.49355049431324 1724.2802363634109 2699.0085442662239 887.132827013731 412.70286272466183 2320.7324287593365 295.49091897904873 776.35597881674767 59.999109834432602 153.62365297973156 68.994296222925186 1718.1706774681807 207.17507210373878 46.491877570748329 32.225987493991852 28.224762737751007 136.22644726932049 116.97461904585361 7.74985447525978 6334.8062083125114 3353.5098139792681 1186.4656549096107 136.23565907776356 175.97057124972343 1204.5746374428272 2538.8071232587099 74.739525139331818 218.22122578322887 708.6481256633997 25.992638379335403 21.247200712561607 464.90119369328022 189.96985998749733 19.739867344498634 149.48118968307972 113.23516677320004 7704.6879478991032 21.493640094995499 1057.509858995676 74.459225028753281 179.65205428004265 18.747472077608109 1671.3612636774778 280.47580005228519 41.487106844782829 458.55588045716286 292.20971712470055 53.493422448635101 304.17871242761612 2094.7142432034016 7.2493157535791388 162.7259027659893 933.95904052257538 114.49324007332325 435.23353992402554 169.22832930088043 39.494397789239883 20.246449023485184 45.712642312049866 204.49060034751892 15.249786600470541 34.246931552886963 443.95227575302124 7769.4658294022083 261.97242957353592 216.97673280537128 1816.4944450855255 272.15211226046085 104.66595508158207 81.4803117364645 1262.6675280928612 139.48107615113258 160.21651484072208 339.18568582832813
leaf_count=5975 1845 851 9813 9868 1571 881 38816 96041 24829 5714 45209 526 2556 28296 8907 55129 12093 6565 26250 1854 26 4582 3652 1438 379 254 6898 10798 3549 1651 9284 1182 3106 240 615 276 6873 829 186 129 113 545 468 31 25362 13425 4746 545 704 4819 10156 299 873 2835 104 85 1860 760 79 598 453 30830 86 4233 298 719 75 6686 1122 166 1835 1169 214 1217 8380 29 651 3736 458 1741 677 158 81 183 818 61 137 1776 31082 1048 868 7269 1089 419 326 5055 558 641 1357
internal_value=0 -0.00655837 -0.0110121 -0.00604458 -0.0074851 0.0114824 -0.0113885 -0.0125773 -0.00428499 0.0181142 -0.0188915 0.044836 -0.0245186 -0.0162252 0.0276888 -0.0257499 -0.016493 -0.0150586 -0.0235998 0.0482014 0.0258229 0.0291031 0.0238167 -0.000490813 -0.0485447 0.000760031 0.0159826 0.0354119 -0.00551415 -0.0157757 -0.0319369 -0.0492082 0.0177537 -0.0405646 -0.00213097 -0.033745 -0.00258085 0.0304781 -0.0516107 -0.0519107 -0.0432168 0.0310326 -0.00501842 -0.0215114 0.0537557 0.0493502 -0.0418725 0.0362642 0.0143071 0.00769523 0.00524485 -0.0521548 -0.0463975 0.0259716 0.054559 0.0303272 0.0332865 0.0165218 -0.0480191 -0.0106219 -0.0179203 0.0530237 0.0565474 0.042642 0.00504186 0.0271602 0.0384662 -0.048685 0.00766407 0.0380069 0.03822 0.0423169 -0.0451715 0.0119506 0.0469852 -0.0497895 -0.0553027 0.003544 -0.00258801 -0.0137794 -0.0268373 0.0316489 0.0542354 0.0217353 -0.0407132 0.0268199 0.00680191 1.74924e-05 -0.0559179 0.0381274 0.0365795 0.0390538 0.0389801 0.0312456 0.0223198 0.0563857 -0.0393111 0.0232314 0.0233816
internal_weight=0 136425 126164 111418 108953 18594.8 90358.1 88864.8 38415.3 13357.3 50449.6 19955.9 38634.7 25058 11545.2 37788.7 4451.36 7049.57 16266 10261 1819.33 7220.64 6054.66 11814.9 14746.1 3638.97 6413.33 8905.92 3116.92 2053.82 3410.59 14651.4 5142.48 2427.7 11455.6 1970.65 8791.95 845.946 12680.8 12634.3 2348.96 2277.22 434.706 296.485 12735.3 6400.45 1535.94 1860.52 1063.1 4136.12 3743.38 12602.1 4455.66 3123.11 1295.16 138.222 1760.09 1363.01 1240.45 982.889 331.456 8441.64 1165.97 3046.94 2019.37 1295.19 78.7466 4124.2 416.702 1989.43 522.049 5131.87 524.169 1173.04 2426.42 470.676 8146.41 1944.91 1010.95 549.727 389.456 331.704 7770.65 65.9591 212.24 84.2441 53.9868 593.433 7844.21 2705.45 2443.48 1947.94 670.992 398.84 294.174 1269.17 302.207 464.395 1115.54
internal_count=625644 545770 504709 445717 435849 74388 361461 355486 153669 53434 201817 79874 154555 100235 46186 151170 17807 28202 65066 41061 7282 28893 24225 47262 58992 14558 25656 35627 12469 8216 13644 58613 20573 9712 45824 7883 35169 3385 50730 50544 9397 9110 1739 1186 50981 25619 6144 7443 4253 16546 14975 50415 17825 12495 5185 553 7042 5453 4962 3932 1326 33779 4668 12194 8078 5182 315 16499 1667 7961 2089 20530 2097 4693 9707 1883 32590 7780 4044 2199 1558 1327 31094 264 849 337 216 2374 31381 10823 9775 7795 2685 1596 1177 5081 1209 1858 4463
is_linear=0
shrinkage=0.03


Tree=2
num_leaves=100
num_cat=0
split_feature=2 6 4 5 6 5 2 10 6 5 5 10 6 2 5 6 10 6 6 16 4 6 6 14 10 4 5 6 10 5 6 6 15 6 4 2 9 10 5 4 10 6 10 2 2 10 2 10 4 6 5 6 6 6 10 5 6 16 10 9 6 2 14 4 4 6 5 5 10 4 10 10 2 14 6 10 10 10 4 6 10 10 5 14 9 4 10 15 4 5 6 6 10 4 5 4 4 4 2
split_gain=48156.4 34816.9 24629.8 9490.89 8704.84 7697.92 5171.66 4092.42 7799.93 9934.55 4790.26 3612.32 3078.32 2223.35 2004.02 1924.99 1863.72 1501.3 1486.91 1274.31 1155.05 3463.23 1150.78 918.893 916.331 843.027 808.302 765.557 852.574 641.833 634.786 634.804 579.185 549.062 537.005 518.516 503.862 478.576 461.237 432.695 405.089 375.266 357.651 338.486 336.037 552.939 327.297 326.006 292.264 254.428 289.465 243.089 357.778 232.69 229.815 343.429 223.76 219.958 192.556 191.834 182.502 170.385 160.293 160.052 154.776 154.096 149.899 146.394 145.938 137.834 128.274 153.65 124.42 121.927 117.17 115.774 114.587 104.027 100.16 95.6702 95.3344 95.0513 95.0442 115.122 93.2446 87.3067 86.6462 85.9694 85.6533 83.3761 151.889 86.3035 93.9859 84.2472 82.2589 79.4608 76.5867 76.3518 74.5255
threshold=3.5000000000000004 17.500000000000004 2.5000000000000004 3.5000000000000004 2.5000000000000004 1.0000000180025095e-35 2.5000000000000004 4.2721402182010477 1.0000000180025095e-35 1.5000000000000002 2.5000000000000004 4.8465929777228363 2.5000000000000004 4.5000000000000009 4.5000000000000009 7.5000000000000009 4.6978610781972181 14.500000000000002 4.5000000000000009 1.0000000180025095e-35 3.5000000000000004 30.500000000000004 8.5000000000000018 1.0000000180025095e-35 4.9636409603349039 1.0000000180025095e-35 5.5000000000000009 9.5000000000000018 4.0323090103106702 4.5000000000000009 15.500000000000002 4.5000000000000009 1.0000000180025095e-35 7.5000000000000009 1.5000000000000002 2.5000000000000004 1.0000000180025095e-35 4.3663638767424837 4.5000000000000009 1.5000000000000002 4.3149925947985937 7.5000000000000009 5.2567915322281928 5.5000000000000009 1.5000000000000002 3.8484040466841014 2.5000000000000004 5.1614562946961682 1.5000000000000002 3.5000000000000004 4.5000000000000009 12.500000000000002 3.5000000000000004 1.5000000000000002 4.4582097179183808 3.5000000000000004 3.5000000000000004 1.0000000180025095e-35 5.0220836652000864 1.0000000180025095e-35 14.500000000000002 1.5000000000000002 1.0000000180025095e-35 2.5000000000000004 4.5000000000000009 5.5000000000000009 1.5000000000000002 5.5000000000000009 5.3897124635631615 1.5000000000000002 4.1803988938864842 4.6420965702539796 1.5000000000000002 1.0000000180025095e-35 6.5000000000000009 4.1076890223497973 4.5968857336465154 4.5968857336465154 1.0000000180025095e-35 16.500000000000004 4.0760724318683446 4.3019506903190488 3.5000000000000004 1.0000000180025095e-35 1.0000000180025095e-35 4.5000000000000009 4.8465929777228363 1.0000000180025095e-35 3.5000000000000004 2.5000000000000004 6.5000000000000009 1.5000000000000002 4.5172826073203121 1.0000000180025095e-35 7.5000000000000009 1.0000000180025095e-35 1.5000000000000002 1.5000000000000002 2.5000000000000004
decision_type=2 2 2 2 2 2 2 2 2 2 2 2 2 2 2 2 2 2 2 2 2 2 2 2 2 2 2 2 2 2 2 2 2 2 2 2 2 2 2 2 2 2 2 2 2 2 2 2 2 2 2 2 2 2 2 2 2 2 2 2 2 2 2 2 2 2 2 2 2 2 2 2 2 2 2 2 2 2 2 2 2 2 2 2 2 2 2 2 2 2 2 2 2 2 2 2 2 2 2
left_child=1 2 3 5 14 -1 7 8 10 15 19 30 -11 22 25 -10 17 18 40 -7 66 46 29 32 27 44 65 36 69 59 31 -9 35 -13 -12 47 37 -8 56 -30 94 -28 -35 54 45 -5 68 49 53 50 57 52 85 75 55 62 -37 -4 67 63 -58 -23 95 73 -52 -20 -3 -18 87 -29 -24 82 -50 89 -31 -27 -32 -53 -16 98 97 -55 96 -84 -46 -40 -51 -22 -65 90 -2 93 -93 -91 -6 -15 -72 -80 -19
right_child=13 20 23 4 16 6 24 11 9 12 34 33 -14 43 78 -17 58 79 26 -21 21 61 70 -25 -26 48 41 28 39 74 76 -33 -34 42 -36 38 -38 -39 51 -41 -42 -43 -44 -45 84 -47 -48 -49 72 86 64 77 -54 81 -56 -57 60 -59 -60 -61 -62 -63 -64 88 -66 -67 -68 -69 -70 -71 71 -73 -74 -75 -76 -77 -78 -79 80 -81 -82 -83 83 -85 -86 -87 -88 -89 -90 91 -92 92 -94 -95 -96 -97 -98 -99 -100
leaf_value=0.057662065018406532 0.0060177834137462027 0.037843267536739854 -0.047560926931367986 0.026282958912002153 -0.01458002492137234 -0.023028357905349291 0.0031617125461011041 -0.027787939918182521 0.03130760496265219 0.0042040012320042619 0.0059296914132919371 0.04273151715137196 -0.031625466284792521 0.014672787269207984 0.038189534968882513 -0.034111133506744516 0.00922183599210381 0.02700958352563964 -0.024500739250110672 0.056607074208757407 -0.049560932775449637 -0.0091813775788222307 0.05600246947657659 0.053921686715280914 0.050679508057671192 0.027754441963533837 0.017472296306703852 0.057220409668261918 0.014948337382058184 0.04588388477196894 0.036492577068518953 -0.040823374254861149 0.037603549728312806 -0.010939246713829233 -0.029425639218055716 -0.017561120159180686 0.053022803573651411 -0.012260483930996711 0.042023196956509572 -0.047030674983938835 0.016439628089467126 -0.02345246448273948 0.052469202480501652 0.054629911173102383 0.015050672126002135 -0.013711486520522636 0.018559761800428044 0.042739881018445683 -0.0140896997375055 -0.054361965187094449 -0.0027646132109363929 -0.052301279100379093 -0.039261999202124753 -0.023421692758172966 0.050502344603885897 0.050150588321828213 -0.049446020071314802 0.036280480597428028 0.049878455526077975 0.055631935439534284 0.0067937605494506094 0.05530696211506194 0.056170527059736894 0.049485115882221098 -0.04592178923907423 -0.042012942474939363 0.052658904483435645 0.040016494220095601 0.046804079070003099 -0.05900049571227324 0.043755950101130071 0.047682309556113585 0.020393309407605094 0.056195922304221428 0.0027938088033534979 0.044326037775274253 -0.0069291635622703608 0.047396902522642469 0.036747753296449463 0.045757997719225979 0.048574458257202281 0.024893451953459333 -0.0019597059206751559 0.0566681568111412 0.057788496903946718 -0.025721918946941102 -0.037943953190894004 0.057474362470256522 0.0066015575425935691 0.017672866460744206 0.03645634183706261 -0.0039776041853784062 0.026561873310634317 0.03744313388234078 0.044699693584394865 0.037812000722256885 0.0039428820627863681 -0.0069283032483307312 -0.013990253977922968
leaf_weight=1493.2633724361658 1790.238054305315 670.4365057349205 4103.4626793563366 442.44418634474277 856.86870092153549 33913.322961300611 11647.109598755836 8427.6996638178825 8516.6260167956352 3713.4377836734056 7019.3370208144188 610.45495299994946 5152.0405716449022 677.44477382302284 2882.1589652150869 424.90351884067059 445.53630824387074 207.43554291129112 541.48723748326302 181.70041905343533 468.92917855083942 37.930991932749748 868.27669437229633 80.414987668395042 379.5091607272625 536.35191361606121 351.82812747359276 510.9305927157402 734.44493508338928 928.13030907511711 128.11693644523621 5598.8570961207151 71.177365437150002 427.96792751550674 409.06205020844936 287.45590397715569 167.9730615913868 2144.2059899717569 82.180827662348747 117.49505244195461 794.4058943092823 472.05593609809875 98.373893320560455 8524.5683488249779 2796.9796631783247 1047.3935581445694 85.138372480869293 33.668753206729889 137.43863402307034 7830.4089149534702 215.448286652565 10.493794918060301 227.58304028213024 74.732442662119865 2240.9699371904135 838.31424427032471 1180.7826512753963 28.247839480638504 249.45373675227165 107.26369392871857 54.198026180267334 1202.0363082736731 121.09226220846176 174.52406705915928 114.6012786924839 2787.7182350754738 7763.27837254107 202.10578091442585 14.960593491792677 9.249996140599249 279.8744844943285 1203.0273113101721 298.16559165716171 58.60426963865757 60.66856524348259 1313.0088939070702 95.168880730867386 84.156106889247894 302.16534695029259 231.84940278530121 2255.8318701535463 71.713818043470383 142.02922444045544 38.132859140634537 46.680186733603477 21.488794445991516 302.74660186469555 6.7470472902059546 55.425555899739265 766.43731017410755 160.76980401575565 268.36414347589016 136.78239484131336 260.47343511879444 21.480085372924805 166.70441560447216 51.705836445093155 40.735816672444344 49.226978629827499
leaf_count=5984 7164 2685 16435 1770 3429 135692 46599 33738 34081 14858 28088 2445 20617 2712 11534 1700 1783 830 2168 727 1878 152 3485 322 1522 2146 1408 2046 2939 3719 513 22413 285 1713 1637 1150 674 8578 329 470 3179 1889 394 34210 11191 4191 341 135 550 31370 862 42 911 299 8988 3361 4727 113 1000 430 217 4824 486 699 459 11160 31094 809 60 37 1122 4824 1193 235 243 5255 381 337 1209 928 9030 287 569 153 187 86 1212 27 222 3068 644 1074 548 1043 86 668 207 163 197
internal_value=0 -0.00636482 -0.0106866 -0.00586528 0.0131691 -0.00989438 -0.0110101 -0.0142999 -0.0107243 0.0058859 -0.0178475 -0.028087 -0.0166175 0.0435711 0.0285676 0.0281982 -0.0129788 -0.0187276 -0.0229639 -0.0226037 0.0468086 0.0250987 0.0304634 -0.0471454 0.00463543 0.0176426 -0.0325824 0.00349515 0.0248767 0.0217244 -0.0321927 -0.0329916 -0.0477008 0.0233742 0.00398199 -0.0481178 0.00139308 0.000763656 -0.0337046 0.00639248 0.000915429 -0.00597248 0.000913883 0.0512363 0.00970855 -0.00183117 -0.0356954 -0.0503409 0.0317813 -0.0505903 -0.0448259 -0.00609734 -0.0182189 0.0366409 0.0440818 0.0361001 -0.0414249 -0.0469861 0.0274795 0.0160919 -0.0469751 0.0533312 0.0238901 0.0149344 -0.0177683 -0.0391663 0.051482 0.0188411 -0.0451181 0.055137 0.0465909 0.0418205 0.00950586 0.0133133 0.0432436 0.0395233 0.0179771 0.0362682 0.0420509 0.0317816 0.0463305 0.000218302 0.0280279 0.0104573 0.0157553 0.0279407 -0.0537517 -0.0480247 0.0391691 0.0125679 0.0085293 0.0180669 0.0063295 0.0226936 -0.013122 0.0192499 0.0375597 0.0315499 0.0191319
internal_weight=0 136356 126107 111379 19457.3 91921.3 90428 74717.1 59330.4 17807 41523.4 15386.6 8865.48 19919.8 12245.8 8941.53 7211.45 6314.36 5825.84 34095 10249.5 1815.74 7350.73 14728.5 15710.9 6764.91 4153.09 15331.4 1372.12 4767.68 14249.8 14026.6 14648.1 1136.8 7428.4 14576.9 13959.3 13791.3 1948.34 851.94 1672.75 823.884 526.342 12569.1 4333.5 1489.84 575.775 12628.6 2431.41 12594.9 4461.76 425.903 331.253 1995.81 4044.53 1803.56 1522.44 4131.71 897.096 3778.88 1234.98 1239.97 965.241 3671.62 330.05 3329.21 8433.71 647.642 490.637 520.181 2583.05 1714.77 435.604 3441.67 988.799 1849.36 223.286 94.6499 5480.89 488.512 2598.73 146.446 511.742 180.162 2843.66 103.67 8133.16 475.676 229.95 3383.07 1951.01 1432.06 405.147 1026.91 878.349 844.149 331.58 342.901 256.663
internal_count=625644 545770 504709 445717 77871 367846 361862 298997 237400 71256 166144 61597 35475 79874 49005 35781 28866 25274 23319 136419 41061 7282 29449 58992 62865 27069 16625 61343 5492 19089 57045 56151 58670 4552 29725 58385 55851 55177 7799 3409 6694 3297 2107 50425 17339 5961 2306 50586 9730 50451 17869 1705 1326 7987 16215 7227 6094 16548 3592 15127 4944 4976 3866 14697 1321 13328 33779 2592 1965 2083 10360 6875 1743 13776 3962 7401 894 379 21936 1955 10402 586 2051 722 11378 415 32582 1905 921 13541 7808 5733 1622 4111 3515 3380 1329 1372 1027
is_linear=0
shrinkage=0.03


Tree=3
num_leaves=100
num_cat=0
split_feature=2 6 4 5 6 5 2 0 6 5 5 0 10 6 6 0 10 5 5 2 0 4 0 10 10 4 6 0 6 6 5 6 0 2 6 6 5 9 10 15 4 5 2 10 0 10 6 0 6 6 4 0 6 6 5 2 0 6 4 5 4 6 10 4 2 4 0 5 5 2 2 2 10 10 4 10 6 0 0 10 0 0 9 0 4 15 5 0 4 0 2 10 10 4 10 5 6 5 9
split_gain=45430.5 32824.6 23248.8 8935.95 8197.37 7260.68 4869.47 5956.98 8007 8350.38 3000.62 2824.9 2678.52 2523.79 2127.89 2070.04 1985.35 2315.54 1890.94 1361.35 1137.28 1086.45 3698.49 865.499 822.007 794.581 721.276 1070.34 674.338 763.986 688.601 641.803 678.708 621.027 616.208 548.85 520.277 475.963 450.323 425.18 398.569 381.291 316.233 520.402 306.409 305.583 293.461 336.44 285.049 279.987 275.584 256.274 323.82 253.738 325.662 236.275 232.39 219.359 210.386 203.241 180.575 179.083 172.424 167.101 157.296 154.752 145.748 142.189 135.006 197.8 130.634 125.455 119.69 114.402 111.381 110.73 101.797 100.758 98.8485 98.6553 98.5826 97.4441 115.672 95.846 105.643 95.5664 95.4402 160.111 94.9463 94.8529 92.6745 90.9438 89.4598 88.6708 88.3379 81.65 81.4484 73.3666 72.9941
threshold=3.5000000000000004 17.500000000000004 2.5000000000000004 3.5000000000000004 2.5000000000000004 1.0000000180025095e-35 2.5000000000000004 30.500000000000004 1.0000000180025095e-35 1.5000000000000002 1.5000000000000002 71.500000000000014 4.9225711289770144 2.5000000000000004 7.5000000000000009 55.500000000000007 4.2721402182010477 2.5000000000000004 4.5000000000000009 1.5000000000000002 31.500000000000004 3.5000000000000004 145.50000000000003 4.9636409603349039 4.8068455305063784 1.0000000180025095e-35 9.5000000000000018 34.500000000000007 14.500000000000002 5.5000000000000009 5.5000000000000009 8.5000000000000018 45.500000000000007 2.5000000000000004 4.5000000000000009 15.500000000000002 4.5000000000000009 1.0000000180025095e-35 4.3663638767424837 1.0000000180025095e-35 1.5000000000000002 2.5000000000000004 1.5000000000000002 3.8484040466841014 47.500000000000007 5.1614562946961682 11.500000000000002 93.500000000000014 1.5000000000000002 3.5000000000000004 1.5000000000000002 110.50000000000001 3.5000000000000004 3.5000000000000004 4.5000000000000009 4.5000000000000009 67.500000000000014 1.5000000000000002 15.500000000000002 4.5000000000000009 9.5000000000000018 14.500000000000002 4.1803988938864842 4.5000000000000009 5.5000000000000009 2.5000000000000004 79.500000000000014 1.5000000000000002 4.5000000000000009 5.5000000000000009 1.5000000000000002 1.5000000000000002 4.153076103615736 4.7086741467048414 1.0000000180025095e-35 3.9791004318650649 5.5000000000000009 59.500000000000007 42.500000000000007 4.4744189303040871 74.500000000000014 48.500000000000007 1.0000000180025095e-35 113.50000000000001 4.5000000000000009 1.0000000180025095e-35 1.5000000000000002 31.500000000000004 1.0000000180025095e-35 40.500000000000007 2.5000000000000004 4.1272861014612436 4.3019506903190488 1.5000000000000002 4.8465929777228363 4.5000000000000009 1.5000000000000002 2.5000000000000004 1.0000000180025095e-35
decision_type=2 2 2 2 2 2 2 2 2 2 2 2 2 2 2 2 2 2 2 2 2 2 2 2 2 2 2 2 2 2 2 2 2 2 2 2 2 2 2 2 2 2 2 2 2 2 2 2 2 2 2 2 2 2 2 2 2 2 2 2 2 2 2 2 2 2 2 2 2 2 2 2 2 2 2 2 2 2 2 2 2 2 2 2 2 2 2 2 2 2 2 2 2 2 2 2 2 2 2
left_child=1 2 3 5 18 -1 7 8 10 14 19 31 16 -11 -10 34 17 -9 25 -7 -18 67 85 26 28 42 37 -28 29 70 -31 32 64 39 62 74 49 38 -8 45 -29 -12 43 -5 -33 53 -14 -48 68 -35 57 52 -38 54 71 83 59 75 -24 -30 -53 -51 95 66 86 77 -56 -3 69 -34 -17 -4 -52 -73 76 -27 -36 -50 -37 -46 -26 -44 -83 84 -13 90 -2 -88 -20 -45 -23 93 -59 -90 -55 -6 -89 -67 -69
right_child=11 21 33 4 15 6 23 12 9 13 41 55 46 -15 -16 24 20 -19 88 -21 -22 22 58 -25 80 50 27 40 56 30 -32 44 48 36 35 78 51 -39 -40 -41 -42 -43 81 89 79 -47 47 -49 65 61 72 60 -54 94 63 -57 -58 92 -60 -61 -62 -63 -64 -65 -66 97 -68 98 -70 -71 -72 73 -74 -75 -76 -77 -78 -79 -80 -81 -82 82 -84 -85 -86 -87 87 96 91 -91 -92 -93 -94 -95 -96 -97 -98 -99 -100
leaf_value=0.0561124208794265 0.015452471465371157 0.036758730492840785 -0.049819689279245016 0.025500775548460204 -0.013169522455002251 -0.02983713586615553 0.0030669037999614427 -0.024500120018099196 0.036292696998102662 0.01410893982613853 -0.0038598641233014391 0.039336533633265829 0.041530680947467744 -0.036424787618697711 -0.037166978950082009 -0.013016077270612752 -0.054203399270955549 -0.0049688607591728681 0.037080891284602048 -0.01111201664017308 -0.028781574045792898 -0.04880315107427536 0.053490780811121838 0.049319898071537208 0.002346913822518156 0.016027032818870256 0.056348500155106354 0.011304626470654638 0.047147546753389537 -0.032150768582888962 0.0060459511758350652 0.053567568435826829 0.027451576729951441 -0.012847424097660829 -0.017542646049685494 0.053235286521881219 0.028530167190027662 0.051624514988403036 -0.011893675203465324 0.033103865429477852 -0.046569725071664007 0.012191886252013458 0.020739400731961039 -0.020836726564296252 0.005239011625869189 0.041568095757727554 -0.03560632262647416 0.043573707818103317 0.0046691596614187843 -0.047383377084862066 -0.011128493254326442 0.044629878742375735 -0.03815393768040462 -0.052682722736251485 -0.017541948385351461 0.052855275786700885 0.046359912518421087 -0.022726651981401943 -0.032632105157988589 -0.023786688933974988 -0.048036610233729855 0.0077212070141557329 0.00061977572000333856 -0.044411007479865906 0.047686866043453083 0.052863932225754091 0.033054717367434407 0.051468679163580944 0.048844361764301826 0.051390708244904867 0.017535873947933919 -0.040445512401970335 0.021368556691997647 0.0082709383178250565 -0.048488206126270791 0.040798430167897345 -0.03952497852138704 0.022955855633108938 -0.0065457389681394902 0.03442921268842359 0.041561081498666233 0.0080174581224297659 0.056209255817114792 0.050274607062757749 0.00076420035095086324 0.0563872689369962 -0.031369851157217014 0.0089743523082237153 0.039164911538535394 -0.0024724065243006649 -0.0065642836052536031 0.048056950340589009 0.024150637798072794 0.0047964374413655003 -0.036157781470069809 -0.04097872628824667 -0.012454622427441109 -0.017849857129588389 0.019593650601028821
leaf_weight=1488.5367198884487 655.76016293466091 669.52645607292652 2449.5484007447958 442.33908019959927 219.12387150526047 9702.2295506894588 11646.947269842029 16217.229770302773 7571.9488265812397 1316.0853983312845 6580.8988060951233 1396.6824928224087 629.32415097951889 2743.1526147425175 372.22362099587917 148.1652017980814 1821.6012044250965 8238.9202144742012 2879.321188852191 5462.4230717718601 12153.745863094926 461.97112831473351 1261.3828924894333 378.29229588806629 65.981220930814743 180.59487617015839 553.83102332055569 690.14937002956867 56.224909201264381 1291.5232031345367 632.70203521847725 1060.53938780725 1574.4580970108509 305.62176050245762 238.54831969738007 61.846530109643936 94.544423833489418 167.35863344371319 2144.0298987329006 57.387013509869576 126.65885601937771 1669.6477862745523 1447.9308877438307 617.37785276770592 160.91927026212215 33.583381101489067 108.96499302983284 86.58042699098587 512.21681639552116 1186.4287404567003 162.66736105084419 124.42825767397881 212.84346494078636 7824.4906038194895 147.20813140273094 10350.554712086916 296.28794904053211 74.71075801551342 25.949550166726112 102.41134576499462 22.2031589448452 55.439947634935379 573.81275248527527 114.61181415617466 86.486233592033386 141.77220873534679 78.467138186097145 7679.6724865734577 565.53009463846684 387.6851464509964 834.13881403207779 1637.3132603168488 272.81444808840752 44.427944421768188 1066.1698635965586 1666.7857832312584 938.90068896114826 577.46648988127708 41.447525128722191 297.15810950100422 469.43729335069656 1348.8840357661247 46.296866863965988 848.19451828300953 67.138855263590813 8.4805498719215375 121.91653354465961 849.00077265501022 509.27971759438515 429.72226329147816 52.234830766916275 2007.2016703039408 71.705126494169235 78.16199266910553 304.60256929695606 168.48779395222664 196.40280720591545 14.444573000073431 65.6779695302248
leaf_count=5984 2625 2685 9837 1770 877 38846 46599 64923 30325 5265 26333 5609 2525 10987 1489 593 7301 32975 11534 21857 48709 1854 5081 1522 264 723 2223 2762 225 5174 2532 4272 6312 1223 956 248 379 674 8578 230 507 6679 5794 2471 645 135 436 347 2051 4759 651 499 853 31436 589 41690 1186 299 104 410 89 222 2296 460 348 569 314 30830 2272 1561 3339 6568 1092 178 4276 6678 3765 2315 166 1193 1884 5398 186 3413 269 34 488 3398 2040 1720 209 8049 287 313 1221 675 786 58 264
internal_value=0 -0.00617967 -0.0103746 -0.00569272 0.012785 -0.00960287 -0.0106853 -0.0138789 -0.00495832 0.0149637 -0.0151711 0.0423843 -0.0219272 -0.0200401 0.0328499 -0.0126005 -0.0230754 -0.0179205 0.0277338 -0.0230925 -0.0320957 0.0455151 0.0244246 0.00449758 0.00221499 0.0171214 0.00339093 0.0241571 -0.00328355 -0.00860052 -0.0195901 0.0273816 0.0227503 -0.0458428 -0.030052 -0.038339 -0.030305 0.00135142 0.000740754 -0.0482927 0.00232203 -0.000611029 0.00941947 -0.00177664 0.0447087 -0.0486629 0.0315575 -0.000528588 0.0301254 -0.0385894 0.0308555 -0.00205915 -0.0176313 -0.0489039 -0.0431567 0.0509165 0.0306746 0.0355782 0.05175 0.00134926 0.0305546 -0.0449205 -0.00981763 -0.0149287 0.00817358 0.0183739 4.4039e-05 0.0500509 0.0359156 0.0321854 0.0129237 -0.0454807 0.00922314 -0.0391563 -0.0414526 0.0383795 -0.0350758 0.014364 0.0292355 0.0241848 0.0367355 0.0152858 0.00962269 0.0422339 0.0375696 -0.0428669 0.00629492 0.00114708 0.0408418 -0.013304 -0.0445203 0.0450125 0.000211182 0.0345987 -0.0520643 -0.0252729 0.00494476 0.046299 0.051199
internal_weight=0 136230 126005 111312 19441 91870.8 90382.2 74675 35418.6 12003.4 23415.2 19864.3 39256.4 4059.24 7944.17 7205.21 38431.5 24456.1 12235.8 15164.7 13975.3 10224.9 1810.02 15707.3 3896.87 6761.83 15329 1370.64 3361.45 2906.53 1924.23 7201.76 5683.14 14693.2 3308.34 2346.91 2001.51 13958.3 13791 12691.6 816.808 8250.55 4332.55 1489.44 1518.62 12634.3 824.87 195.545 3773.57 1547.49 2429.28 454.019 307.388 12600.7 4471.58 12662.6 454.924 1993.8 1287.33 158.636 146.631 1241.87 961.424 340.287 1909.57 1245.9 225.675 8414.88 2527.67 1962.14 982.304 4131.29 435.482 1681.74 2243.62 1847.38 1177.45 1089.68 103.294 458.077 535.419 2843.11 1395.18 2312.02 1463.82 522.687 1823.08 1167.32 5473.96 1047.1 514.206 2594.64 146.416 587.442 8129.09 387.612 1045.4 156.217 7745.35
internal_count=625644 545770 504709 445717 77871 367846 361862 298997 141781 48066 93715 79874 157216 16252 31814 28866 153908 97898 49005 60703 56010 41061 7282 62865 15607 27069 61343 5492 13459 11638 7706 28893 22783 58992 13259 9411 8024 55851 55177 50968 3269 33012 17339 5961 6110 50738 3308 783 15138 6204 9730 1820 1232 50603 17946 50981 1821 7987 5185 635 588 4981 3848 1363 7645 4993 903 33779 10145 7873 3932 16583 1743 6746 8997 7401 4721 4366 414 1838 2148 11378 5584 9291 5878 2097 7297 4672 21936 4191 2063 10402 586 2353 32657 1552 4184 627 31094
is_linear=0
shrinkage=0.03


Tree=4
num_leaves=100
num_cat=0
split_feature=2 12 4 5 5 10 8 0 0 2 0 5 0 10 8 12 10 5 10 14 4 0 2 0 0 9 4 5 10 2 0 15 0 0 2 4 4 4 4 0 12 2 2 5 4 4 10 4 0 0 5 9 0 4 5 4 10 2 5 4 10 2 4 0 4 0 2 10 4 4 10 9 4 11 0 10 0 5 0 4 0 10 0 10 5 4 0 0 2 10 5 10 10 10 10 10 2 15 4
split_gain=42898.6 20371.8 23726.4 12876 6707.33 6134.48 4181.7 3512.52 3289.46 3485.98 2693.13 1821.54 1762.25 1125.21 1017.75 1275.33 925.078 837.544 751.935 750.362 723.556 506.34 500.437 499.818 452.223 448.307 386.841 382.666 363.006 424.417 350.689 345.206 337.655 325.667 321.63 369.158 316.804 303.321 297.217 272.628 257.684 258.61 256.322 226.672 224.625 215.358 209.245 192.708 331.227 179.48 178.816 175.111 168.428 163.793 162.069 156.02 149.815 148.637 136.373 164.745 131.971 128.904 128.89 127.981 125.5 123.225 109.879 101.124 100.679 96.023 87.2589 83.6394 82.0547 80.6382 80.3872 80.2963 77.7176 151.079 78.0979 76.9737 141.497 76.3519 76.0548 74.4858 171.517 73.2981 73.7148 71.2588 70.1045 69.1305 61.9254 59.3884 57.2812 55.8969 55.4496 54.7406 54.4743 53.4781 53.4012
threshold=3.5000000000000004 1.0000000180025095e-35 2.5000000000000004 3.5000000000000004 1.0000000180025095e-35 4.9225711289770144 1.0000000180025095e-35 58.500000000000007 26.500000000000004 2.5000000000000004 71.500000000000014 2.5000000000000004 159.50000000000003 3.9500823121442488 1.0000000180025095e-35 1.0000000180025095e-35 4.2935915707055283 5.5000000000000009 4.6420965702539796 1.0000000180025095e-35 12.500000000000002 47.500000000000007 2.5000000000000004 42.500000000000007 50.500000000000007 1.0000000180025095e-35 1.0000000180025095e-35 4.5000000000000009 3.8484040466841014 1.5000000000000002 69.500000000000014 1.0000000180025095e-35 23.500000000000004 68.500000000000014 1.5000000000000002 1.0000000180025095e-35 1.5000000000000002 1.5000000000000002 1.5000000000000002 110.50000000000001 1.0000000180025095e-35 5.5000000000000009 1.5000000000000002 4.5000000000000009 1.5000000000000002 1.0000000180025095e-35 5.2567915322281928 4.5000000000000009 92.500000000000014 70.500000000000014 4.5000000000000009 1.0000000180025095e-35 48.500000000000007 9.5000000000000018 1.5000000000000002 3.5000000000000004 5.0604710965089454 5.5000000000000009 4.5000000000000009 1.0000000180025095e-35 4.1570910701883657 6.5000000000000009 2.5000000000000004 58.500000000000007 1.0000000180025095e-35 112.50000000000001 5.5000000000000009 4.2431182339658742 5.5000000000000009 1.5000000000000002 4.1687758975209999 1.0000000180025095e-35 1.0000000180025095e-35 0.026388405386554629 43.500000000000007 4.4834516878145614 39.500000000000007 1.5000000000000002 31.500000000000004 3.5000000000000004 82.500000000000014 4.4046571141376809 105.50000000000001 4.2804725858081571 7.5000000000000009 1.0000000180025095e-35 72.500000000000014 71.500000000000014 1.5000000000000002 4.4582097179183808 1.5000000000000002 4.6334283733314985 4.4834516878145614 3.9129666763809348 5.0604710965089454 4.0978330601150805 2.5000000000000004 1.0000000180025095e-35 1.5000000000000002
decision_type=2 2 2 2 2 2 2 2 2 2 2 2 2 2 2 2 2 2 2 2 2 2 2 2 2 2 2 2 2 2 2 2 2 2 2 2 2 2 2 2 2 2 2 2 2 2 2 2 2 2 2 2 2 2 2 2 2 2 2 2 2 2 2 2 2 2 2 2 2 2 2 2 2 2 2 2 2 2 2 2 2 2 2 2 2 2 2 2 2 2 2 2 2 2 2 2 2 2 2
left_child=1 2 3 4 -1 6 8 16 13 11 14 -10 19 32 15 21 23 18 34 22 91 66 31 28 42 -11 -15 52 -5 64 54 46 -6 72 44 51 -37 73 43 55 41 65 74 45 89 -25 47 48 -4 69 57 -36 -24 -41 63 75 -32 62 81 -60 -45 -16 67 -7 -30 68 76 -23 90 83 -31 -69 -20 92 -18 -29 77 95 -79 80 -54 -44 85 -19 -85 86 -51 -46 -74 -9 -12 -14 -26 -80 -35 -2 -65 -81 -76
right_child=10 -3 12 7 5 30 -8 17 9 25 40 -13 20 26 61 -17 24 49 33 -21 -22 50 27 38 37 -27 -28 39 29 70 56 -33 -34 94 35 36 -38 -39 -40 53 -42 -43 58 60 87 -47 -48 -49 -50 82 -52 -53 79 -55 -56 -57 -58 -59 59 -61 -62 -63 -64 96 -66 -67 -68 71 -70 -71 -72 -73 88 -75 98 -77 -78 78 93 97 -82 -83 -84 84 -86 -87 -88 -89 -90 -91 -92 -93 -94 -95 -96 -97 -98 -99 -100
leaf_value=0.054709812494392197 0.014355212498478355 0.054855220045862921 -0.045199541109616097 0.019669371116489955 -0.0028187184727993739 0.033638002707723366 0.05501369312386311 0.024518690782942183 -0.022443615857465588 -0.0018903358248099713 0.015592795747180119 -0.0098592127814746862 -0.024019772488162412 0.015779429126080477 0.053820349458116659 0.054521235213831495 -0.043156165267602499 0.039954341503579953 0.022529817516508018 0.052405714425437191 -0.042051204151566997 0.023198423165063056 0.0042827448215720428 0.0067317196048082588 0.011260831651876031 0.049833034939110621 -0.0095097320962409387 0.027070014972155016 -0.017533528277110605 0.015969125963584158 0.029934031758740761 0.029817033832681677 -0.011061694135256277 0.03879440482291284 0.00016885233365302997 0.03271918732582127 0.0019406190690663772 -0.033464058756684449 -0.010149142047094281 0.041306963135504672 0.053948864246387028 0.051150170044195455 0.0097299708788969787 0.03222771060058182 -0.025165145985531427 0.024727273981121446 0.027623540657724013 -0.051280924763537489 -0.0049805825515775674 0.04837753431079049 0.037560656645764745 0.054893604344821059 -0.036343398420436407 -0.052902594994537075 0.033804291849578463 -0.040645807030610825 0.04946555393937619 0.039499167995916934 0.0057852203552421749 -0.04251584388115591 0.016273571218895614 -0.020167718968253832 0.040002548182020252 -0.041960944822698742 0.00061044319216090298 0.047338492256652209 0.040079274687384717 0.0077018349617063199 -0.011588733875717964 0.0034350255221650247 -0.0055066022539575427 0.050051751019733304 0.026857104709964715 0.056464532377150364 -0.017409185933784762 -0.022411475729849896 0.0090527597769962456 -0.035636181909906445 0.0084006434789178127 -0.04504835298132636 0.014890533881484549 -0.013904763952159378 0.04947254568531325 0.029238967096809027 -0.033107940880020913 0.045897511608750434 0.030438488842832772 0.023771007900542616 -0.02955114660021755 0.039844457172603064 0.037027235487784214 0.047680215095214605 -0.0042433209521359891 -0.014910783562756266 0.051074666006073056 -0.013260337264048783 0.024418446420677642 0.052290734263451891 -0.053059537505025435
leaf_weight=1490.3564734905958 383.62017123401165 4776.3958607316017 5836.3053279966116 790.39919060468674 16175.053376540542 34.579407542943954 864.49071657657623 476.86546629667282 34666.515611276031 12965.012827083468 130.79904893040657 14760.718053176999 10.694998025894163 3526.625310510397 1131.8068424761295 904.51754292845726 390.0972755998373 544.07058320939541 90.755674794316292 71.103414848446846 123.41692785918713 768.61987660825253 79.846106305718422 1789.9490265548229 854.90676432847977 152.48717115819454 643.52972273528576 63.054076090455055 1249.1450416445732 840.46730005741119 468.68768592178822 51.851715281605721 6182.5789812505245 1314.5680999606848 1793.8815934509039 898.57939438521862 452.88211089372635 176.85919225215912 352.08886897563934 120.16119056940079 6262.0927786976099 3315.947485268116 302.14021125435829 1223.0855572521687 84.278690561652184 899.69472824037075 33.030153661966324 6905.5102345645428 190.50206604599953 270.10642026364803 643.76387387514114 54.118917375802994 346.95089191198349 19.156955510377884 106.11457179486752 174.86509315669537 1456.9472652673721 302.56874802708626 96.692656174302101 184.64942587912083 756.65555413067341 21.489511221647263 199.80954606831074 85.627213552594185 472.56914083659649 1047.4618485271931 73.824530586600304 1153.6912397444248 41.457905367016792 116.19576168060303 213.24181704223156 43.493753001093864 25.91410094499588 30.856322586536407 262.28301061689854 55.282107412815094 933.30558870732784 114.35661454498768 133.22745949029922 1075.0075602084398 56.252828344702721 207.34772090613842 1101.591337159276 474.56879918277264 43.21119287610054 952.20122495293617 888.03458371758461 39.089076027274132 82.910156607627869 602.32440359890461 1804.7712475955486 272.49650798738003 285.88609996438026 301.97228394448757 447.21371106803417 77.487179070711136 12.659660935401915 4.996559649705886 44.283210501074791
leaf_count=6019 1535 19265 23519 3166 64806 139 3485 1913 138964 51874 526 59148 43 14139 4582 3652 1568 2183 364 285 497 3081 320 7165 3429 617 2578 253 5007 3366 1885 208 24761 5280 7191 3607 1816 710 1411 483 25362 13425 1212 4906 338 3609 133 27842 766 1085 2591 218 1394 77 426 702 5884 1220 388 742 3037 86 804 343 1896 4233 298 4624 166 466 855 175 104 124 1053 222 3736 458 533 4321 226 832 4432 1903 173 3824 3563 157 332 2419 7269 1100 1147 1208 1806 310 51 20 178
internal_value=0 -0.00600292 -0.00821755 -0.00355188 -0.00842208 -0.00944375 -0.0106449 0.0170016 -0.0112823 -0.0150369 0.0412699 -0.0186856 -0.0430861 -0.00242983 0.0266141 0.0216773 0.00541717 0.0293073 0.0223515 -0.0447475 0.0185345 0.0158845 -0.0452082 0.0103235 -0.00943762 -0.00128846 0.011876 -0.0312116 0.00173358 -0.00337371 0.0404611 -0.0473534 -0.00509833 0.0378018 0.015466 0.0104925 0.0224082 0.00314229 0.0164225 -0.00622794 0.0496279 0.0453591 -0.0208436 0.0184269 0.028694 0.0127531 -0.0476625 -0.0478553 -0.0439289 0.0393885 0.023474 0.00177598 -0.0381222 0.0283025 0.00616708 -0.0226498 0.0447151 0.0197973 -0.00914813 -0.0259087 0.0261327 0.0524375 0.0170416 -0.0158918 -0.012552 0.0390076 0.00417732 0.0147043 0.03459 0.0293591 0.0116201 0.00924697 0.00146524 0.00867292 -0.0341124 0.00392943 0.00281037 -0.00295157 -0.0135774 -0.0404071 -0.0291862 0.000104549 0.043065 0.0321925 0.0240246 0.0397166 0.0346287 -0.00962873 -0.0160789 0.0330781 0.0355812 0.0449543 0.00737278 -0.00776729 0.0419161 0.00970616 -0.0333644 -0.0445904 -0.0225843
internal_weight=0 136036 131259 115769 93592 92101.6 89937 22176.7 89072.5 62544.7 19790.1 49427.2 15490.5 26527.8 7187.55 6034.26 11423.3 10753.4 6363.38 15083.9 406.608 5129.74 15012.8 8587.3 2836 13117.5 4170.16 1995.57 3565.82 2775.42 2164.62 13017.2 22357.6 1961.36 4402.02 3199.46 1351.46 1348.51 5021.47 432.519 12602.5 6340.44 1487.49 4669.38 1202.56 2689.64 12965.3 12932.3 6026.81 4389.98 3111.95 1848 1563.05 139.318 238.981 293.201 1925.63 2468.18 790.83 281.342 1979.74 1153.3 2165.61 132.866 1721.71 3024.49 2017.79 1965.8 1977.03 1178.05 1053.71 1197.18 199.58 1171.65 696.663 118.336 1943.97 1010.66 549.556 1483.21 403.204 509.488 3211.93 1061.85 517.78 2110.34 1158.14 123.368 108.824 1079.19 1935.57 283.192 1140.79 435.2 1761.78 461.107 98.2869 1080 306.566
internal_count=625644 545770 526505 464094 375119 369100 360372 88975 356887 250603 79874 198112 62411 106284 28893 24225 45801 43174 25545 60771 1640 20573 60486 34418 11383 52491 16717 8018 14290 11124 8728 52468 89567 7886 17659 12832 5423 5410 20128 1737 50981 25619 5973 18717 4827 10774 52260 52127 24285 17629 12495 7409 6281 560 959 1177 7769 9904 3174 1130 7943 4668 8684 533 6903 12194 8078 7880 7961 4725 4221 4799 800 4700 2799 475 7780 4044 2199 5961 1620 2044 12904 4259 2076 8472 4648 495 436 4332 7795 1143 4576 1741 7086 1845 394 4341 1231
is_linear=0
shrinkage=0.03


Tree=5
num_leaves=100
num_cat=0
split_feature=2 12 10 5 0 2 5 5 0 8 0 2 5 0 8 12 10 10 0 8 10 16 10 0 10 5 10 2 5 2 0 16 5 9 0 0 0 2 5 10 10 0 0 5 0 2 0 12 2 10 10 11 9 10 10 2 0 5 0 0 9 2 2 0 11 2 2 0 10 5 0 5 17 0 0 0 5 0 2 0 0 0 2 10 9 2 0 5 10 10 0 5 10 2 0 0 0 10 10
split_gain=40543.6 19257.5 7972.71 7520.42 9254.11 5225.2 4963.83 2731.77 2574.24 2285.61 2077.74 2203.09 1008.01 1423.23 970.871 1212.87 951.308 1246.61 1227.48 897.537 833.498 820.155 807.89 847.383 791.577 742.41 1325.84 898.811 675.817 623.76 601.736 513.024 493.283 491.242 568.41 477.938 477.388 426.942 383.842 373.508 351.276 340.905 331.293 281.04 264.925 263.103 258.855 248.476 248.948 229.169 221.086 210.175 206.219 203.169 280.764 202.674 198.567 169.565 167.917 155.521 154.81 141.068 122.482 118.065 115.546 103.919 103.144 94.6107 93.4506 87.3674 83.6132 83.3594 77.8061 76.654 74.6676 73.1457 142.202 74.2467 70.5555 69.1217 61.3037 60.1617 59.144 58.3679 62.5776 56.7564 53.6929 124.138 51.5224 46.6658 40.4205 39.4914 39.3154 36.9895 36.0127 33.6261 32.6839 43.7471 34.4788
threshold=3.5000000000000004 1.0000000180025095e-35 4.9636409603349039 3.5000000000000004 30.500000000000004 2.5000000000000004 1.0000000180025095e-35 5.5000000000000009 71.500000000000014 1.0000000180025095e-35 41.500000000000007 1.5000000000000002 2.5000000000000004 33.500000000000007 1.0000000180025095e-35 1.0000000180025095e-35 4.2479187254734176 4.6277634048516436 77.500000000000014 1.0000000180025095e-35 4.2804725858081571 1.0000000180025095e-35 4.0323090103106702 23.500000000000004 3.7622771702399702 2.5000000000000004 4.5815519071694135 1.5000000000000002 1.5000000000000002 1.5000000000000002 31.500000000000004 1.0000000180025095e-35 2.5000000000000004 1.0000000180025095e-35 54.500000000000007 47.500000000000007 43.500000000000007 1.5000000000000002 8.5000000000000018 3.754116269516945 4.0289501399503651 74.500000000000014 69.500000000000014 4.5000000000000009 40.500000000000007 2.5000000000000004 63.500000000000007 1.0000000180025095e-35 5.5000000000000009 5.1109071098542973 4.5358715900976554 0.071562690067061854 1.0000000180025095e-35 4.6334283733314985 4.2968803632312644 1.5000000000000002 21.500000000000004 4.5000000000000009 50.500000000000007 60.500000000000007 1.0000000180025095e-35 5.5000000000000009 6.5000000000000009 112.50000000000001 0.2701799302246688 5.5000000000000009 1.5000000000000002 203.50000000000003 4.3806577010949779 1.5000000000000002 83.500000000000014 1.5000000000000002 1.0000000180025095e-35 69.500000000000014 44.500000000000007 39.500000000000007 1.5000000000000002 28.500000000000004 1.5000000000000002 135.50000000000003 78.500000000000014 71.500000000000014 2.5000000000000004 4.1272861014612436 1.0000000180025095e-35 4.5000000000000009 157.50000000000003 1.5000000000000002 4.0978330601150805 4.1614516428183572 75.500000000000014 3.5000000000000004 3.932147521180839 1.5000000000000002 193.50000000000003 93.500000000000014 82.500000000000014 4.8068455305063784 4.7491492382683758
decision_type=2 2 2 2 2 2 2 2 2 2 2 2 2 2 2 2 2 2 2 2 2 2 2 2 2 2 2 2 2 2 2 2 2 2 2 2 2 2 2 2 2 2 2 2 2 2 2 2 2 2 2 2 2 2 2 2 2 2 2 2 2 2 2 2 2 2 2 2 2 2 2 2 2 2 2 2 2 2 2 2 2 2 2 2 2 2 2 2 2 2 2 2 2 2 2 2 2 2 2
left_child=1 2 3 4 6 10 -1 16 14 22 11 20 13 -13 15 35 29 18 36 31 32 25 23 24 -8 26 -12 -27 56 39 -22 33 -6 34 -7 65 45 -30 51 -5 -25 69 44 59 -41 -18 -19 48 63 66 52 53 -20 54 58 -56 -24 61 -9 64 -38 72 -16 71 -31 75 -43 81 -14 78 74 85 83 -23 -45 76 88 -78 -4 93 -61 -48 -80 -37 -85 95 87 -68 -2 -77 -87 -64 -79 -55 -52 -10 97 -73 -98
right_child=8 -3 41 7 5 19 9 38 47 -11 21 12 68 -15 62 -17 17 46 50 -21 30 73 28 40 -26 27 -28 -29 37 43 -32 -33 -34 -35 -36 57 60 -39 -40 42 -42 49 -44 70 -46 -47 67 -49 -50 -51 94 -53 -54 79 55 -57 -58 -59 -60 80 -62 -63 91 -65 -66 -67 86 -69 -70 -71 -72 96 -74 -75 -76 89 77 92 82 -81 -82 -83 -84 84 -86 90 -88 -89 -90 -91 -92 -93 -94 -95 -96 -97 98 -99 -100
leaf_value=0.053367889956265971 0.013928773446529737 0.053506193444408851 0.02876879058976179 0.029745901181765247 -0.030427030790625975 -0.0019623362823293694 -0.0058467083591782296 0.0052695468354007598 0.010849338674757058 0.054031940096997681 -0.039693923201585428 -0.000352148169212861 0.0066263002841569357 -0.022860235338755489 0.052555000180713227 0.053204622574214863 -0.033112808300739489 -0.01895187266956385 -0.037497073644696531 0.052719315881061969 -0.053870042125662723 0.051222938824680993 0.034704048329636861 -0.010643605810298303 0.0083116676751998891 -0.033415809762194812 -0.016439993250274332 -0.01662299933487562 -0.022626973692564896 0.011207861292193115 -0.026262288596322115 0.053476371008970118 -0.012783286833376841 0.048619167129769679 -0.016140803144717011 0.026521221178101354 -0.0022874752996989525 0.0072009360838981573 0.04465082345717155 -0.011349058356156527 -0.038155538520347379 0.0055856651842795821 -0.042516134851507986 0.011433679168617549 0.0058734067736963486 0.014211302185815324 0.0050679472311792907 0.052688209434791564 0.049931407547484277 0.047669223917926017 -0.01496752468856803 0.054631769557261851 0.054222262189205013 0.034770860570317252 -0.0050865235101485778 0.014565735930091963 0.011495117887356139 0.036552403574190671 0.028126099164222304 -0.0020876323426314842 0.044553297410222154 0.038464216312512171 -0.044167960420711715 0.046167340886838777 0.055694605106051315 0.039044382701877149 -0.0087967895251672631 0.051827794514649424 -0.030086639436625564 0.02422374768655786 -0.021823585211914666 0.032614437496040281 0.053739447814774501 -0.011530161919485606 0.029515350776740154 0.014111236352601246 -0.045705962207059386 0.0011268794872779475 -0.030438950763533874 0.043372275930528524 -0.03264997685472696 0.019012694431947297 0.029831676852530145 0.012423973368510199 0.047412758614083186 -0.033888957907278132 0.047259469732617444 0.034244326572582764 -0.012862053880493681 0.000327212405050074 0.042447249290346524 0.046956249478853428 -0.016219783970000401 0.021439926839887914 0.047994481316142014 -0.028565885744455767 0.034472641006652482 0.0058511844708961803 0.045478133271394557
leaf_weight=1427.7389177680016 383.50869473814964 4750.3023111522198 33.77137702703476 304.01794439554214 3441.9494632929564 9367.0800730586052 12186.062873467803 349.35873015224934 48.032741501927376 609.43475058674812 11765.017604619265 4016.65514087677 2698.8694998621941 6824.8531217128038 1124.3975354731083 899.1751818805933 706.98850846290588 189.27069421112537 1593.2790502011776 250.63788296282291 1751.3328885287046 119.31388249993324 370.98802857100964 14917.332424923778 5016.8991439044476 5803.8759514540434 2716.9617429822683 5674.6554157584906 939.54294015467167 3036.4118309766054 1197.0917731374502 135.47588589787483 2436.702697455883 150.85194352269173 3494.2003857344389 369.05878381431103 5977.8435428887606 798.94979082047939 633.03628535568714 1586.6208744496107 429.73135632276535 138.55829158425331 198.87281236052513 250.30696369707584 1628.926917463541 124.1662328094244 340.60355694591999 6220.1901655346155 3295.2883195728064 1996.6162006407976 528.68475651741028 153.46921588480473 22.261457592248917 290.25365160405636 660.78347922861576 1653.5596057772636 3148.4032255113125 641.70898236334324 1692.9432914704084 388.61693419516087 64.079943433403969 301.40860949456692 15.747092068195345 1041.8976219892502 53.415843740105629 73.515115588903427 68.469466149806976 70.781963333487511 63.752753615379333 141.85245290398598 33.073492929339409 667.5733470916748 49.448505833745003 20.404611244797707 1169.0478137731552 572.16212576627731 56.585664615035057 192.87109331786633 91.408408626914024 281.05118352174759 69.619718134403229 1543.3360298722982 17.315616652369499 1697.6890753507614 47.270867899060249 6.9581739157438269 197.30802235007286 497.19317862391472 77.49301640689373 360.91985672712326 52.822746187448502 5.7464174032211295 299.89197719097137 538.00810323655605 8.1876565814018232 32.573433220386505 685.59017226099968 60.25580221414566 417.00245136022568
leaf_count=5802 1535 19265 136 1219 13818 37475 48824 1402 193 2467 47364 16103 10806 27386 4582 3652 2846 760 6437 1019 7054 478 1491 59755 20108 23398 10932 22801 3767 12164 4814 543 9760 614 14026 1481 24040 3200 2551 6363 1724 558 804 1005 6541 499 1370 25362 13425 8108 2132 620 90 1170 2665 6654 12619 2591 6807 1559 259 1220 63 4233 215 298 276 286 256 571 133 2696 199 82 4697 2291 227 772 367 1136 280 6218 70 6813 191 28 801 2009 310 1445 213 23 1200 2168 33 131 2770 243 1687
internal_value=0 -0.00583086 -0.00798098 -0.00914795 -0.0128345 -0.0200907 -0.00155646 0.00520488 0.040225 -0.00359788 -0.0246693 -0.017973 -0.0103993 -0.0145216 0.0258859 0.0210687 -0.000232623 -0.00602966 -0.0109146 -0.00350554 -0.029645 -0.030424 -0.00452705 -0.00628962 -0.0017175 -0.0308143 -0.0353316 -0.0251144 0.00638387 0.00719338 -0.0426633 -0.00457799 -0.0231145 -0.00518306 -0.00581472 0.0154274 -0.00472266 -0.00891777 0.0225012 -0.00211108 -0.0114144 0.0389215 -0.00494928 0.0141128 -0.00262369 -0.0260386 0.0145326 0.0484292 0.0442283 0.0419972 -0.0306843 0.0200047 -0.0362281 0.019031 0.0161103 0.00895342 0.0139434 0.0228103 0.0242181 0.00956058 -0.00178946 0.0192301 0.0511981 0.0379878 0.0119797 0.00405379 0.029428 0.0177772 0.00577694 0.00755912 0.0252297 0.0336599 0.0165475 0.0420353 0.0263297 0.0027267 -0.0028641 -0.0131754 -0.00901463 0.0304963 -0.00674361 0.0164936 -0.020794 0.0156736 0.0133762 0.0113398 0.0337527 0.0290286 0.009417 0.00878334 0.0334703 -0.0195618 -0.00942523 0.0261188 -0.013993 -0.00505707 0.0353694 0.030404 0.0386414
internal_weight=0 135848 131098 127916 101775 61929.7 39845.1 26140.9 19696.8 38417.3 48531.4 22431.2 13604.1 10841.5 7168.6 6022.71 19888.4 11169.5 9025.49 13398.2 8827.08 26100.2 37807.9 32550 17203 25960.5 14482 11478.5 5257.88 8718.93 2948.42 13147.6 5878.65 13012.1 12861.3 5123.53 6873.08 1738.49 6252.46 3718.44 15347.1 3182.49 3414.42 5000.49 3215.55 831.155 2143.99 12528.2 6307.99 2898.15 2152.41 5619.43 1615.54 5465.96 4356.65 2314.34 3519.39 3106.58 2042.3 3548.06 6041.92 2464.88 1145.89 3012.71 3089.83 2016.95 901.529 1954.72 2762.62 284.348 1452.43 1970.81 2163.47 139.718 1419.35 1943.43 1010.35 549.349 142.495 1109.31 458.237 1883.94 108.724 2114.02 1744.96 140.387 762.971 565.663 461.002 933.082 59.7809 21.4935 492.763 828.262 536.872 80.6062 1830.42 727.829 1102.59
internal_count=625644 545770 526505 513609 408486 248729 159757 105123 79874 153955 195052 89997 54551 43489 28893 24225 79950 44970 36336 53677 35446 105055 151488 130411 68932 104495 58296 46199 21077 34980 11868 52658 23578 52115 51501 20573 27644 6967 25173 14927 61479 12896 13708 20053 12904 3345 8634 50981 25619 11752 8692 22622 6527 22002 17528 9319 14110 12495 8209 14218 24299 9904 4668 12194 12379 8078 3644 7874 11062 1144 5835 7961 8684 560 5702 7780 4044 2199 573 4474 1839 7588 437 8485 7004 565 3086 2285 1845 3736 241 86 1972 3338 2165 324 7396 2939 4457
is_linear=0
shrinkage=0.03


Tree=6
num_leaves=100
num_cat=0
split_feature=6 2 4 5 6 5 2 0 6 5 5 6 6 5 10 10 5 6 0 0 8 5 2 4 2 2 4 8 0 10 10 10 0 0 4 4 4 6 14 6 9 5 0 0 5 6 6 16 6 8 5 2 10 16 6 2 0 10 0 5 2 2 6 6 4 5 5 4 2 2 6 5 2 4 4 2 16 0 5 10 10 10 0 0 14 5 4 2 0 4 5 0 9 4 2 0 10 0 5
split_gain=39267.9 28772.1 20241.2 6557.64 6760.66 5867.53 3802.6 3997.61 7427.96 7589.7 2990.91 2367.23 2200.48 2535.05 2065.12 2073.93 2043.1 2034.24 1672.48 1638.61 1628.44 1518.87 1236.97 1119.18 4132.91 991.886 950.204 906.47 903.241 809.296 750.759 621.375 568.69 563.987 542.903 514.145 510.866 480.443 473.3 419.64 396.127 377.234 351.966 347.794 344.802 343.984 538.015 321.48 319.284 298.242 283.332 272.671 455.325 239.001 223.913 289.623 464.429 219.043 218.338 215.741 213.36 211.437 204.967 192.653 165.806 161.048 159.98 150.096 144.039 141.82 132.55 129.265 185.382 128.271 125.033 121.965 118.801 115.246 109.92 104.747 104.37 103.444 103.21 101.878 97.5762 92.7925 153.859 92.0162 99.6855 90.4007 88.882 87.8883 100.399 86.8682 115.428 86.327 85.4185 83.7027 83.5492
threshold=16.500000000000004 3.5000000000000004 1.5000000000000002 3.5000000000000004 2.5000000000000004 1.0000000180025095e-35 2.5000000000000004 30.500000000000004 1.0000000180025095e-35 1.5000000000000002 1.5000000000000002 2.5000000000000004 3.5000000000000004 4.5000000000000009 4.8465929777228363 4.3334280565219441 2.5000000000000004 7.5000000000000009 52.500000000000007 71.500000000000014 1.0000000180025095e-35 4.5000000000000009 1.5000000000000002 3.5000000000000004 2.5000000000000004 2.5000000000000004 1.0000000180025095e-35 1.0000000180025095e-35 31.500000000000004 5.0604710965089454 4.8197059323996436 4.8068455305063784 44.500000000000007 153.50000000000003 2.5000000000000004 3.5000000000000004 1.0000000180025095e-35 4.5000000000000009 1.0000000180025095e-35 7.5000000000000009 1.0000000180025095e-35 3.5000000000000004 69.500000000000014 29.500000000000004 2.5000000000000004 5.5000000000000009 11.500000000000002 1.0000000180025095e-35 1.5000000000000002 1.0000000180025095e-35 5.5000000000000009 1.5000000000000002 3.8484040466841014 1.0000000180025095e-35 10.500000000000002 2.5000000000000004 107.50000000000001 4.19969975696758 121.50000000000001 4.5000000000000009 4.5000000000000009 1.5000000000000002 1.5000000000000002 5.5000000000000009 12.500000000000002 8.5000000000000018 1.5000000000000002 2.5000000000000004 4.5000000000000009 6.5000000000000009 18.500000000000004 4.5000000000000009 5.5000000000000009 9.5000000000000018 1.0000000180025095e-35 5.5000000000000009 1.0000000180025095e-35 41.500000000000007 6.5000000000000009 4.153076103615736 4.1076890223497973 4.2189169050262914 61.500000000000007 76.500000000000014 1.0000000180025095e-35 2.5000000000000004 4.5000000000000009 1.5000000000000002 45.500000000000007 3.5000000000000004 5.5000000000000009 48.500000000000007 1.0000000180025095e-35 3.5000000000000004 1.5000000000000002 39.500000000000007 4.3019506903190488 100.50000000000001 1.5000000000000002
decision_type=2 2 2 2 2 2 2 2 2 2 2 2 2 2 2 2 2 2 2 2 2 2 2 2 2 2 2 2 2 2 2 2 2 2 2 2 2 2 2 2 2 2 2 2 2 2 2 2 2 2 2 2 2 2 2 2 2 2 2 2 2 2 2 2 2 2 2 2 2 2 2 2 2 2 2 2 2 2 2 2 2 2 2 2 2 2 2 2 2 2 2 2 2 2 2 2 2 2 2
left_child=1 2 3 5 21 -1 7 8 10 17 22 -11 13 25 15 16 -9 -10 37 27 30 26 -7 70 33 34 51 32 -17 38 40 36 75 -25 41 57 45 59 54 -16 47 43 -41 61 -12 -20 -47 -8 71 -39 63 52 -5 87 65 85 -57 -15 -26 -6 66 -4 80 -38 -35 93 -21 68 -50 -29 -2 72 84 -58 -23 98 -45 -61 -37 -43 -28 95 -32 -52 -34 86 -56 -36 -89 -83 -79 -53 -93 94 -14 -27 -64 -31 -3
right_child=23 19 12 4 18 6 20 14 9 11 44 -13 29 35 39 28 -18 -19 31 60 -22 74 -24 24 58 81 62 69 -30 97 82 -33 48 64 53 78 50 49 -40 42 -42 79 -44 76 -46 46 -48 -49 67 -51 83 91 -54 -55 55 56 73 -59 -60 77 -62 -63 96 -65 -66 -67 -68 -69 -70 -71 -72 -73 -74 -75 -76 -77 -78 90 -80 -81 -82 89 -84 -85 -86 -87 -88 88 -90 -91 -92 92 -94 -95 -96 -97 -98 -99 -100
leaf_value=0.052191958066592554 0.038793453038958488 0.013151286386694846 -0.021100583230211044 0.023858624906763534 0.00018756946348788867 -0.028808083263625762 0.00064539453982324273 -0.021547402033502212 0.035489622688918789 0.014701968254886694 -0.0028615003112185634 -0.034593983751299691 -0.050707293037316803 0.002092648864126365 0.040716123328100297 -0.052130672783337585 -0.0033183779767247505 -0.036589972179064068 0.005016018141774237 -0.005175589503105516 0.052672330145334657 0.034813684125868195 -0.010796440040297157 -0.045213564574972789 0.0040684161700645458 0.013699640454213464 0.025316916602193842 0.05139682871508755 -0.027641722787592426 -0.019259113161867823 -0.0051951590346417265 0.034252427480144051 0.022979465489003054 0.041771846572608552 -0.046268829887524149 -0.029278548582293416 0.021588283525370303 -0.041676515007223122 0.051382874599313087 -0.031261727481582978 0.048812471201550904 -0.016672312842941184 0.024079532286764897 -0.033920376051150218 0.012453830153555352 -0.032138485556603993 0.012906544204999905 0.053098578707034348 0.003931864332351368 0.058192588859931581 0.016700569347958941 0.019354532644217777 -0.012470000652272432 0.038217441710147092 0.0010955218642010702 -0.035477577861738926 0.044596658308475659 0.038936803600316559 0.050779035381237472 -0.050786589998819791 0.048064649328943283 0.02597613781085779 -0.022823163479892428 -0.012789912284482285 -0.040872253708375043 0.023437011243536022 0.037716846460372121 0.04034181478822229 0.023999305224947941 -0.035705851806097068 0.048770778748465082 0.045605534715446733 0.0479746682076106 -0.042946980079984313 0.044548540249636712 0.043061095591265572 0.051987648980990626 0.0055366143162879772 0.018677449325321997 0.015817056936001172 0.041082918223212611 0.018274741725432628 0.041032542772679308 0.046140499627464596 0.051873643469317721 -0.046399151847187806 -0.041987927985779765 -0.020248491003057974 -0.040302304860010955 -0.01487057401280628 -0.041975857186085423 0.0073023697468410243 0.052538803856261224 -0.050630097304617525 -0.039843221277363561 -0.018740200847682024 0.023010981422323697 0.041172072412292579 -0.00064569470944122738
leaf_weight=1447.9591009020805 1336.9223137646914 625.96795704960823 204.70278427004814 441.47538749873638 492.53735309839249 9548.4324042499065 13447.909619241953 16359.299351900816 7458.065795943141 1294.7818774580956 6507.1038053780794 2714.440713211894 1598.8453023433685 190.9766308516264 568.71215298771858 1633.7890754193068 8362.7213828712702 369.74359448254108 632.0524287968874 82.631060227751732 619.58957456052303 2864.7808040976524 5357.9860650151968 621.41803719103336 94.470187082886696 97.689486026763916 534.63284447789192 1080.3409935534 7972.9395688474178 25.541440084576607 47.36272805929184 430.36740653216839 1548.0696281045675 100.54766193032265 2422.4295828938484 198.51272329688072 231.88547191023827 1742.5261735320091 44.785562112927437 175.29835665225983 158.04642333090305 146.88341394066811 251.95791098475456 2279.0973035395145 1660.5128318071365 1039.4654643386602 309.5751309543848 105.89183874428272 801.57318675518036 27.226034551858902 210.51040472090244 1445.6133827418089 1045.8878920525312 33.140758335590363 105.58871383965015 311.5409347563982 109.54358062148094 608.53936670720577 2001.857510432601 149.11106270551682 5667.426496848464 147.74038381874561 74.687428683042526 398.98828440904617 27.785585165023804 28.046495914459229 1432.3857091665268 192.37454883754253 538.41173450648785 16.982819303870201 12056.542090862989 560.03920282423496 388.9584998190403 17.346727192401886 2039.7264362722635 76.891717419028282 14.46797916293144 88.911609396338463 54.75365361571312 227.40541976690292 1304.9653333723545 320.31687024235725 510.63987649977207 213.81422781944275 113.04791842401028 1436.1597950458527 252.9626697152853 267.13155119121075 1383.948170542717 96.139333173632622 58.697174444794655 1347.408527225256 45.584143951535225 5991.6465266048908 1977.6437850445509 300.39286878705025 71.553458318114281 104.76489499211311 1069.3110708147287
leaf_count=5926 5400 2510 821 1770 1972 38291 53834 65719 29921 5181 26056 10907 6466 767 2298 6614 33513 1480 2533 333 2523 11534 21455 2516 381 391 2146 4437 32107 103 190 1743 6232 410 9850 800 929 7017 180 704 648 588 1016 9157 6643 4170 1241 425 3217 109 844 5794 4191 133 427 1254 443 2454 8224 599 23250 592 299 1600 112 113 5821 778 2172 68 49063 2278 1593 70 8237 314 58 356 221 911 5255 1284 2074 859 462 5822 1028 1081 5606 386 235 5398 186 24349 7974 1203 287 426 4286
internal_value=0 -0.00515519 -0.00975794 -0.00432446 0.0125706 -0.00768934 -0.008708 -0.0116274 -0.00442781 0.0148923 -0.0143392 -0.0186731 -0.0366202 -0.0253995 -0.0187426 -0.0199781 -0.0153812 0.0320842 -0.0130587 0.0353171 0.00506306 0.0263395 -0.0223343 0.0441445 0.0270558 -0.0311985 0.0166068 0.0249994 -0.0318073 -0.0450267 0.00299533 0.000519939 0.0203519 -0.0333887 -0.0347828 0.0183409 -0.00426132 -0.031454 -0.0458428 0.0238397 0.00160683 -0.0251239 0.00136462 -0.0291114 0.000251922 -0.0132427 -0.0217992 0.00105581 0.0264364 -0.0401352 0.0125977 0.00871905 -0.00168413 -0.0418851 -0.0462116 -0.0376447 -0.0157704 0.0301411 0.0486758 -0.0119816 0.045389 -0.00135625 0.0337868 -0.000147607 0.0238372 -0.0482045 0.0353753 0.0155611 0.0119985 0.0500429 0.0477754 0.0328191 0.0293226 0.0325809 0.0388637 0.00612685 -0.0333749 -0.032185 -0.0188958 0.00305808 0.0365042 0.000159317 0.0371032 0.0315496 0.0249507 -0.0429856 -0.0292953 -0.0425384 -0.037061 0.0106142 -0.0133522 0.014171 0.0087885 -0.048415 -0.0447021 -0.0107705 -0.000376308 0.0292982 0.00444743
internal_weight=0 139008 124814 103815 17242 86573.2 85125.2 70235.8 34911.1 11837 23074 4009.22 20998.7 8994.27 35324.7 34328.7 24722 7827.81 6025.67 14194.4 14889.4 11216.3 14906.4 16239.5 2846.08 7941.49 6311.81 7011.97 9606.73 12004.4 14269.9 3466.66 5914.65 749.751 7126.95 1052.78 3036.29 2559.01 11874.1 995.968 13711.8 3020.3 427.256 2646.01 8167.62 1981.09 1349.04 13553.8 4142.47 1769.75 1055.2 4325.97 1487.36 4106.65 11829.3 2233.14 438.431 799.516 2096.33 789.257 7182.44 352.443 1985.84 630.874 128.333 9596.18 1515.02 1532.36 1339.98 1097.32 13393.5 2610.12 2050.08 126.89 4904.51 1772.17 2293.57 296.72 253.266 374.289 1839.6 814.539 558.003 424.325 1661.12 1794.71 358.551 4073.51 1651.08 416.456 147.609 2838.61 1392.99 9568.14 3576.49 398.082 146.241 130.306 1695.28
internal_count=625644 559538 501787 416829 69304 347525 341599 281905 139934 47489 92445 16088 84958 36303 141971 137953 99232 31401 24207 57751 59694 45097 59746 66106 11643 32061 25326 28347 38721 48655 57171 13919 23842 3038 28797 4242 12176 10288 48126 4018 54907 12127 1720 10628 32699 7944 5411 54259 16732 7126 4232 17339 5961 16670 47946 9044 1767 3221 8605 3162 29404 1413 7987 2529 522 38902 6154 6167 5389 4505 54463 10565 8287 513 19771 7110 9215 1190 1021 1499 7401 3264 2264 1703 6694 7277 1455 16537 6687 1670 591 11378 5584 38789 14440 1594 586 529 6796
is_linear=0
shrinkage=0.03


Tree=7
num_leaves=100
num_cat=0
split_feature=6 4 8 10 6 6 6 4 4 10 6 16 14 10 10 6 10 14 10 10 11 15 4 10 4 6 10 14 14 6 15 10 6 4 10 10 11 11 15 10 10 6 4 10 10 14 10 16 6 6 10 4 6 6 14 10 11 10 16 11 10 6 4 4 6 10 16 6 15 6 6 10 4 10 14 10 1 4 4 15 17 4 6 6 6 4 15 16 14 14 10 10 15 9 10 16 6 14 6
split_gain=37178.4 20591 6219.9 4701.57 4692.55 5428.99 3941.3 2987.01 2566.44 2390.3 2135.6 1637.97 1487.94 1473.67 1195.14 1258.06 1562.67 1125.95 1087.63 1033.36 871.249 790.09 775.783 977.479 643.99 2396.36 615.009 446.736 430.144 395.224 370.352 345.473 330.106 256.837 235.671 232.566 230.907 230.029 221.254 209.585 208.202 204.011 249.017 200.438 199.179 191.822 172.092 162.623 135.773 212.816 191.723 144.264 133.126 131.637 130.55 135.081 125.793 124.809 111.684 110.974 108.945 102.608 100.547 98.0815 104.722 95.4208 95.2636 94.9592 79.9082 77.2777 75.9825 73.8749 71.6752 123.316 69.2056 67.7083 66.7865 65.2335 65.7785 65.1853 64.9228 64.2533 87.0537 145.619 76.2954 53.3944 53.1686 53.1148 51.5419 49.0348 48.9323 47.6703 50.1414 47.3826 120.507 46.6517 45.5762 45.0839 41.8431
threshold=17.500000000000004 1.5000000000000002 1.0000000180025095e-35 4.7491492382683758 5.5000000000000009 1.0000000180025095e-35 3.5000000000000004 1.0000000180025095e-35 3.5000000000000004 4.1076890223497973 15.500000000000002 1.0000000180025095e-35 1.0000000180025095e-35 3.8207405297968093 4.9636409603349039 4.5000000000000009 4.2681116029202419 1.0000000180025095e-35 3.9370809226340469 4.6277634048516436 0.071562690067061854 1.0000000180025095e-35 1.0000000180025095e-35 4.3857572595349454 3.5000000000000004 25.500000000000004 4.2431182339658742 1.0000000180025095e-35 1.0000000180025095e-35 12.500000000000002 1.0000000180025095e-35 4.5815519071694135 3.5000000000000004 2.5000000000000004 5.2567915322281928 4.8897498995744861 0.071562690067061854 1.0000000180025095e-35 1.0000000180025095e-35 4.5110919334463286 4.4184479027514341 12.500000000000002 1.0000000180025095e-35 4.1570910701883657 3.4093737162980164 1.0000000180025095e-35 5.1614562946961682 1.0000000180025095e-35 10.500000000000002 3.5000000000000004 4.7086741467048414 4.5000000000000009 37.500000000000007 15.500000000000002 1.0000000180025095e-35 4.6513739657230202 0.2701799302246688 3.836596004488765 1.0000000180025095e-35 0.071562690067061854 4.0323090103106702 3.5000000000000004 2.5000000000000004 1.0000000180025095e-35 16.500000000000004 3.8731451023054726 1.0000000180025095e-35 13.500000000000002 1.0000000180025095e-35 5.5000000000000009 35.500000000000007 4.351851422660121 1.5000000000000002 4.4487919061827856 1.0000000180025095e-35 4.6109541499046252 1.0000000180025095e-35 9.5000000000000018 7.5000000000000009 1.0000000180025095e-35 1.0000000180025095e-35 1.0000000180025095e-35 11.500000000000002 5.5000000000000009 8.5000000000000018 1.0000000180025095e-35 1.0000000180025095e-35 1.0000000180025095e-35 1.0000000180025095e-35 1.0000000180025095e-35 4.3901231955840334 5.3897124635631615 1.0000000180025095e-35 1.0000000180025095e-35 4.4744189303040871 1.0000000180025095e-35 22.500000000000004 1.0000000180025095e-35 16.500000000000004
decision_type=2 2 2 2 2 2 2 2 2 2 2 2 2 2 2 2 2 2 2 2 2 2 2 2 2 2 2 2 2 2 2 2 2 2 2 2 2 2 2 2 2 2 2 2 2 2 2 2 2 2 2 2 2 2 2 2 2 2 2 2 2 2 2 2 2 2 2 2 2 2 2 2 2 2 2 2 2 2 2 2 2 2 2 2 2 2 2 2 2 2 2 2 2 2 2 2 2 2 2
left_child=1 2 3 4 5 7 18 11 14 56 19 17 21 44 15 16 30 20 57 36 -1 46 23 -20 70 54 -24 68 31 35 33 58 40 43 63 81 41 45 59 -34 62 47 -43 74 -8 -15 48 -6 49 51 -50 71 -27 66 55 -26 60 85 80 -11 -9 -45 97 64 67 -59 69 -31 76 -33 72 -10 93 -74 -3 -12 -21 78 -52 -64 86 82 83 -5 -85 -7 -17 -42 -69 95 -53 92 -57 -2 96 -35 -95 -18 -77
right_child=24 8 -4 29 10 6 13 9 12 38 75 -13 -14 37 -16 28 32 -19 22 27 -22 -23 26 -25 25 52 -28 -29 -30 34 -32 53 39 89 -36 -37 -38 -39 -40 -41 87 42 -44 61 -46 -47 -48 -49 50 -51 77 90 -54 -55 -56 91 -58 65 -60 -61 -62 -63 79 -65 -66 -67 -68 88 -70 -71 -72 -73 73 -75 -76 98 -78 -79 -80 -81 -82 -83 -84 84 -86 -87 -88 -89 -90 -91 -92 -93 -94 94 -96 -97 -98 -99 -100
leaf_value=-0.0092186232840307386 0.04666445597934242 -0.026271485049415795 0.049898601440547613 0.03182566650247088 -0.027718875439964458 0.031816164588112636 0.047072418950717641 -0.0070200855600686682 -0.033588868154162094 0.020434272728222302 0.036675430096242329 0.054634195160779102 0.050389158786980137 -0.010511344270540552 0.042002513366462157 -0.043747770712589187 0.0073294813600555484 0.050725774855002161 0.013769589328132631 -0.0067095741959846246 0.055115993011770746 0.041783997716071455 0.0069270573067533895 -0.0045648610730795961 -0.046197073040290568 0.028354558234874462 0.030766776779915864 0.050526478390710818 0.0524130950610803 0.016690826037334711 0.051755035974468289 -0.0060639017153352884 -0.034689301357161639 -0.036884696794563479 0.047725384930591093 0.04101299345163413 0.053765889283320822 0.052760258709490374 0.050767458023032112 0.0059159594819408294 0.020823095295755552 0.00072199570811216907 -0.034635680695100909 -0.0066273354604692346 0.018023320416251435 0.04936760779060613 0.03274616450701856 0.03642416941703859 -0.042654935659598714 -0.048374492904686088 -0.023689951917113566 -0.045567550206563771 0.04953731573622535 0.011091143556434185 0.049385480798681193 -0.018609336517861702 0.054746062330864348 0.011589322031162747 0.034074038554081316 0.052762263509540171 0.0020217478647847537 -0.04466410882665079 -0.013588116496906217 0.020803885607518006 0.028992419423796035 0.025782813318577506 0.052332892713126987 -0.015790178948873558 0.047231204420235665 -0.030266129841117515 0.050177956393644405 -0.013247874935708667 -0.010570202227673594 0.03991511657944196 0.052545074225044008 0.00421333291824115 0.051327562336935022 -0.047159012871845513 0.0018902395596006132 0.047658049664271437 0.013895592928612262 0.032492727298969543 0.043069708892974477 -0.0028053013510843479 0.020364587885251945 0.015253260229183024 0.040563936745576262 0.054552259251758425 0.056801310317913536 0.0457203887823227 -0.031371424673049465 0.04090763688455868 0.051601579377961643 -0.058485944144490307 0.04763632321463989 0.050035795177256703 0.031150375095023948 0.052667235533940128 0.030975390784790717
leaf_weight=50329.500672951341 6882.0412683784962 2234.8866510689259 2222.6146348118782 370.9902408272028 9274.0482148230076 3479.0085094869137 393.15104250609875 4697.0042126327753 918.57687436044216 5510.1025309562683 509.43865884840488 370.78192536532879 156.6345050483942 8873.5166859030724 263.42431628704071 2775.9983027130365 757.28650556504726 285.79894578456879 10619.705958247185 1428.4641330093145 190.055016502738 98.614235803484917 1404.7638904899359 3472.5531057864428 182.19284063577652 316.90141268074512 3178.4828305244446 142.70806536078453 49.004624277353287 120.59872654080391 55.907258614897728 135.10861529409885 270.47112174332142 1463.7275157719851 143.63993211090565 1837.3449783027172 32.46477422118187 52.44459043443203 234.17757929861546 197.974768191576 707.84146086871624 514.83870878815651 274.80381970107555 872.18305996060371 463.51499116420746 48.297985106706619 26.485590294003487 35.588432252407074 1212.8313779681921 6065.8668024688959 347.67168055474758 1633.4605545848608 1738.443858191371 90.503467693924904 22.019176244735718 367.96649359166622 32.080973953008652 592.03394730389118 16.831491366028786 97.321758478879929 1609.871299251914 68.820463687181473 338.32694517076015 278.4974752664566 89.102218315005302 1533.3293658792973 13.535208806395529 356.30224592983723 25.74017658829689 1002.7964207231998 4811.3410912752151 195.61927270889282 45.792157292366028 838.53382679820061 9.9573226422071439 115.29308937489986 17.96099291741848 75.219896867871284 121.98141597211361 16.282183229923248 17.700986266136169 745.63646325469017 138.2337800860405 295.26080864667892 225.28484317660332 185.49909166991711 6.6378959417343131 44.758444026112556 8.9131071120500547 6.4354708939790717 255.16715809702873 13.187208518385885 9.2723720669746381 17.24370446801186 55.834902033209801 5.4670695662498465 7.112438052892684 20.198045700788498 97.09132294356823
leaf_count=202140 28051 8984 9183 1497 37351 13977 1616 18858 3740 22246 2051 1491 642 35721 1078 11257 3057 1164 42724 5772 770 402 5646 14101 742 1302 12993 590 201 489 226 549 1096 5960 589 7503 132 214 967 804 2875 2073 1109 3509 1863 196 108 144 4954 24819 1416 6672 7206 367 91 1498 130 2376 68 398 6473 277 1373 1135 361 6156 55 1440 106 4073 19825 795 184 3435 40 464 74 306 497 67 72 3051 560 1195 914 745 27 181 36 26 1038 54 38 69 229 22 29 82 392
internal_value=0 -0.00486786 0.000193095 -0.000769835 -0.0020124 0.000200432 0.00981459 -0.00500387 -0.0311159 0.00834787 -0.0193434 -0.00818182 -0.041388 -0.00622854 -0.0211431 -0.0226318 -0.0149594 -0.00864042 0.0162613 -0.0224214 -0.00897643 -0.0427014 0.0127389 0.00925148 0.0443833 0.0309296 0.0234609 -0.000131878 -0.0358355 0.028912 -0.0249203 -0.0369029 0.00500841 -0.0258416 0.0121847 0.0335272 -0.0259737 -0.00981753 0.0221916 -0.0175247 0.0106113 -0.0262309 -0.0115819 -0.0210456 0.0313623 -0.0101863 -0.0434697 -0.027473 -0.0436567 -0.0451378 -0.0360111 -0.0385973 0.0462743 -0.0237127 -0.0221027 -0.0248651 -0.00440938 0.027622 -0.0427157 0.0209968 -0.00471163 -0.0094168 0.00247789 0.00619435 -0.000879887 0.0218313 -0.0264516 -0.00636972 -0.00504771 -0.0273959 0.0471994 -0.0300218 0.045372 0.0372966 -0.0259182 0.0307377 -0.00598333 -0.021212 -0.0170407 -0.0107548 -0.0431795 0.0257766 0.020908 0.017464 0.00721852 0.030979 -0.0435441 0.02284 -0.0139953 -0.0361919 -0.0436529 -0.0148935 -0.0168624 0.0463967 0.0233506 -0.0365558 -0.0321675 0.00851778 0.0164705
internal_weight=0 139504 116954 114731 110121 97653 34296.3 63356.7 22550.2 12180.6 12468.4 51176.1 11108.1 9830.93 11442.1 11178.6 7070.52 50805.4 24465.4 11746.6 50519.6 10951.5 18675.5 14092.3 15307.9 2649.98 4583.25 1614.87 4108.12 4609.8 4717.38 4059.11 2353.14 4661.48 997.054 3612.75 10131.7 8974.26 5841.6 468.446 1884.69 10099.3 789.643 3185.85 856.666 8921.81 10852.9 9309.64 10826.4 9068.69 1757.7 3002.82 2055.35 1241.94 594.638 572.619 6338.96 5789.87 2817.17 5607.42 6306.88 941.004 1132.09 853.414 574.916 2125.36 1151.44 485.814 1472.17 1137.91 12657.9 1114.2 7846.56 884.326 2244.84 721.823 1446.43 544.873 469.653 354.609 2800.34 1775.41 1029.77 891.536 520.546 3664.51 2782.64 752.6 365.215 1475.63 1888.63 390.426 377.239 6962.23 80.191 1469.19 24.3561 777.485 212.384
internal_count=625644 562891 471176 461993 443223 392965 138328 254637 91715 49072 50258 205565 45389 39610 46326 45248 28579 204074 98718 47351 202910 44747 75464 56825 62753 10931 18639 6542 16669 18770 19044 16468 9535 18818 4050 14720 40809 36131 23611 1900 7635 40677 3182 12810 3479 35917 44345 37495 44237 37064 7173 12245 8508 5044 2423 2332 25461 23254 11424 22644 25331 3786 4579 3461 2326 8532 4677 1965 5952 4622 51822 4535 31997 3619 9024 2907 5846 2219 1913 1440 11356 7217 4166 3606 2109 14722 11284 3056 1476 6008 7710 1590 1536 28378 327 5982 98 3139 856
is_linear=0
shrinkage=0.03


Tree=8
num_leaves=100
num_cat=0
split_feature=12 6 4 2 5 0 6 6 6 2 4 2 5 5 5 6 5 0 10 0 2 2 6 0 0 5 10 5 5 6 6 2 10 0 6 4 10 6 10 4 4 2 16 4 6 0 6 6 2 2 5 0 6 16 10 6 10 2 0 0 0 10 6 6 2 0 0 5 4 6 5 10 5 5 6 2 15 5 6 4 6 0 10 5 4 2 2 6 0 15 10 5 4 2 6 5 6 0 5
split_gain=35861.6 25851.5 17690.9 9366.44 4765.48 5217.98 7977.82 4799.74 4729.37 4636.88 3042.79 2485.42 2189.24 1939.8 1924.53 1804.12 2039.82 1714.73 1694.54 2069.9 1435.69 1391.29 1361.44 1336.49 1308.14 1144.06 992.52 946.38 903.368 1498.62 831.223 826.011 776.288 710.587 748.148 645.609 582.423 556.877 552.599 494.713 469.778 449.973 443.566 439.649 376.171 369.449 356.966 337.232 335.003 293.881 277.176 332.024 264.88 251.078 250.45 247.57 245.064 363.864 244.333 227.81 227.731 219.084 218.222 218.143 303.239 376.108 201.717 197.317 192.294 189.974 188.857 160.309 160.157 159.99 130.269 128.565 127.521 122.296 119.938 116.814 112.932 107.324 101.357 100.953 96.8036 94.7765 90.7113 89.1693 80.5471 77.5194 77.3746 75.7097 75.4062 105.574 74.9278 72.3682 71.7202 70.9938 69.6765
threshold=1.0000000180025095e-35 16.500000000000004 1.5000000000000002 2.5000000000000004 3.5000000000000004 26.500000000000004 1.0000000180025095e-35 2.5000000000000004 6.5000000000000009 3.5000000000000004 3.5000000000000004 3.5000000000000004 1.5000000000000002 1.5000000000000002 1.0000000180025095e-35 3.5000000000000004 4.5000000000000009 139.50000000000003 4.9054943313772812 41.500000000000007 1.5000000000000002 1.5000000000000002 1.0000000180025095e-35 21.500000000000004 52.500000000000007 4.5000000000000009 4.3242908619649159 4.5000000000000009 2.5000000000000004 3.5000000000000004 5.5000000000000009 1.5000000000000002 4.9636409603349039 71.500000000000014 8.5000000000000018 1.0000000180025095e-35 4.604240497650042 2.5000000000000004 5.0604710965089454 4.5000000000000009 2.5000000000000004 1.5000000000000002 1.0000000180025095e-35 1.0000000180025095e-35 2.5000000000000004 47.500000000000007 14.500000000000002 5.5000000000000009 1.5000000000000002 3.5000000000000004 3.5000000000000004 31.500000000000004 10.500000000000002 1.0000000180025095e-35 4.19969975696758 12.500000000000002 3.8245360938048432 1.5000000000000002 44.500000000000007 82.500000000000014 76.500000000000014 3.7887950056414783 1.5000000000000002 10.500000000000002 2.5000000000000004 107.50000000000001 93.500000000000014 4.5000000000000009 12.500000000000002 1.5000000000000002 1.5000000000000002 4.8609197030585358 4.5000000000000009 8.5000000000000018 6.5000000000000009 2.5000000000000004 1.0000000180025095e-35 2.5000000000000004 18.500000000000004 9.5000000000000018 6.5000000000000009 105.50000000000001 3.7799939417541011 1.0000000180025095e-35 1.0000000180025095e-35 2.5000000000000004 5.5000000000000009 5.5000000000000009 41.500000000000007 1.0000000180025095e-35 3.958230662014651 2.5000000000000004 3.5000000000000004 1.5000000000000002 4.5000000000000009 1.5000000000000002 3.5000000000000004 47.500000000000007 1.5000000000000002
decision_type=2 2 2 2 2 2 2 2 2 2 2 2 2 2 2 2 2 2 2 2 2 2 2 2 2 2 2 2 2 2 2 2 2 2 2 2 2 2 2 2 2 2 2 2 2 2 2 2 2 2 2 2 2 2 2 2 2 2 2 2 2 2 2 2 2 2 2 2 2 2 2 2 2 2 2 2 2 2 2 2 2 2 2 2 2 2 2 2 2 2 2 2 2 2 2 2 2 2 2
left_child=1 2 3 4 5 6 13 25 12 15 78 23 83 14 -1 16 31 49 19 20 26 -16 -22 44 47 35 -7 32 36 -30 84 70 42 34 45 56 -21 -14 63 54 50 61 52 46 -5 86 71 67 77 89 51 -33 -25 75 -18 -20 -6 -58 -36 74 80 -15 72 73 76 -66 -57 94 -19 90 -4 -26 -47 92 -45 -42 91 -10 98 -67 -32 87 -43 -8 96 -70 -13 97 -69 -12 -37 -65 93 -17 -9 -35 -29 -11 -3
right_child=-2 10 9 11 7 18 8 24 48 81 17 33 37 41 21 38 39 68 55 28 22 -23 -24 27 43 -27 -28 30 29 -31 60 40 -34 95 58 69 -38 -39 -40 -41 53 82 -44 59 -46 62 -48 -49 -50 -51 -52 -53 -54 -55 -56 66 57 -59 -60 -61 -62 -63 -64 64 65 79 -68 88 85 -71 -72 -73 -74 -75 -76 -77 -78 -79 -80 -81 -82 -83 -84 -85 -86 -87 -88 -89 -90 -91 -92 -93 -94 -95 -96 -97 -98 -99 -100
leaf_value=0.051663189410345992 0.050505258324046412 0.016502520479142208 -0.024382465029385372 0.0051019073172524666 0.024870393253074743 -0.017400490486670351 0.050457827570162601 -0.001075920098012428 -0.032638372978310064 -0.017792554937766696 -0.042835881523480987 0.0031899545537338292 0.016644801751068437 0.018271537153248162 -0.026833303907765314 -0.048606242014714807 -0.003260847229072742 0.04402954971268358 0.034760256197896924 -0.037651523208730477 -0.014418949287723302 -0.0048283714377067629 0.0026847246875824006 -0.00064952030774977402 -0.018374612729333488 0.036355517480258774 -0.038915079929035604 0.032434508869343612 -0.0047702189595744187 -0.036868056862308908 0.0021396081061878401 0.017600691255355651 0.044422313358975417 0.020201762763441506 0.048435979653296241 0.011052474852824576 -0.016596998734543511 -0.020106578212558273 0.023625352036070042 -0.038165728377806331 -0.036139182572586984 -0.01235699546619314 0.050290608385783669 0.017925691517828371 0.049646354581190537 0.022549937116211231 0.032954826839548805 -0.042952682987251953 0.019385537217296356 0.034510759716713371 0.01583479452231179 -0.020769575461829625 0.01844779556222172 0.051004093076632062 0.033816353167587083 -0.041437506219384163 -0.011008842850964628 0.011476685345602538 0.017137850198880079 0.038065477709162486 0.020859556058971971 -0.00026047435981887653 0.0096958949131958176 -0.02932319933457532 -0.030430909267714221 0.043406768332327525 0.040044119167500072 -0.049123807658214606 -0.042934985314225092 -0.0087720976382529795 -0.043202839251219018 0.025252213691033254 0.043698869288110946 0.024427993841998091 -0.010752006120827278 -0.014344297082079498 0.049672449450829027 -0.054723638270337979 0.04559304326607283 -0.04073172454446955 -0.034820560180956639 0.043943281249370782 0.002549730488957104 0.036811599009033483 0.044976060673574222 0.031072094641713805 0.037694068235755933 0.0077396747241015602 -0.022359323143149135 0.050795638849825825 0.035357069047781998 -0.044976366215097978 -0.048388998610935138 -0.038157339539053134 -0.023960564391505824 0.039766007964288745 0.0073862740966632642 0.033627603866749761 0.038258814310963757
leaf_weight=343.85298344492912 11696.227093547583 152.06501448154449 562.82149210572243 218.47481450438499 507.85055315494537 8796.4893125444651 534.19730193912983 405.87266045808792 426.8200621753931 25.463491752743721 644.08740535378456 1898.7956575006247 714.00274936854839 1834.3730279654264 8682.0762699097395 1580.8870006501675 223.11332443356514 426.61608345806599 633.55895887315273 6833.7836198806763 12205.052105754614 3683.4695623666048 6376.5406224280596 14368.94080029428 1172.5085181593895 3358.1918901950121 2472.7089590728283 779.43343396484852 3127.3032634109259 2251.9998430609703 108.48891784250736 235.69370292127132 375.23646913468838 183.41625118255615 913.69516842067242 131.12411659955978 1430.8389636576176 772.31761142611504 109.30657836794853 133.5840380191803 1619.9343059808016 1140.8552795499563 160.83150827884674 338.22498242557049 781.853918582201 1202.63367369771 153.08724358677864 1201.9255786389112 80.637336522340775 48.864976897835732 300.63485996425152 1455.3227054923773 684.69952194392681 32.568910405039787 616.72250591218472 76.588800728321075 1108.0136809498072 1558.6427973210812 298.22979405522346 298.34840646386147 152.52749125659466 835.19329936802387 877.74519599974155 348.8847336769104 320.95004291832447 104.52563244104385 42.375700891017914 199.01090414822102 36.934234008193016 105.60342766344547 3305.6745103448629 80.902001708745956 441.15730912983418 28.753321960568428 246.1575919687748 287.48462204635143 13.690798074007033 482.85571348667145 9026.405831053853 17.190094351768494 235.61068446934223 330.27387954294682 640.72687377035618 5896.2414907664061 567.77427412569523 26.7449601739645 71.069453999400139 227.76492495834827 207.65777076780796 7.9486963450908652 1212.046444311738 1412.1413330435753 5904.6248750686646 1955.9294238239527 188.71054370701313 2540.1200916469097 118.97102311253548 430.68309582769871 1068.6380190104246
leaf_count=1412 48514 619 2288 875 2038 35344 2216 1625 1713 102 2627 7610 2859 7344 34886 6463 896 1769 2582 27589 49006 14754 25627 57548 4708 13570 10044 3148 12540 9091 436 945 1550 751 3824 526 5769 3104 447 544 6622 4567 654 1357 3260 4858 617 4879 325 201 1204 5856 2770 131 2492 308 4443 6241 1210 1209 617 3343 3528 1429 1300 424 173 803 150 423 13510 330 1805 116 989 1155 55 1949 37090 70 946 1362 2565 23754 2311 110 291 922 834 32 4888 5788 24350 7946 761 10448 478 1751 4341
internal_value=0 -0.00413429 -0.00790113 -0.00301896 -0.00802166 -0.0110532 -0.000405768 0.00906697 0.0226302 -0.0327291 0.0391221 0.012332 0.030362 -0.0123627 -0.0183318 -0.0358167 -0.0255131 -0.00625747 -0.017326 -0.0180982 -0.0136734 -0.0202788 -0.00854943 0.00619506 -0.015737 0.0230284 -0.0221218 0.00427254 -0.0277787 -0.0182087 0.0239041 -0.0306233 0.00180052 0.0258426 0.0198209 0.0133468 -0.034007 -0.0024499 -0.043479 0.0154313 -0.020937 0.00468031 0.000748848 0.00014329 0.0399222 0.0141751 -0.0102705 -0.0322381 -0.0391735 -0.0363618 -0.0106993 -0.015419 0.000219019 -0.0314448 0.0239635 0.0273035 0.00577176 0.00213261 0.0407387 0.0167388 -0.00963406 0.0124727 0.0217801 -0.0441071 -0.0356266 -0.013399 -0.0123789 -0.01937 0.0367707 0.0299412 -0.0404662 -0.0155545 0.02823 -0.046092 0.00584097 -0.0328568 -0.0411681 -0.0443693 0.0443976 0.0314755 -0.0231617 0.0298887 -0.00699443 0.0379465 0.0352662 -0.0118053 0.00443818 0.0230917 -0.0354733 -0.0416822 0.0329876 -0.0418788 -0.0463073 -0.0428299 -0.00834697 0.0384503 0.029122 0.0307473 0.0355526
internal_weight=0 142791 131353 109768 82788.7 70314.9 26067.6 12473.9 8907.07 21584.6 11438.3 26979.7 7916.76 17160.5 12709.4 20570.4 8773.55 1191.2 44247.2 43494.7 29850.8 12365.5 18581.6 18552.8 4492.41 7981.47 11269.2 17552.5 13643.9 5379.3 1962.81 7800.14 15589.7 8426.86 5703.33 4623.28 8264.62 1486.32 11796.9 973.42 3931.64 4451.15 15214.5 2289.23 1000.33 4491.4 1406.5 2203.18 990.313 700.901 1991.65 1691.02 15053.6 1939.99 839.836 752.523 3174.51 2666.66 1211.92 882.731 496.627 2669.57 2521.54 11687.6 2217.38 442.666 118.965 1001.25 490.295 1448.77 3868.5 1253.41 1643.79 9470.19 584.383 1907.42 1774.72 909.676 10247.1 121.716 344.1 1014.19 1781.58 6430.44 1466.18 63.6792 1969.87 683.912 406.669 652.036 1343.17 1761.03 9441.44 3536.82 594.583 2723.54 898.404 456.147 1220.7
internal_count=625644 577130 530191 442023 333105 282864 104791 50241 35920 88168 46939 108918 31933 68871 51052 84031 35643 4889 178073 175010 120021 49640 74633 74593 18112 32129 45388 70458 54989 21631 7936 31711 62522 34325 23126 18559 33358 5963 48388 3932 15913 17819 60972 9210 4135 18092 5655 8902 3987 2860 8005 6801 60318 7908 3388 3063 12722 10684 5034 3555 1999 10687 10191 47941 9066 1794 481 4023 2029 5837 15798 5038 6663 38875 2346 7777 7272 3662 42050 494 1382 4137 7132 25970 5937 260 7901 2775 1637 2659 5414 7217 38759 14409 2386 11199 3626 1853 4960
is_linear=0
shrinkage=0.03


Tree=9
num_leaves=100
num_cat=0
split_feature=2 6 4 2 6 6 0 0 10 8 6 6 2 4 0 10 10 0 6 4 0 4 8 0 10 10 6 0 10 6 0 2 0 0 2 14 0 4 11 10 14 6 6 10 0 0 0 6 0 6 0 2 10 0 2 4 10 2 2 2 2 4 0 4 0 2 10 0 2 0 4 6 0 10 0 4 0 10 15 10 2 11 10 0 2 10 2 6 10 2 0 6 4 15 4 10 0 4 0
