tree
version=v4
num_class=1
num_tree_per_iteration=1
label_index=0
max_feature_idx=9
objective=binary sigmoid:1
feature_names=Column_0 Column_1 Column_2 Column_3 Column_4 Column_5 Column_6 Column_7 Column_8 Column_9
feature_infos=[-1.1197277442119344:29.813523013385723] [-1.3615988619382133:22.406611728145993] [-0.46464643302245018:16.859650886857803] [-0.29673962865201459:151.54852819101981] [-1.5323424555097813:18.521481278589889] [-0.41212013897332328:36.052805141688438] [-0.14489197790017949:75.544255198643285] [-0.012657651683715092:79.003596005613446] [-0.12308239209765243:8.1246389752208366] [-0.06118704017641529:16.343330174441952]
tree_sizes=3422 3471 3464 3472 3486 3453 3506 3479 3520 3485 3477 3491 3491 3484 3495 3518 3505 3495 3539 3508 3512 3508 3519 3496 3446 3522 3505 3471 3506 3450 3529 3518 3493 3484 3476 3508 3507 3519 3485 3522 3478 3470 3540 3488 3450 3507 3430 3535 3522 3515 3455 3459 3450 3439 3481 3555 3473 3470 3498 3511 3559 3524 3467 3492 3460 3486 3512 3227 3504 3559 3475 3460 3483 2809 3454 3356 3430 3522 3469 3535 3244 3491 3453 3564 3459 3507 3429 3103 3159 3448 3431 3558 3477 2728 3427 3517 3475 3114 3506 3506

Tree=0
num_leaves=31
num_cat=0
split_feature=1 5 2 4 3 0 8 8 2 0 4 1 6 2 4 1 0 4 1 0 3 1 5 9 1 0 4 0 2 5
split_gain=36860.8 20103.6 11580 8927.33 7619.37 4958.5 3705.95 3173.36 2052.11 3249.29 1298.53 1042.58 918.558 871.495 793.426 457.515 363.539 339.017 334.396 261.306 314.538 247.302 344.067 229 224.001 217.239 208.186 207.943 193.316 186
threshold=0.94919938987552899 1.1000509330920345 1.0000000180025095e-35 -1.2190014596644738 1.0000000180025095e-35 0.60253840058880848 1.0000000180025095e-35 1.0000000180025095e-35 0.97904501030090441 2.6512471479988426 0.66104451540737008 1.6094274618223128 1.8174192451953917 0.56656174077994603 1.9144084987885994 1.6094274618223128 1.1203439081759601 1.2877265070979849 2.2696555337690962 1.3454767375616781 0.84209987999552427 1.0000000180025095e-35 0.66800205535907498 1.0000000180025095e-35 2.9298836057158799 0.62505168352738039 0.66104451540737008 2.5837072991831271 6.3413275140733649 -0.10968592456025179
decision_type=2 2 2 2 2 2 2 2 2 2 2 2 2 2 2 2 2 2 2 2 2 2 2 2 2 2 2 2 2 2
left_child=1 2 3 -1 6 7 -5 11 12 -10 -6 17 19 14 16 -7 -4 23 26 20 -3 -15 -23 -2 -9 -16 -13 -14 -11 -19
right_child=5 8 13 4 10 15 -8 24 9 28 -12 18 27 21 25 -17 -18 29 -20 -21 -22 22 -24 -25 -26 -27 -28 -29 -30 -31
leaf_value=-0.57598855728252119 -0.88605556525525486 -0.64577284990657224 -1.001792009074542 -0.91953358351927361 -1.0205448735743441 -0.68633738929185051 -0.5721326859064404 -0.57192340655029772 -1.0185726027900017 -0.58371174866049169 -0.93358189850921103 -0.81547424286463721 -0.97831401517380967 -1.0462859434700147 -0.87849900110441081 -0.59497904288433845 -0.7727970023923415 -0.69277513758309184 -0.6558802411678033 -0.58258952645356521 -0.86109373223599639 -1.0172552181493086 -0.8462505749678978 -0.59833108883960473 -0.92846648977034985 -0.66806809457750638 -0.68820899015006987 -0.74814874511691165 -1.0399786045527162 -0.88945635008332657
leaf_weight=702.43617607653141 1752.118997618556 1490.0037878155708 4280.6041022837162 50263.5955196172 10050.1936737746 688.58704300224781 308.95786578953266 632.17219209671021 427.89747925102711 310.58717556297779 2070.8527220487595 478.40608222782612 92.056002199649811 9947.5471580475569 128.30814465880394 2687.9537987411022 70.467647701501846 159.46869407594204 315.0677774399519 715.2669905424118 71.07863886654377 1283.896101474762 129.53012698888779 28.105593591928482 18.126071229577065 79.428851455450058 175.76179181039333 68.431010484695435 9.5721949189901334 68.838337928056717
leaf_count=3449 8603 7316 21018 246797 49347 3381 1517 3104 2101 1525 10168 2349 452 48843 630 13198 346 783 1547 3512 349 6304 636 138 89 390 863 336 47 338
internal_value=-0.921063 -0.939762 -0.949654 -0.930506 -0.934478 -0.700824 -0.917411 -0.781991 -0.693419 -0.838296 -1.00569 -0.825696 -0.648945 -1.0259 -0.988968 -0.61361 -0.998083 -0.8668 -0.740517 -0.632643 -0.655577 -1.04072 -1.00158 -0.881513 -0.581862 -0.79804 -0.781281 -0.880172 -0.597353 -0.752078
internal_weight=89505.3 82500.7 79315.8 63396 62693.6 7004.61 50572.6 3628.07 3184.89 748.057 12121 2977.77 2436.84 15919.8 4558.81 3376.54 4351.07 2008.53 969.236 2276.35 1561.08 11361 1413.43 1780.22 650.298 207.737 654.168 160.487 320.159 228.307
internal_count=439476 405083 389445 311278 307829 34393 248314 17814 15638 3673 59515 14621 11965 78167 22384 16579 21364 9862 4759 11177 7665 55783 6940 8741 3193 1020 3212 788 1572 1121
is_linear=0
shrinkage=1


Tree=1
num_leaves=31
num_cat=0
split_feature=1 5 2 3 4 0 4 8 2 0 4 1 2 2 4 5 6 1 1 1 1 5 0 0 1 2 4 0 2 0
split_gain=27425.2 15076.8 10051.8 7151.56 5678.63 3186.76 2615.91 2288.97 1321.51 2351.96 1154.78 998.454 811.455 670.192 660.393 666.501 588.089 484.438 395.827 271.817 234.015 295.054 217.183 194.114 162.662 161.964 159.715 158.395 280.646 158.387
threshold=0.94919938987552899 1.1000509330920345 1.0000000180025095e-35 1.0000000180025095e-35 -1.2190014596644738 0.46745870295737763 1.9144084987885994 1.0000000180025095e-35 0.97904501030090441 2.4036010356745527 0.66104451540737008 1.0000000180025095e-35 0.56656174077994603 -0.25840479826197094 1.2877265070979849 -0.10968592456025179 1.8174192451953917 1.6094274618223128 2.2696555337690962 -0.37125675401803798 1.0000000180025095e-35 0.58159227981248318 -0.18542650226120466 1.3905033034388217 2.2696555337690962 6.3413275140733649 -0.59231946797385926 1.2103970399302473 0.56656174077994603 2.5611940162445559
decision_type=2 2 2 2 2 2 2 2 2 2 2 2 2 2 2 2 2 2 2 2 2 2 2 2 2 2 2 2 2 2
left_child=1 2 3 4 -1 7 -6 17 16 -10 11 -5 14 -12 19 -16 27 22 23 -4 -14 -22 -2 26 -19 -11 -7 28 -3 -18
right_child=5 8 12 10 6 18 -8 -9 9 25 13 -13 20 -15 15 -17 29 24 -20 -21 21 -23 -24 -25 -26 -27 -28 -29 -30 -31
leaf_value=0.27297015937406649 -0.0025947062547903047 0.22010132038294042 -0.1052343016116658 -0.10613959943686291 6.5909954925105389e-05 0.048358897273811048 0.16462691602609797 0.26842832593983712 -0.097013069429105162 0.26477057801375931 -0.044351927179312467 -0.0093613815538221238 -0.11968117642728247 0.087211192606311633 0.16566029816883454 -0.06298235034763143 -0.054225868103493925 0.10401661540288876 0.26825965070505542 -0.052394968984149186 -0.093481405877928692 0.043995627073536651 0.067151313436334778 0.25032758397990795 0.20078462639834843 -0.11797115698990086 0.19198734381194416 0.26606439049217712 -0.047382787177134039 0.14369887100130088
leaf_weight=792.89809876680374 706.14276896417141 1608.1083161085844 1832.909144192934 8390.146633118391 49661.365292459726 83.308076143264771 985.14223431050777 728.63070259988308 398.99819672107697 358.72065789997578 1542.7163105010986 1221.2020019590855 9395.9612675607204 516.93960404396057 238.77131612598896 273.56335951387882 88.762467697262764 579.34756880998611 2311.085067152977 2076.5067330300808 1183.3016377985477 179.84017387032509 1214.0646525025368 637.62450847029686 248.0980565994978 11.407796606421469 1095.763768196106 882.91655115783215 40.20574726164341 74.254119977355003
leaf_count=3442 3416 7150 9326 43083 243481 377 4833 3169 2047 1567 7616 6271 48843 2552 1159 1353 447 2694 10096 10546 6067 873 5813 2818 1103 59 4907 3848 179 341
internal_value=-0.00025639 -0.017152 -0.0261841 -0.00861042 0.00742411 0.181395 0.00326684 0.110853 0.187025 0.071412 -0.0792818 -0.0938431 -0.0992423 -0.0113318 -0.0631782 0.0435755 0.220029 0.0690662 0.240804 -0.0771684 -0.114064 -0.075344 0.0415027 0.205877 0.133031 0.252974 0.181839 0.231885 0.213577 0.0359289
internal_weight=89358.7 81754.6 78291.3 63110.4 51439.4 7604.07 50646.5 3476.28 3463.37 769.127 11671 9611.35 15180.9 2059.66 4421.75 512.335 2694.25 2747.65 4127.78 3909.42 10759.1 1363.14 1920.21 1816.7 827.446 370.128 1179.07 2531.23 1648.31 163.017
internal_count=439476 405083 389445 311278 251756 34393 248314 16195 15638 3673 59522 49354 78167 10168 22384 2512 11965 13026 18198 19872 55783 6940 9229 8102 3797 1626 5284 11177 7329 788
is_linear=0
shrinkage=0.1


Tree=2
num_leaves=31
num_cat=0
split_feature=1 5 2 3 4 8 0 8 0 3 2 0 4 2 0 6 5 0 1 1 5 6 3 1 1 0 9 5 4 2
split_gain=21220.4 11760.7 8745.66 6052.34 4294.42 2609.35 2268.66 1679.03 1074.98 994.637 923.438 1808.9 767.026 761.086 564.521 418.709 417.57 373.216 298.458 223.589 257.164 207.939 195.984 148.455 137.63 127.825 167.713 126.006 204.306 118.826
threshold=0.94919938987552899 1.1000509330920345 1.0000000180025095e-35 1.0000000180025095e-35 -1.2190014596644738 1.0000000180025095e-35 0.46745870295737763 1.0000000180025095e-35 0.96275092760595726 2.3605525581922429 0.97904501030090441 2.4036010356745527 0.66104451540737008 0.56656174077994603 1.0753173422988165 1.8174192451953917 -0.10968592456025179 -0.072860087568345666 1.6094274618223128 1.0000000180025095e-35 0.66800205535907498 0.69609854628363677 0.84209987999552427 2.9298836057158799 -0.37125675401803798 0.039706327124513344 1.0000000180025095e-35 1.1864607086386263 -0.59231946797385926 5.1038777055104889
decision_type=2 2 2 2 2 2 2 2 2 2 2 2 2 2 2 2 2 2 2 2 2 2 2 2 2 2 2 2 2 2
left_child=1 2 3 4 -1 -6 7 17 12 -10 15 -12 -5 14 16 25 -4 -2 27 -15 -21 22 -19 -9 -17 26 -3 28 -8 -13
right_child=6 10 13 8 5 -7 18 23 9 -11 11 29 -14 19 -16 24 -18 21 -20 20 -22 -23 -24 -25 -26 -27 -28 -29 -30 -31
leaf_value=0.23075686006353657 0.017483886281511124 0.15266076340988452 -0.038311569308774961 -0.092781308533478782 0.0010346183000394962 0.2750629541815352 -0.06231432343140323 0.23373604096159567 0.22254658905689928 -0.070384312496501483 -0.091778862571056219 0.22675748517301192 -0.021345655585550394 -0.11476169831990682 0.15586732505314471 -0.11978954807007483 -0.1025525446006551 0.10722440068619694 0.21734799264438665 -0.0855807659730769 0.059685479327613866 -0.072782523751733524 -0.054134252331259763 -0.057084577455015932 0.087076683447492573 0.20380408544943027 -0.16533308810693537 0.21177326124488288 0.14641492340631226 -0.030515705761843655
leaf_weight=841.04557490348816 1173.206636890769 266.4097077101469 2441.0186082422733 8959.3360742032528 50364.25456738472 349.90378503501415 50.716753080487251 754.7366247177124 229.67280361056328 234.0222000181675 380.548500046134 372.75123855471611 1806.0700780451298 8847.3339548707008 119.09267702698708 43.868304714560509 1728.1599472463131 1488.1898410320282 3435.3067017942667 1177.8259135484695 135.9299059510231 73.725959599018097 79.282524242997169 17.970671653747559 120.51450322568417 2397.4360105246305 17.686641216278076 267.91809250414371 622.09459263086319 18.860826417803764
leaf_count=3442 5566 1117 12736 48180 246797 1517 225 3089 1164 1205 2047 1533 8973 48843 552 218 9096 6749 14180 6304 636 343 368 80 570 9986 74 1134 2659 93
internal_value=-0.000396362 -0.0157366 -0.0239914 -0.00784812 0.00664201 0.00292528 0.155356 0.0964029 -0.0743754 0.0747073 0.160476 0.0634871 -0.0807968 -0.094136 -0.0588078 0.186791 -0.06494 0.0605544 0.203682 -0.109046 -0.0705506 0.0913433 0.0990629 0.226972 0.031871 0.196288 0.132864 0.153776 0.130681 0.214367
internal_weight=88814.9 80851.7 77233.7 62784.3 51555.2 50714.2 7963.15 3587.11 11229.1 463.695 3618.08 772.161 10765.4 14449.4 4288.27 2845.92 4169.18 2814.4 4376.04 10161.1 1313.76 1641.2 1567.47 772.707 164.383 2681.53 284.096 940.729 672.811 391.612
internal_count=439476 405083 389445 311278 251756 248314 34393 16195 59522 2369 15638 3673 57153 78167 22384 11965 21832 13026 18198 55783 6940 7460 7117 3169 788 11177 1191 4018 2884 1626
is_linear=0
shrinkage=0.1


Tree=3
num_leaves=31
num_cat=0
split_feature=1 5 2 3 4 5 0 8 2 0 1 4 2 1 4 5 0 6 1 4 0 6 2 1 1 0 3 0 4 1
split_gain=16811.9 9479.99 7526.52 5133.33 3402.49 2189.23 1795.21 1143.88 1091.03 1703.81 984.099 813.7 718.551 564.807 548.623 500.91 465.122 438.77 251.426 199.488 192.06 187.113 174.404 168.862 153.69 153.091 140.394 145.382 139.566 137.109
threshold=0.94919938987552899 1.0136411575454425 1.0000000180025095e-35 1.0000000180025095e-35 -1.2190014596644738 0.063133626532931919 0.69259153234309567 1.0000000180025095e-35 0.97904501030090441 2.1334416404116916 1.0000000180025095e-35 0.66104451540737008 0.56656174077994603 1.6094274618223128 1.2877265070979849 -0.10968592456025179 1.4130165863773934 1.8174192451953917 -0.37125675401803798 3.7944544738604433 0.06221961006308515 0.69609854628363677 5.1038777055104889 1.0000000180025095e-35 2.2696555337690962 2.3360611868588377 3.1197788972906015 0.33237900532594683 0.66104451540737008 2.2696555337690962
decision_type=2 2 2 2 2 2 2 2 2 2 2 2 2 2 2 2 2 2 2 2 2 2 2 2 2 2 2 2 2 2
left_child=1 2 3 4 -1 -6 7 13 17 -10 11 -5 14 20 18 -16 -12 26 -4 23 -2 -22 -11 -14 28 -19 27 -3 -15 -8
right_child=6 8 12 10 5 -7 29 -9 9 22 16 -13 19 24 15 -17 -18 25 -20 -21 21 -23 -24 -25 -26 -27 -28 -29 -30 -31
leaf_value=0.20294886793373298 0.011289079556302692 0.13887768961593636 -0.096951606870374005 -0.096802156018047814 0.010330967824157967 -0.050697394687764852 0.16246101324774415 0.1995042114984874 -0.097532612431552673 0.19945450115116278 -0.01244360711431342 -0.015966592196776538 -0.11095093236804215 0.066565485353449694 0.14237684731313113 -0.057057425367873817 0.22998851956884092 -0.069738263631838826 -0.044272937362511422 0.1783923048485371 0.086225442852275513 -0.057882911556299779 -0.06077346355797645 -0.071310954577608374 0.16772921207965105 0.1098766135876118 -0.056629774985990727 0.18831038368888114 0.15571427237448843 0.20088705841510232
leaf_weight=858.12930700182915 1278.8092733174562 830.63593111932278 1683.256349414587 7578.2766025215387 43819.665361449122 6788.5949675887823 1542.2838013619184 799.51258738338947 454.94685083627701 389.70462468266487 1614.3167804628611 1490.112014785409 8186.5250204503536 558.64467564225197 252.0775959789753 251.67866760492325 83.217744067311287 99.939055860042572 1962.1954320520163 24.773868873715401 841.22424755990505 100.90784002840519 27.576718494296074 1237.0286060869694 443.79031328856945 90.356151953339577 26.568775802850723 2096.8487049341202 256.12258613109589 2333.5145826041698
leaf_count=3437 6027 3460 9312 43004 214689 32908 6275 3212 2579 1577 8500 7437 48113 2446 1159 1334 397 512 10515 144 3727 461 144 6803 1816 397 116 8546 1067 9362
internal_value=-0.000471027 -0.0144393 -0.0223695 -0.00764301 0.00549275 0.00214462 0.136297 0.0916431 0.135277 0.0363211 -0.0704384 -0.0835193 -0.0897687 0.066859 -0.0550796 0.0427387 -0.000558927 0.162727 -0.0685969 -0.105002 0.0365299 0.0707906 0.182257 -0.105747 0.12038 0.0155466 0.172208 0.174284 0.0945895 0.185596
internal_weight=88001.2 79846.4 75829.8 62232.3 51466.4 50608.3 8154.81 4279.01 4016.58 872.228 10765.9 9068.39 13597.5 3479.5 4149.21 503.756 1697.53 3144.35 3645.45 9448.33 2220.94 942.132 417.281 9423.55 1258.56 190.295 2954.05 2927.48 814.767 3875.8
internal_count=439476 405083 387752 310372 251034 247597 34393 18756 17331 4300 59338 50441 77380 15544 22320 2493 8897 13031 19827 55060 10215 4188 1721 54916 5329 909 12122 12006 3513 15637
is_linear=0
shrinkage=0.1


Tree=4
num_leaves=31
num_cat=0
split_feature=1 2 0 5 8 3 5 5 1 9 5 4 4 2 6 4 4 3 0 2 3 0 3 0 0 3 4 2 6 2
split_gain=13543 6010.04 4955.69 4951.05 4384.99 4268.61 3173.15 5752.44 1440.8 1009.21 792.375 731.07 728.215 528.999 508.544 472.827 436.604 424.607 370.822 725.209 348.373 339.109 240.269 229.761 185.199 178.502 176.65 156.625 154.935 152.071
threshold=1.0000000180025095e-35 1.0000000180025095e-35 0.82767122997452647 0.92723138199885058 1.0000000180025095e-35 1.0000000180025095e-35 0.063133626532931919 -0.36891525120002727 1.6094274618223128 1.0000000180025095e-35 1.6185095863715857 1.2877265070979849 0.66104451540737008 0.56656174077994603 1.8174192451953917 1.0000000180025095e-35 1.9144084987885994 2.3605525581922429 1.6381494157631116 1.3915282798218629 2.3605525581922429 0.24232587357165961 0.84209987999552427 -0.47809918046263805 1.5030697181316806 0.84209987999552427 -0.59231946797385926 4.2789111664685722 1.0000000180025095e-35 -0.25840479826197094
decision_type=2 2 2 2 2 2 2 2 2 2 2 2 2 2 2 2 2 2 2 2 2 2 2 2 2 2 2 2 2 2
left_child=1 3 4 5 8 6 7 -1 9 11 13 -2 25 16 21 -8 23 -14 19 20 26 28 -23 -3 -12 -7 -4 -20 -5 -10
right_child=2 10 18 14 -6 12 15 -9 29 -11 24 -13 17 -15 -16 -17 -18 -19 27 -21 -22 22 -24 -25 -26 -27 -28 -29 -30 -31
leaf_value=-0.020000453505118601 0.0037536129508526279 0.036327525646789677 0.047177785702926474 0.095237237759783849 0.19872473653435108 -0.078177706018652884 -0.037920140216753245 0.062628824012848014 0.092810452189393183 0.28147671219642667 -0.020950878177987693 0.083194166273332162 0.012796547925947623 -0.10574692204994772 -0.07466911655366372 -0.10176080252463252 0.086291093166091418 -0.11852463771389653 0.18369922673082265 -0.027624191801015354 -0.049970438806366278 0.18601295504138904 0.036131026914368515 -0.07445543321671412 0.13727813677639461 -0.10992022600040652 0.16280394301349024 0.031892644374625509 -0.12290595796513243 0.15824141428254004
leaf_weight=25143.150958552957 11987.140891566873 199.18285858631134 142.42117451131344 468.77114968001842 1605.1160662174225 3955.8365322202444 1866.7110356092453 12671.357463240623 999.15793186426163 139.84965588152409 126.36202448606491 1282.371652007103 1157.6478020399809 8081.6982011348009 104.77037571370602 3064.9496300816536 194.69167762994766 312.73013408482075 2654.8773860037327 273.11957959830761 87.050495192408562 1414.3907686024904 115.70370616018772 3114.54492418468 178.4162128418684 3208.4322920441628 1828.5211114734411 69.749877870082855 34.988688975572586 551.13687886297703
leaf_count=122494 59513 1127 620 1971 6506 23707 9350 61500 4157 640 622 6075 5797 50472 523 15302 878 1594 10799 1435 420 5736 497 17435 764 19214 7599 331 152 2246
internal_value=-0.00051208 -0.0231902 0.0681022 -0.00890042 0.0416526 -0.0151057 -0.0021513 0.007688 0.0247994 0.0142472 -0.0874853 0.0114308 -0.0792368 -0.0916706 0.140182 -0.0775961 -0.0592457 -0.0151337 0.154762 0.125483 0.145802 0.15125 0.174679 -0.0677964 0.0716759 -0.0923932 0.154449 0.179813 0.0800861 0.116071
internal_weight=87034.8 65414.3 21620.5 53519.4 16564.8 51380.8 42746.2 37814.5 14959.7 13409.4 11894.9 13269.5 8634.65 11590.1 2138.62 4931.66 3508.42 1470.38 5055.74 2331.11 2057.99 2033.85 1530.09 3313.73 304.778 7164.27 1970.94 2724.63 503.76 1550.29
internal_count=439476 339135 100341 267837 79137 258958 208646 183994 72631 66228 71298 65588 50312 69912 8879 24652 19440 7391 21204 10074 8639 8356 6233 18562 1386 42921 8219 11130 2123 6403
is_linear=0
shrinkage=0.1


Tree=5
num_leaves=31
num_cat=0
split_feature=1 5 2 3 4 5 0 0 8 2 0 3 4 6 1 1 4 4 5 5 2 1 6 0 1 2 0 2 0 5
split_gain=11135.4 6401.76 5847.6 3226.95 2708.75 2175.58 1258.34 1046.26 908.595 675.572 1191.31 654.889 618.935 303.749 215.751 207.288 188.192 158.532 181.071 148.825 140.04 134.148 148.25 126.007 124.359 120.833 113.452 177.659 101.496 99.9801
threshold=0.94919938987552899 1.0136411575454425 0.56656174077994603 1.0000000180025095e-35 -1.2190014596644738 1.0000000180025095e-35 0.46745870295737763 1.0077774934831012 1.0000000180025095e-35 0.97904501030090441 2.1334416404116916 2.3605525581922429 0.66104451540737008 1.2567588957395144 2.2696555337690962 2.2696555337690962 2.5410904904792142 1.2877265070979849 -0.10968592456025179 -0.28250547565343548 0.56656174077994603 -0.37125675401803798 2.3780795946512696 1.818255679271686 2.9298836057158799 5.1038777055104889 0.96275092760595726 0.56656174077994603 2.5837072991831271 2.3961975662909123
decision_type=2 2 2 2 2 2 2 2 2 2 2 2 2 2 2 2 2 2 2 2 2 2 2 2 2 2 2 2 2 2
left_child=1 2 3 4 -1 -6 8 12 14 13 -11 -9 -5 26 17 29 21 20 -19 -18 -2 -4 -23 -21 -10 -12 27 -3 -15 -8
right_child=6 9 16 7 5 -7 15 11 24 10 25 -13 -14 28 -16 -17 19 18 -20 23 -22 22 -24 -25 -26 -27 -28 -29 -30 -31
leaf_value=0.17767897566172203 0.019700807538622307 0.13067977019682245 -0.1124638758986532 -0.079248671902201431 0.0071909295156956932 -0.045988423537024703 0.11233575658284421 0.18160925929194061 0.17027324742095384 -0.089697601506151969 0.16506915437833178 -0.04680420052719847 -0.015742582536976007 -0.026815160036391308 0.12616368747237755 0.16525174999173575 0.20581334390755235 0.14694934289505662 -0.032546728319845231 -0.078073523429603942 0.14909615552490413 -0.088301085605214755 0.17099215659886668 0.13441074596843758 -0.085515921599529532 -0.055774800035519628 0.16669322831066119 -0.076327460250864371 0.10439425836598791 0.17356311580172751
leaf_weight=852.91030378639698 2275.9733260422945 1798.6860819011927 4128.5497848987579 7997.1466199010611 44855.948532491922 9285.3422916680574 1686.780729830265 282.29159887135029 751.78892959654331 412.43965682387352 384.65401400625706 226.02864240109921 1899.1122447103262 148.28524467349052 275.03991371393204 2483.416404619813 29.130626559257507 223.41991704702377 75.088747814297676 146.86763955652714 86.83093573153019 4054.777829438448 22.170707166194916 34.456443667411804 19.50002908706665 26.480547800660133 1083.383972838521 42.436901360750198 97.862633436918259 316.78765326738358
leaf_count=3464 10302 7305 27636 49530 220047 47567 6824 1263 3089 2579 1577 1239 9582 734 1103 10096 178 919 322 911 380 26020 129 186 80 144 4402 184 406 1278
internal_value=-0.000552923 -0.0122303 -0.0189026 -0.00880583 0.000856126 -0.00192944 0.110325 -0.0598748 0.0672164 0.111077 0.0303831 0.0800434 -0.0670617 0.132038 0.0418452 0.145946 -0.097363 0.0331311 0.101798 -0.00398987 0.024456 -0.0997579 -0.086891 -0.0376958 0.163806 0.150845 0.141017 0.125908 0.0253506 0.122017
internal_weight=86003.6 77809 73814.7 65398.8 54994.2 54141.3 8194.63 10404.6 3707.64 3994.23 823.574 508.32 9896.26 3170.65 2936.35 4486.98 8415.95 2661.31 298.509 210.455 2362.8 8205.5 4076.95 181.324 771.289 411.135 2924.51 1841.12 246.148 2003.57
internal_count=439476 405083 387752 332692 271078 267614 34393 61614 16195 17331 4300 2502 59112 13031 13026 18198 55060 11923 1241 1275 10682 53785 26149 1097 3169 1721 11891 7489 1140 8102
is_linear=0
shrinkage=0.1


Tree=6
num_leaves=31
num_cat=0
split_feature=1 2 5 5 3 5 5 1 8 5 4 5 4 6 4 5 6 2 2 8 0 2 0 2 4 5 0 3 3 5
split_gain=9709.91 4717.94 3423.69 3334.81 3199.14 2372.87 4580.98 1986.45 1055.91 981.337 1448.13 617.24 604.722 489.279 435.086 385.102 366.471 358.376 353.714 328.879 1014.71 308.363 284.389 268.621 255.909 235.955 222.621 216.417 182.582 152.991
threshold=1.0000000180025095e-35 1.0000000180025095e-35 0.49518250426589122 0.92723138199885058 1.0000000180025095e-35 0.063133626532931919 -0.36891525120002727 1.6094274618223128 1.0000000180025095e-35 0.063133626532931919 1.2877265070979849 1.1864607086386263 0.66104451540737008 2.3780795946512696 1.0000000180025095e-35 -0.28250547565343548 1.8174192451953917 0.97904501030090441 0.56656174077994603 1.0000000180025095e-35 0.69259153234309567 -0.25840479826197094 0.17478602475594418 1.0000000180025095e-35 1.2877265070979849 -0.10968592456025179 -0.47809918046263805 0.84209987999552427 0.84209987999552427 2.3961975662909123
decision_type=2 2 2 2 2 2 2 2 2 2 2 2 2 2 2 2 2 2 2 2 2 2 2 2 2 2 2 2 2 2
left_child=1 3 7 4 5 6 -1 8 9 10 -2 18 28 -11 -7 -14 22 -13 24 20 23 -9 -5 -4 26 -26 -3 -24 -6 -22
right_child=2 11 19 16 12 14 -8 21 -10 13 -12 17 15 -15 -16 -17 -18 -19 -20 -21 29 -23 27 -25 25 -27 -28 -29 -30 -31
leaf_value=-0.018960943273607964 0.015939479041543206 0.031159668547855741 0.052526125777389555 0.05046780474473133 -0.069512425565910335 -0.03101364979459121 0.054242126081062741 0.082530459277336987 0.1783592842407031 -0.049071927610421298 0.13790548476045369 0.099027720115246978 0.038965750064215557 0.18626304548715386 -0.093830715152651428 -0.064050301586258337 -0.070636821665223379 -0.058755224783443728 -0.099069074959823228 0.17566278003390154 0.11794413585888673 0.15179661314910742 0.15413473989661186 -0.074075808195144893 0.094470504259846599 -0.059356188565677898 -0.077231958465897768 0.015107096277007633 -0.10334263232841404 0.16207322519266767
leaf_weight=25003.899542123079 9623.3651278465986 203.86111453175545 672.34458048641682 412.2985063791275 3600.3518617600203 1795.3535177558661 12989.854124844074 1347.1936534196138 407.73086631298065 2467.902991771698 1083.0488549619913 288.16971883177757 718.24923233687878 91.625319197773933 2857.556052595377 733.43848732113838 101.04906052350998 287.64047686755657 6903.9438447654247 1142.6064147204161 1467.833513841033 1229.0914836525917 1478.7956154644489 223.24119259417057 195.07734398543835 203.98683051764965 2686.9781200587749 121.13885441422462 2864.6592433750629 1690.341111779213
leaf_count=122494 47327 1127 3079 1725 23707 9350 61500 5545 1710 13019 4890 1192 3640 409 15302 3751 523 1761 49229 4781 6251 5077 6115 1178 861 1147 15981 516 19214 7075
internal_value=-0.000548784 -0.0202116 0.0576213 -0.00788155 -0.0130254 -0.00218791 0.00606678 0.0350272 0.0198509 0.0149791 0.0282774 -0.0805205 -0.0714061 -0.0406475 -0.0695924 -0.0130812 0.115192 0.0202088 -0.0862103 0.128277 0.114921 0.115576 0.124524 0.0209683 -0.0592258 0.01584 -0.0695882 0.143608 -0.0845027 0.141563
internal_weight=84892.6 63446.3 21446.3 52676.6 50563.4 42646.7 37993.8 16250 13673.7 13265.9 10706.4 10769.7 7916.7 2559.53 4652.91 1451.69 2113.28 575.81 10193.8 5196.37 4053.76 2576.29 2012.23 895.586 3289.9 399.064 2890.84 1599.93 6465.01 3158.17
internal_count=439476 339135 100341 267837 258958 208646 183994 77977 67355 65645 52217 71298 50312 13428 24652 7391 8879 2953 68345 22364 17583 10622 8356 4257 19116 2008 17108 6631 42921 13326
is_linear=0
shrinkage=0.1


Tree=7
num_leaves=31
num_cat=0
split_feature=1 2 5 0 5 4 0 4 5 8 3 1 4 9 2 6 5 2 5 0 0 1 0 6 1 2 3 1 2 0
split_gain=7956.27 4137.56 3149.2 2923.64 10142.7 5015.71 2918.19 2880.64 4139.66 2701 994.847 943.002 806.656 761.973 666.464 296.988 273.131 215.269 229.955 213.569 169.437 219.869 165.522 133.981 130.263 127.575 125.161 105.208 112.839 322.721
threshold=1.0000000180025095e-35 0.56656174077994603 1.0136411575454425 -0.54563902927835339 -0.36891525120002727 -0.59231946797385926 0.94023764466738557 0.66104451540737008 -0.19609570010684363 1.0000000180025095e-35 1.0000000180025095e-35 1.6094274618223128 -0.59231946797385926 1.0000000180025095e-35 0.97904501030090441 1.8174192451953917 1.9641486885579529 3.453944627426655 1.1000509330920345 0.24232587357165961 1.3905033034388217 1.6094274618223128 0.44494542001880583 1.0000000180025095e-35 2.9298836057158799 0.97904501030090441 0.84209987999552427 -0.37125675401803798 1.3915282798218629 1.0978306252373884
decision_type=2 2 2 2 2 2 2 2 2 2 2 2 2 2 2 2 2 2 2 2 2 2 2 2 2 2 2 2 2 2
left_child=1 2 3 4 12 -6 9 10 -9 11 -5 13 -1 14 -2 19 27 20 -19 23 21 25 -13 -4 -11 -8 -21 -3 29 -29
right_child=6 16 15 7 5 -7 17 8 -10 24 -12 22 -14 -15 -16 -17 -18 18 -20 26 -22 -23 -24 -25 -26 -27 -28 28 -30 -31
leaf_value=-0.04689861946166083 0.014697069024201221 -0.10552333211022918 0.072075425700110843 -0.034523611674141357 0.18998961568740705 -0.033521241480501354 0.078465298755928919 0.095347003065658645 -0.05951364695132523 0.16518488910497076 -0.079881313537851051 0.059069699338779869 0.017471287791307095 0.23018262909343684 -0.086839034279466265 -0.060717461970559806 0.067485175708804704 -0.086582649773017994 0.13291162933546077 0.14252748465720452 0.14392635567871412 0.13540061174353862 0.12018721537956112 -0.13962210472355577 -0.057362170226513999 -0.0363893270851674 0.037991703309586546 -0.070691642144950592 -0.098439771071327994 0.14605258588332379
leaf_weight=8958.8565879315138 12879.248417928815 3808.9891361147165 436.59951281547546 23511.229714125395 4004.0186634510756 1340.0105570554733 436.50573626160622 3936.3067720532417 3074.3361485153437 1480.7574765533209 6087.7257292419672 885.42803047597408 2487.3100653290749 158.43256768584251 680.61386458575726 98.625302374362946 105.61595411598682 96.942505955696106 94.02415069937706 1468.6090241968632 2824.134323105216 767.25164560973644 887.0708389878273 32.093356534838676 26.776892811059952 124.23319552838802 124.22362793982029 1265.1194251775742 1571.3009178936481 72.640463948249817
leaf_count=44601 62828 29136 1777 118065 18765 6669 1894 19299 16356 6403 42521 3613 12361 676 4019 518 516 544 408 6200 12206 3264 3695 135 111 680 510 9500 11785 421
internal_value=-0.000561303 -0.0185916 -0.00956626 -0.0143547 0.0201964 0.133944 0.0521436 -0.0302008 0.0274369 0.0334522 -0.0438525 0.0210169 -0.0329107 0.0121481 0.00960064 0.108805 -0.0920784 0.125299 0.0214873 0.116915 0.130074 0.100615 0.0896568 0.0575796 0.161232 0.053019 0.134375 -0.0945869 -0.0802673 -0.0589224
internal_weight=83725 62383.6 55559.9 53399.8 16790.2 5344.03 21341.4 36609.6 7010.64 16998.3 29599 15490.8 11446.2 13718.3 13559.9 2160.15 6823.67 4343.09 190.967 2061.53 4152.12 1327.99 1772.5 468.693 1507.53 560.739 1592.83 6718.05 2909.06 1337.76
internal_count=439476 339135 287777 278637 82396 25434 100341 196241 35655 81345 160586 74831 56962 67523 66847 9140 51358 18996 952 8622 18044 5838 7308 1912 6514 2574 6710 50842 21706 9921
is_linear=0
shrinkage=0.1


Tree=8
num_leaves=31
num_cat=0
split_feature=1 2 0 8 5 3 5 5 4 5 4 5 9 4 2 2 5 4 1 0 2 5 6 2 3 0 5 0 2 3
split_gain=6545.84 3714.39 2536.93 2455.38 2322.52 2454.57 1931.87 3662.63 618.755 603.662 1088.52 475.812 475.563 450.488 440.679 349.016 331.669 498.425 330.657 452.39 398.268 265.364 256.677 247.889 243.676 235.173 227.521 224.429 197.066 186.067
threshold=1.0000000180025095e-35 1.0000000180025095e-35 0.71510481528166758 1.0000000180025095e-35 0.92723138199885058 1.0000000180025095e-35 1.0000000180025095e-35 -0.36891525120002727 1.0000000180025095e-35 0.063133626532931919 1.2877265070979849 1.1864607086386263 1.0000000180025095e-35 0.66104451540737008 1.0000000180025095e-35 -0.25840479826197094 -0.10968592456025179 0.66104451540737008 1.6094274618223128 1.818255679271686 0.97904501030090441 1.0136411575454425 1.8174192451953917 0.97904501030090441 2.3605525581922429 -0.47809918046263805 -0.10968592456025179 0.24232587357165961 1.3915282798218629 0.84209987999552427
decision_type=2 2 2 2 2 2 2 2 2 2 2 2 2 2 2 2 2 2 2 2 2 2 2 2 2 2 2 2 2 2
left_child=1 4 3 9 5 6 7 -1 -8 10 12 16 -2 29 21 -15 17 25 19 20 24 -11 27 -13 -4 -3 -12 -6 -19 -7
right_child=2 11 18 -5 22 13 8 -9 -10 14 26 23 -14 15 -16 -17 -18 28 -20 -21 -22 -23 -24 -25 -26 -27 -28 -29 -30 -31
leaf_value=-0.015219865874205873 0.013310489257083261 0.029752272000905002 0.090946200044358161 0.15196676556457525 0.049252500993188633 -0.061126591425800028 -0.019129162126014423 0.052117144599476709 -0.085153678092277973 -0.013867867615798616 0.139542705918727 0.082141939082710697 0.20691911909265648 -0.045255268319967568 -0.086721350680456374 0.063662049976492135 -0.095926959232355336 0.042793573570807458 0.13113642221485527 0.13374083811900614 -0.041119851379189998 0.093596065396242045 -0.061678241970366393 -0.052164970905430368 -0.073569958887504464 -0.081436826582681796 -0.0035963567453536523 0.12683739602122143 -0.086552037046997349 -0.097189270875447362
leaf_weight=24560.718221664429 10223.542901173234 202.99722228199244 1034.0393830835819 1438.9727874100208 505.36046823859215 3276.6462903767824 2577.5461694598198 12036.169859036803 3159.0395851135254 1965.8629070669413 927.44508263468742 280.97039464116096 128.4642258733511 1048.969260007143 828.96504929661751 408.88683980703354 5197.7108213230968 587.02765388786793 2777.9124186784029 986.68547916412354 384.91401402652264 260.19609476625919 95.243470519781113 268.9842094630003 98.61804661154747 3022.9581530690193 126.15112413465977 1421.8317069262266 147.35851914435625 2539.6121388673782
leaf_count=122494 49092 1149 4470 6484 2123 23707 13135 55287 17730 9736 3955 1192 531 5432 4963 1959 40355 3512 12410 4380 2185 1072 523 1761 493 22136 570 6233 1193 19214
internal_value=-0.000589483 -0.0171403 0.0473383 0.0273909 -0.00646963 -0.0107521 -0.00153142 0.00692627 -0.0554877 0.0149944 0.0255687 -0.0738902 0.0157131 -0.0644139 -0.0244836 -0.0147071 -0.0793154 -0.0575136 0.107381 0.0810297 0.0467583 -0.00130679 0.0985729 0.0164521 0.0766221 -0.0744401 0.122404 0.106493 0.0168397 -0.076873
internal_weight=82519.8 61338 21181.8 15899.6 51630 49607.6 42333.5 36596.9 5736.59 14460.6 11405.6 9708.01 10352 7274.11 3055.02 1457.86 9158.05 3960.34 5282.17 2504.26 1517.57 2226.06 2022.44 549.955 1132.66 3225.96 1053.6 1927.19 734.386 5816.26
internal_count=439476 339135 100341 76403 267837 258958 208646 177781 30865 69919 54148 71298 49623 50312 15771 7391 68345 27990 23938 11528 7148 10808 8879 2953 4963 23285 4525 8356 4705 42921
is_linear=0
shrinkage=0.1


Tree=9
num_leaves=31
num_cat=0
split_feature=1 2 5 5 0 5 4 4 5 4 4 3 5 8 1 2 6 6 0 0 5 8 0 1 1 4 6 4 2 1
split_gain=5388.69 3279.29 2261.08 2214.11 2244.21 7326.49 3516.7 2343.24 3224.98 1259.37 816.13 780.716 728.51 568.999 622.201 485.473 377.386 242.869 264.665 242.555 241.701 486.337 331.175 149.987 147.123 126.734 124.174 122.654 112.345 108.423
threshold=1.0000000180025095e-35 0.56656174077994603 0.49518250426589122 0.92723138199885058 -0.54563902927835339 -0.36891525120002727 -0.59231946797385926 0.66104451540737008 -0.19609570010684363 1.2877265070979849 -1.2190014596644738 0.84209987999552427 -0.10968592456025179 1.0000000180025095e-35 1.6094274618223128 0.97904501030090441 1.0000000180025095e-35 1.2567588957395144 0.33237900532594683 2.831353411507417 1.7913291374647693 1.0000000180025095e-35 0.53499855177309319 2.9298836057158799 2.2696555337690962 0.66104451540737008 1.0000000180025095e-35 3.7944544738604433 4.6913944359895305 -0.37125675401803798
decision_type=2 2 2 2 2 2 2 2 2 2 2 2 2 2 2 2 2 2 2 2 2 2 2 2 2 2 2 2 2 2
left_child=1 3 9 4 5 10 -7 11 -9 13 -1 -6 -11 14 15 -2 27 18 26 29 21 22 25 -15 -16 -4 -5 -14 -21 -3
right_child=2 19 20 17 7 6 -8 8 -10 12 -12 -13 16 23 24 -17 -18 -19 -20 28 -22 -23 -24 -25 -26 -27 -28 -29 -30 -31
leaf_value=0.17740707919103457 0.0069883383362484633 -0.10038918084436531 0.031710472524221558 0.058058680632589114 -0.034077910644687945 0.15543181637135164 -0.031394313635246723 0.08264832672565281 -0.056141925428743848 0.12878150816997483 -0.032258899032209964 -0.093304918149501925 -0.03644206768910057 0.14781071801121209 0.047268071575125852 -0.086892253004779194 0.12791947687048066 -0.044206813523167764 0.12323204330148399 0.13096725162514697 0.13083599455062173 0.14615694997399908 0.086822137994337467 -0.15514620399414458 0.11349699929498142 -0.059721794449288081 -0.11735749318915051 0.15389552546873952 -0.093767365277118916 -0.073074960362950678
leaf_weight=188.8374478071928 11310.76420301199 3336.6220636889338 437.38322919607162 623.58997075259686 25987.035446867347 4276.0854875594378 1318.1064152270555 4082.8536793291569 2837.9160641431808 1664.1768364459276 11011.36409291625 2434.0977069810033 583.25468721985817 362.05273465812206 887.03226311504841 579.02287073433399 216.76227663457394 126.3989255875349 1402.9185370653868 74.57504690438509 1933.4183259755373 892.13009686768055 1280.0080500692129 17.113915622234344 539.37375600636005 232.0150131136179 43.146635517477989 35.942021071910858 31.69937888532877 2574.6607160940766
leaf_count=765 55109 29175 2212 2648 140591 18765 6669 19299 16023 7252 56197 19606 2873 1719 3679 3776 995 678 6339 329 9105 4239 5735 70 2349 1073 197 155 247 21607
internal_value=-0.000582315 -0.0157566 0.043087 -0.0079989 -0.012142 0.0179551 0.111412 -0.026444 0.0257363 0.0252574 -0.0287239 -0.0391503 0.0905229 0.013343 0.00990347 0.00241643 0.0143601 0.0903612 0.0985796 -0.0858005 0.103561 0.0850024 0.0570155 0.134137 0.0723115 1.98327e-05 0.0467069 -0.0253937 0.0639337 -0.0884925
internal_weight=81320.4 60349.9 20970.5 54332.4 52136.3 16794.4 5594.19 35341.9 6920.77 16195.5 11200.2 28421.1 2500.14 13695.4 13316.2 11889.8 835.959 2196.05 2069.66 6017.56 4774.95 2841.54 1949.41 379.167 1426.41 669.398 666.737 619.197 106.274 5911.28
internal_count=439476 339135 100341 287777 277915 82396 25434 195519 35322 77977 56962 160197 11275 66702 64913 58885 4023 9862 9184 51358 22364 13259 9020 1789 6028 3285 2845 3028 576 50782
is_linear=0
shrinkage=0.1


Tree=10
num_leaves=31
num_cat=0
split_feature=1 2 5 4 4 3 5 5 0 8 6 1 1 5 5 4 3 0 1 1 3 0 1 4 0 6 4 6 5 4
split_gain=4501.36 2801.5 2357.66 1676.36 1708.07 1558.05 1454.47 782.241 757.922 412.266 219.013 202.886 195.006 167.57 293.072 271.148 167.119 160.913 124.178 118.023 103.578 89.9531 83.8337 83.0029 76.0737 70.6667 80.2638 67.6389 66.9335 48.8864
threshold=0.94919938987552899 0.56656174077994603 1.0136411575454425 -1.2190014596644738 1.9144084987885994 1.0000000180025095e-35 1.7913291374647693 -0.10968592456025179 0.69259153234309567 1.0000000180025095e-35 2.3780795946512696 2.2696555337690962 -0.37125675401803798 -0.10968592456025179 0.58159227981248318 1.9144084987885994 0.84209987999552427 -0.050346804629773867 -0.37125675401803798 2.2696555337690962 3.1197788972906015 1.2103970399302473 2.9298836057158799 4.4211364655510588 -0.38804604870835085 1.2567588957395144 -0.59231946797385926 1.0000000180025095e-35 0.92723138199885058 0.66104451540737008
decision_type=2 2 2 2 2 2 2 2 2 2 2 2 2 2 2 2 2 2 2 2 2 2 2 2 2 2 2 2 2 2
left_child=1 2 3 27 5 -5 12 -6 9 11 20 16 23 15 -15 -14 17 -2 -8 25 21 -4 -11 24 -3 26 28 -1 -10 -28
right_child=8 6 10 4 7 -7 18 -9 19 22 -12 -13 13 14 -16 -17 -18 -19 -20 -21 -22 -23 -24 -25 -26 -27 29 -29 -30 -31
leaf_value=0.14824967402420311 0.00039850458527043568 0.057700570057001938 0.08657630952418284 -0.0037866136672799777 0.14336775853271599 -0.050350915104927042 -0.052164148273446946 0.0047059314188379678 -0.094964508809638137 0.12952788851729288 -0.036588252692121674 0.09697239319419218 -0.040842138520287556 -0.095306911821621987 -0.016895961697984487 0.18827436036928544 -0.082379650694916567 0.047516353629826695 0.12647090867563199 0.12565393783760193 -0.099131929773463412 0.12811509530111778 -0.066691044945382957 0.36606334216905201 -0.10014084715585805 0.038017269707543842 0.12692958314526209 -0.11157980694815002 0.12275981428728817 0.084649441612636545
leaf_weight=723.3747303634882 1214.2124024927616 30.844320334494114 1784.3604758381844 52038.875820323825 1070.2592757344246 8336.9904031008482 43.18109156191349 656.34047022461891 38.208381801843643 573.69587996602058 129.67825157940388 426.96877047419548 893.30561733990908 2001.8722204566002 625.6489589586854 54.822716556489468 142.28930261731148 1798.2188719213009 393.82812128961086 1881.8840221017599 26.742610424757004 736.5046708136797 22.632945328950882 3.8498421758413306 3041.0090160444379 240.59932573139668 497.56006732583046 10.159604653716086 22.396367773413658 607.21700783073902
leaf_count=3427 5505 285 7916 262155 4596 59059 252 3411 158 3118 665 1816 7470 16556 4409 348 630 7593 1974 9362 114 3609 94 26 28767 1086 2233 44 97 2701
internal_value=-0.000578953 -0.00818241 -0.00172096 -0.00563674 -0.00741189 -0.0102164 -0.0679016 0.0906576 0.0733605 0.0450959 0.0901827 0.0322784 -0.0795126 -0.0636321 -0.0766362 -0.0275942 0.0235225 0.0285247 0.10882 0.109277 0.0966356 0.0987124 0.122081 -0.0979744 -0.098556 0.0873579 0.0975445 0.144651 -0.0145049 0.103691
internal_weight=80067.5 72601.6 65513.3 62836 62102.5 60375.9 7088.36 1726.6 7465.88 4178.02 2677.29 3581.69 6651.35 3575.65 2627.52 948.128 3154.72 3012.43 437.009 3287.87 2547.61 2520.87 596.329 3075.7 3071.85 1405.98 1165.38 733.534 60.6047 1104.78
internal_count=439476 405083 344996 332692 329221 321214 60087 8007 34393 18756 12304 15544 57861 28783 20965 7818 13728 13098 2226 15637 11639 11525 3212 29078 29052 6275 5189 3471 255 4934
is_linear=0
shrinkage=0.1


Tree=11
num_leaves=31
num_cat=0
split_feature=1 2 0 8 3 4 5 5 0 4 0 9 1 3 2 0 2 4 0 4 3 5 2 0 5 1 1 0 0 3
split_gain=3948.27 2643.73 1730.42 1671.07 1652.43 1597.79 1609.96 1484.9 5807.91 2682.61 1395.29 513.384 499.172 401.969 362.91 753.964 326.42 188.371 199.184 176.018 180.823 173.879 224.595 127.182 105.512 101.281 99.346 118.245 91.1643 90.72
threshold=1.0000000180025095e-35 1.0000000180025095e-35 0.94023764466738557 1.0000000180025095e-35 0.84209987999552427 1.2877265070979849 -0.28250547565343548 -0.36891525120002727 -0.6131788780940689 1.0000000180025095e-35 0.039706327124513344 1.0000000180025095e-35 2.2696555337690962 0.84209987999552427 0.97904501030090441 1.0753173422988165 -0.25840479826197094 1.9144084987885994 -0.47809918046263805 1.0000000180025095e-35 2.3605525581922429 2.3961975662909123 3.453944627426655 -0.25296635107692006 1.9641486885579529 2.9298836057158799 2.2696555337690962 1.36799002050025 0.48997198589594942 1.0000000180025095e-35
decision_type=2 2 2 2 2 2 2 2 2 2 2 2 2 2 2 2 2 2 2 2 2 2 2 2 2 2 2 2 2 2
left_child=1 4 3 11 5 7 29 9 -9 -1 -8 12 13 -2 15 17 -6 18 -3 -18 -21 22 26 -16 -25 -5 27 -4 -19 -7
right_child=2 14 21 25 16 6 10 8 -10 -11 -12 -13 -14 -15 23 -17 19 28 -20 20 -22 -23 -24 24 -26 -27 -28 -29 -30 -31
leaf_value=-0.037525841686556129 0.012790825696214356 0.032076940911130065 0.04340318638579363 0.13908378607292107 -0.091203315934547877 0.17503014037325176 -0.094976576421564499 0.12745489013900663 -0.011596376261759318 0.042310924584269841 0.085876470226451271 0.17823747382487504 0.09885062624714723 -0.0579935519716967 0.12678723093131686 0.1241536543043311 -0.077995624287780257 -0.022015936399016126 -0.066305797510920875 0.10257604543940013 -0.067615792446399967 0.12764975147548624 -0.0596352084203721 -0.091162294366120819 0.03608439523028141 -0.060583313393111293 0.11533106970551099 0.10084126728068235 0.10749059553007481 0.09365983621752276
leaf_weight=20193.195853501558 13716.536991864443 217.70500528812408 698.80972088873386 1219.2557308524847 2530.4882521480322 985.35335865616798 725.47313423454762 3752.5917590111494 15053.491894766688 5316.9006939381361 1035.4668497741222 189.10454623401165 640.50672113895416 852.10252819955349 27.496936723589897 246.15046659111977 179.0630424246192 126.10719487071037 3758.9056291803718 195.79379506409168 91.649202436208725 1329.884311914444 106.05047796666622 3881.3377269729972 66.276856258511543 25.945342928171158 894.14126245677471 735.79005135595798 95.531769543886185 159.14565190672874
leaf_count=108776 66557 1231 3266 6403 20511 4356 3999 16288 77495 27295 5246 797 2959 4518 268 1235 1525 724 28691 1051 572 7096 631 38261 363 111 4666 3337 525 723
internal_value=-0.000538584 -0.0137234 0.037345 0.0234961 -0.00502922 -0.000459368 0.0713804 -0.0051693 0.0161501 -0.020886 0.0113685 0.0144854 0.0124493 0.00865073 -0.0655804 -0.0459457 -0.0770333 -0.0559189 -0.0609197 -0.000170017 0.0483116 0.0985705 0.0826874 -0.0875331 -0.0890259 0.134923 0.0891687 0.0728625 0.0338045 0.163715
internal_weight=79046.3 58638.1 20408.1 16643.5 50218.6 47221.6 2905.44 44316.2 18806.1 25510.1 1760.94 15398.3 15209.1 14568.6 8419.51 4444.4 2996.99 4198.25 3976.61 466.506 287.443 3764.68 2434.79 3975.11 3947.61 1245.2 2328.74 1434.6 221.639 1144.5
internal_count=439476 339135 100341 81345 267837 244178 14324 229854 93783 136071 9245 74831 74034 71075 71298 32406 23659 31171 29922 3148 1623 18996 11900 38892 38624 6514 11269 6603 1249 5079
is_linear=0
shrinkage=0.1


Tree=12
num_leaves=31
num_cat=0
split_feature=5 2 4 5 8 3 5 0 1 5 4 0 3 0 2 3 5 2 6 1 0 1 1 2 1 0 5 0 1 3
split_gain=3401.82 2446.13 1836.04 1951.06 1834.66 1502.08 1333.36 979.809 877.023 526.538 611.003 451.64 302.764 253.166 525.795 250.312 239.809 230.033 212.35 207.624 205.924 195.373 135.182 118.969 115.621 72.0826 62.9175 88.7903 58.7051 57.5799
threshold=1.1864607086386263 1.0000000180025095e-35 1.2877265070979849 -0.19609570010684363 1.0000000180025095e-35 1.0000000180025095e-35 -0.36891525120002727 0.42243213708023403 0.94919938987552899 -0.10968592456025179 0.66104451540737008 0.78264466409738287 2.3605525581922429 1.36799002050025 3.453944627426655 1.0000000180025095e-35 2.3097877907443207 0.97904501030090441 1.2567588957395144 -0.37125675401803798 -0.095373370506917465 1.0000000180025095e-35 2.9298836057158799 -0.25840479826197094 1.0000000180025095e-35 3.349158919094569 0.063133626532931919 1.2779368887459628 -0.37125675401803798 2.3605525581922429
decision_type=2 2 2 2 2 2 2 2 2 2 2 2 2 2 2 2 2 2 2 2 2 2 2 2 2 2 2 2 2 2
left_child=1 2 4 15 5 6 -1 20 9 10 21 -7 -9 28 -15 23 17 18 -2 -12 -5 -3 -6 -4 -19 -20 -10 -28 -11 -17
right_child=16 8 3 7 22 11 -8 12 26 13 19 -13 -14 14 -16 29 -18 24 25 -21 -22 -23 -24 -25 -26 -27 27 -29 -30 -31
leaf_value=-0.0134734095038234 0.088849366707350164 -0.062070955274896283 0.10976296109621878 -0.11175656295732291 0.13415274272960817 -0.053512643674887519 0.019378658223208632 0.090899286036437099 0.089784073435093065 -0.10001238500230025 -0.021774803933793597 0.039191631597932299 -0.084778275114461857 0.10397693331721398 -0.10273537066085181 0.065340057236015492 0.11657812930326483 -0.063076801534724725 -0.054822699690185155 0.078501317321060429 -0.0315853889575805 0.019298874236124246 -0.13188293134931556 0.15622390830370911 0.078211027989848664 0.098183148200712583 -0.023382151009415007 0.091002865716361209 -0.077658163116795464 -0.044607978272573845
leaf_weight=28612.986970901489 1893.3525558114052 2715.2613526582718 1177.310885772109 530.86193317174911 1009.5937172621489 7141.1160438284278 21742.196179166436 824.52133719623089 356.38464376330376 2088.0469325780869 328.7481322735548 567.27107913047075 111.34878271818161 218.04554105550051 282.44303820282221 458.87693800032139 1731.4235512763262 186.53775202482939 147.77397952973843 555.18572662770748 808.06341488659382 331.05551078915596 19.468567177653313 1036.225526496768 84.003028392791748 38.894391179084778 156.54060016572475 119.79420039057732 2685.9632639586926 53.148578658699989
leaf_count=144811 9024 23285 5035 3117 5685 54213 104274 4024 1617 21202 2444 3265 664 1355 2815 2029 9602 1522 739 3215 4162 1869 84 4730 440 191 692 603 22506 262
internal_value=-0.000531908 -0.0054387 0.0016876 0.0598715 -0.00323586 -0.0055816 0.000711349 -0.00850268 -0.0518679 -0.0596962 -0.0319892 -0.0466904 0.0699974 -0.0803418 -0.012678 0.116938 0.088337 0.0675346 0.0788168 0.0412071 -0.0633719 -0.0532282 0.12912 0.131513 -0.0192069 -0.0229423 0.0620165 0.026205 -0.0874354 0.0539274
internal_weight=78012.4 73930.5 64093 5000.36 59092.6 58063.6 50355.2 2274.8 9837.47 9204.75 3930.25 7708.39 935.87 5274.5 500.489 2725.56 4081.99 2350.56 2080.02 883.934 1338.93 3046.32 1029.06 2213.54 270.541 186.668 632.719 276.335 4774.01 512.026
internal_count=439476 417958 336355 24023 312332 306563 249085 11967 81603 78691 30813 57478 4688 47878 4170 12056 21518 11916 9954 5659 7279 25154 5769 9765 1962 930 2912 1295 43708 2291
is_linear=0
shrinkage=0.1


Tree=13
num_leaves=31
num_cat=0
split_feature=5 2 1 5 5 0 4 8 0 0 4 3 9 1 5 3 2 6 0 1 0 2 1 5 1 0 0 0 3 2
split_gain=2885.42 2158.66 1811.54 1794.12 1962.7 5704.25 3774.87 987.458 892.593 657.227 445.427 388.7 355.701 283.523 228.639 219.444 177.651 188.197 121.799 114.161 93.9032 247.778 93.8907 80.4993 72.1053 67.5055 55.4889 61.0013 54.0658 59.9052
threshold=1.1864607086386263 0.97904501030090441 1.0000000180025095e-35 1.0000000180025095e-35 -0.36891525120002727 -0.5681523122169253 1.0000000180025095e-35 1.0000000180025095e-35 0.71510481528166758 0.46745870295737763 1.0000000180025095e-35 2.3605525581922429 1.0000000180025095e-35 0.94919938987552899 2.5690171173840963 2.3605525581922429 0.97904501030090441 2.9387399441071471 -0.14039993638406106 1.0000000180025095e-35 1.1203439081759601 3.453944627426655 2.9298836057158799 0.23595317762611565 -0.37125675401803798 3.349158919094569 0.48997198589594942 0.44494542001880583 0.84209987999552427 -0.25840479826197094
decision_type=2 2 2 2 2 2 2 2 2 2 2 2 2 2 2 2 2 2 2 2 2 2 2 2 2 2 2 2 2 2
left_child=1 2 3 4 6 -6 -1 8 12 10 -5 -11 -4 18 16 -10 17 28 23 -18 -20 -22 -9 24 -3 -19 27 -16 -2 -30
right_child=14 13 7 9 5 -7 -8 22 15 11 -12 -13 -14 -15 26 -17 19 25 20 -21 21 -23 -24 -25 -26 -27 -28 -29 29 -31
leaf_value=-0.037913894750676636 0.086557660972090833 -0.049260434763302899 0.010485930674114611 -0.035169656674976089 0.12843882390721981 -0.011158440742527791 0.044328335384408925 0.12971676913774907 0.089091319244553199 0.048068741217153689 -0.085226433229152465 -0.092160081779634181 0.1647478273615538 0.041285517562186243 0.13081432914920416 -0.037453895876425509 -0.054328651182928969 -0.088651750405764757 -0.090486404847064647 0.077471133074553222 0.021549456633044212 -0.09703971105285665 -0.076040767335608717 0.41513337101762371 0.1580610240040716 0.088363664664072514 0.11577830529888877 -0.27318655507150469 -0.047191165499435153 0.073654066719521891
leaf_weight=21681.19807510078 1826.9656484425068 56.054181106388569 13550.611916363239 3139.8206266015768 4082.2331615760922 10344.977586179972 7515.6052245646715 960.47288097441196 2062.4745935201645 908.11986057460308 4097.6122755408287 252.66737681627274 151.14211270213127 201.04075463116169 7.2397641688585264 146.78845548629761 191.43946524709463 92.213516473770142 3171.3851221650839 100.07183729112148 288.15356487780809 453.42464166879654 22.70159749686718 5.3022665902972212 23.940379448235035 28.111016631126404 1483.4778968840837 7.7257929891347885 65.588358595967293 109.51456859707832
leaf_count=126984 9065 608 65219 18526 17294 54927 39038 5780 10223 5563 27809 1996 637 934 39 734 1593 484 34057 541 2326 4912 101 56 234 145 8775 34 290 552
internal_value=-0.000506746 -0.00498381 -0.000742361 -0.00998162 -0.00183342 0.0283411 -0.0167438 0.027708 0.0216983 -0.0523069 -0.0635103 0.0175453 0.0121876 -0.0745919 0.0831626 0.0806834 0.064116 0.07417 -0.0804185 -0.00908359 -0.0829954 -0.0509598 0.124966 0.0377967 0.0127857 -0.0472962 0.113845 -0.0777464 0.0814702 0.028389
internal_weight=77028.1 73115.7 68916.4 52022.2 43624 14427.2 29196.8 16894.2 15911 8398.22 7237.43 1160.79 13701.8 4199.3 3912.35 2209.26 2413.9 2122.39 3998.26 291.511 3912.96 741.578 983.174 85.2968 79.9946 120.325 1498.44 14.9656 2002.07 175.103
internal_count=439476 417958 374831 292137 238243 72221 166022 82694 76813 53894 46335 7559 65856 43127 21518 10957 12670 10536 42193 2134 41295 7238 5881 898 842 629 8848 73 9907 842
is_linear=0
shrinkage=0.1


Tree=14
num_leaves=31
num_cat=0
split_feature=5 2 4 5 8 3 4 0 1 2 5 2 2 6 3 0 1 5 5 4 0 1 4 0 0 3 0 2 0 6
split_gain=2468.35 1870.89 1557.57 1569.29 1397.11 1142.58 1021.43 687.361 584.589 342.438 290.437 298.661 252.763 206.8 201.143 176.086 154.278 179.854 227.631 167.408 138.289 112.927 97.4346 80.5742 72.1488 71.5382 73.3045 62.8841 62.2759 57.6712
threshold=1.0136411575454425 0.56656174077994603 1.2877265070979849 -0.19609570010684363 1.0000000180025095e-35 0.84209987999552427 -1.2190014596644738 0.42243213708023403 0.94919938987552899 -0.25840479826197094 2.3097877907443207 0.97904501030090441 -0.25840479826197094 1.2567588957395144 1.0000000180025095e-35 -0.050346804629773867 -0.37125675401803798 -0.10968592456025179 0.58159227981248318 1.9144084987885994 2.1334416404116916 2.9298836057158799 3.1677724821698288 0.12975945887880058 -0.38804604870835085 3.1197788972906015 0.30986572238737503 -0.25840479826197094 3.0789995238317069 1.0000000180025095e-35
decision_type=2 2 2 2 2 2 2 2 2 2 2 2 2 2 2 2 2 2 2 2 2 2 2 2 2 2 2 2 2 2
left_child=1 2 4 14 5 6 -1 15 16 -7 11 13 -9 25 27 -5 22 19 -19 -18 -13 -6 24 -10 -3 26 -2 -4 -15 -16
right_child=10 8 3 7 21 9 -8 12 23 -11 -12 20 -14 28 29 -17 17 18 -20 -21 -22 -23 -24 -25 -26 -27 -28 -29 -30 -31
leaf_value=0.14068933731092506 0.051124636450350258 0.063106317597819872 0.095281857056214184 -0.099045183161961439 0.12616459989316706 -0.080585154319062074 -0.0046667234114372083 -0.0008766761671423044 0.17683597157270062 0.0020848013003799651 0.10745096219379285 -0.064419905594237048 0.10293808029613727 -0.050446870112528179 0.03665184897863915 -0.026008449196913197 -0.028289433965293806 -0.086583885256859616 0.0038223516846679962 0.14315376736842211 0.082760669058346517 -0.12508070805382693 0.20820160599183041 0.045463494012062122 -0.093100871097729451 -0.092019805842242425 0.089820246383972013 0.12750889595399442 0.076344131246677355 0.14210849107929421
leaf_weight=487.62530572712421 728.91618659347296 29.969557553529739 1182.7948939949274 558.66809386759996 852.32809753715992 2599.505088403821 56333.689502470195 435.05439101159573 56.511451900005341 620.69473011791706 1535.1682235896587 281.74948811531067 508.82540106773376 184.01110353320837 536.55007047951221 806.8211615011096 782.99932830780745 1619.7861437052488 336.33607148379087 61.423608750104904 82.541128724813461 18.273208782076836 10.936373196542261 268.51894424855709 2208.8125472292304 25.292931102216244 1490.8787933215499 1240.5008945316076 49.068589583039284 57.405635833740234
leaf_count=2428 3376 285 5035 3637 5522 22424 296562 2261 235 4394 9602 2569 2669 953 2369 4504 7470 16556 2754 348 469 82 90 1284 27557 114 7698 5720 252 257
internal_value=-0.000493443 -0.0049494 -0.000345022 0.0515103 -0.00487965 -0.00670332 -0.00341932 -0.0105316 -0.0616882 -0.0646505 0.072402 0.0534725 0.0550876 0.0659005 0.0989964 -0.0558903 -0.0700545 -0.0543892 -0.0710394 -0.0158186 -0.0310717 0.120891 -0.0895553 0.0683046 -0.0910098 0.0752083 0.0771137 0.111779 -0.0237545 0.0468442
internal_weight=75991.7 71614 66238.7 5326.62 60912.1 60041.5 56821.3 2309.37 5375.29 3220.2 4377.63 2842.46 943.88 2478.17 3017.25 1365.49 5050.26 2800.55 1956.12 844.423 364.291 870.601 2249.72 325.03 2238.78 2245.09 2219.79 2423.3 233.08 593.956
internal_count=439476 414443 357864 26452 331412 325808 298990 13071 56579 26818 25033 15431 4930 12393 13381 8141 55060 27128 19310 7818 3038 5604 27932 1519 27842 11188 11074 10755 1205 2626
is_linear=0
shrinkage=0.1


Tree=15
num_leaves=31
num_cat=0
split_feature=1 0 5 4 4 5 5 0 1 5 8 5 4 4 0 1 5 5 2 2 4 9 1 0 4 2 5 1 5 4
split_gain=2166.98 1747.8 3477.22 5488.29 1716.18 1509.57 1340.89 1092.35 1079.37 1074.94 1040.29 942.896 907.908 641.918 637.736 569.777 474.178 440.952 400.075 447.303 374.833 363.329 364.155 336.644 325.288 317.007 302.393 279.15 260.87 212.108
threshold=1.0000000180025095e-35 -0.45558589752406625 -0.36891525120002727 -0.59231946797385926 0.66104451540737008 0.23595317762611565 -0.28250547565343548 0.96275092760595726 -0.37125675401803798 0.84082160645225879 1.0000000180025095e-35 -0.19609570010684363 -0.59231946797385926 -1.2190014596644738 -0.20793978519977646 -0.37125675401803798 1.1000509330920345 0.92723138199885058 -0.25840479826197094 1.0000000180025095e-35 1.2877265070979849 1.0000000180025095e-35 2.2696555337690962 -0.43307261458549445 2.5410904904792142 0.56656174077994603 -0.10968592456025179 -0.37125675401803798 0.84082160645225879 -0.59231946797385926
decision_type=2 2 2 2 2 2 2 2 2 2 2 2 2 2 2 2 2 2 2 2 2 2 2 2 2 2 2 2 2 2
left_child=1 2 12 5 8 -4 18 10 17 24 21 -5 13 -1 29 -15 -16 23 20 -20 -6 22 26 -3 -8 -11 -2 -7 -13 -10
right_child=7 4 3 11 6 27 9 -9 14 25 -12 28 -14 15 16 -17 -18 -19 19 -21 -22 -23 -24 -25 -26 -27 -28 -29 -30 -31
leaf_value=0.15150177026495815 0.016569194605140985 -0.10886289045818838 0.13466295606703968 0.044519582541364552 -0.0006695672029648997 -0.12400583925192062 -0.058312894522469266 0.082529665124750629 -0.026186681629233394 0.081123758624033301 0.11898883966699624 -0.090342945463220151 0.01829291798178875 -0.055922027229973317 -0.048490582606860386 -0.0039036916585651737 0.054249180979751933 0.027726908814156605 0.12694791748229847 0.017497621400290465 0.084001587866604721 0.15243309991677712 0.086193271001953398 -0.060775045987658406 0.049334867476167638 -0.048931536788278246 -0.014492433066430105 0.25377389424144337 0.4122249136710352 0.010779604409069075
leaf_weight=179.93157301843166 9928.6010785773396 1843.8527663052082 5093.5712005496025 738.46475324779749 1542.4664339274168 276.02906765043736 3424.0082441195846 3122.1859797313809 2266.028504088521 1028.404325902462 958.82578754425049 1986.5839965939522 4577.3801251873374 6524.5470539033413 7302.8047346025705 3109.0775802880526 478.67043443024158 478.0956954061985 1159.4711806178093 550.76120736449957 790.93314649164677 181.04502546787262 601.11236910521984 6917.2153940424323 305.77878584712744 229.18601234257221 4579.9252453297377 21.051366664469242 10.382413193583487 4927.3134655803442
leaf_count=782 47109 9771 22028 3431 7153 1246 27164 18562 13141 5558 6517 10318 24247 36068 54883 17015 2776 2735 4953 3734 3309 808 3077 54931 1883 2104 24268 111 58 29736
internal_value=-0.000457329 -0.0104671 0.011045 0.0633406 -0.0250374 0.121883 0.012166 0.0283561 -0.0389131 -0.0225298 0.0179472 -0.0520276 -0.0184845 -0.0356387 -0.0223292 -0.0391341 -0.0421706 -0.0657922 0.0549596 0.0917007 0.0280307 0.0116112 0.0099239 -0.0708956 -0.0494876 0.0574222 0.00676393 -0.0972361 -0.08773 -0.000865422
internal_weight=75133.7 55762 22517 8126.08 33245 5390.65 9031.01 19371.7 24214 4987.38 16249.5 2735.43 14390.9 9813.56 14974.8 9633.62 7781.48 9239.16 4043.63 1710.23 2333.4 15290.7 15109.6 8761.07 3729.79 1257.59 14508.5 297.08 1996.97 7193.34
internal_count=439476 339135 115304 37192 223831 23385 55858 100341 167973 36709 81779 13807 78112 53865 100536 53083 57659 67437 19149 8687 10462 75262 74454 64702 29047 7662 71377 1357 10376 42877
is_linear=0
shrinkage=0.1


Tree=16
num_leaves=31
num_cat=0
split_feature=1 2 3 4 5 0 4 0 5 0 1 5 4 2 2 2 8 0 0 5 5 2 0 3 3 2 6 6 4 5
split_gain=1822.74 1423.75 1195.42 1006.56 1445.56 3125.65 1454.01 859.207 1245.31 854.622 477.721 444.046 385.711 345.357 319.324 284.423 223.348 212.958 202.329 176.714 157.121 144.937 120.201 119.255 116.913 101.735 101.653 96.1899 82.9095 102.379
threshold=0.94919938987552899 1.0000000180025095e-35 0.84209987999552427 0.66104451540737008 -0.36891525120002727 -0.45558589752406625 1.0000000180025095e-35 0.06221961006308515 -0.19609570010684363 1.9083088110259732 2.2696555337690962 -0.10968592456025179 0.66104451540737008 -0.25840479826197094 4.2789111664685722 -0.25840479826197094 1.0000000180025095e-35 0.44494542001880583 0.85018451291309838 -0.36891525120002727 0.49518250426589122 1.3915282798218629 1.0077774934831012 2.3605525581922429 6.1566842536840385 -0.25840479826197094 7.4240227397541672 0.69609854628363677 -0.59231946797385926 0.92723138199885058
decision_type=2 2 2 2 2 2 2 2 2 2 2 2 2 2 2 2 2 2 2 2 2 2 2 2 2 2 2 2 2 2
left_child=1 2 3 4 6 -6 -1 8 -5 11 16 12 19 -4 26 -9 17 25 23 -3 -13 -14 -22 -15 -20 -2 -11 -27 29 -19
right_child=10 9 13 7 5 -7 -8 15 -10 14 -12 20 21 18 -16 -17 -18 28 24 -21 22 -23 -24 -25 -26 27 -28 -29 -30 -31
leaf_value=-0.027865000261927255 -0.0010996653074782485 -0.058348013633371665 -0.073479775618059295 0.044163988842380431 0.06338699719515524 -0.015225113329820928 0.033936316776386477 0.048301486556501821 -0.06725725852208006 0.11467213962833661 0.094735561172775595 -0.083792920131308887 0.050044498082767314 0.0092023799716291679 -0.07236964635870094 0.10447138114763826 0.11051658459856484 -0.10057235408560622 0.13124325593082156 0.00086983522546808421 -0.063303586451603819 -0.067080491560022187 0.0027563305689575295 -0.10675946520736729 -0.1193908854318976 0.053751074125742974 -0.24176011998745681 -0.11726284781849106 0.062060755131494151 0.075297529996026083
leaf_weight=22116.523574270308 2022.5296278446913 2031.1634626090527 2696.7878688424826 2982.1175165623426 8753.0577666610479 11980.493227377534 4598.4278030842543 2162.659045830369 1511.5173563882709 472.09729032963514 1762.1761519908905 3281.7956517934799 736.52423621714115 282.66980858892202 122.29031673818827 1545.8608953952789 349.82636011391878 72.37480990588665 154.38883731514215 670.20010862499475 871.07698274403811 123.34672556072474 402.81937235593796 129.22736839950085 21.162645772099495 609.67868968844414 8.139338515698908 34.765709757804871 1533.9510012120008 60.99551996588707
leaf_count=123931 8898 18874 24068 13196 40662 64303 23759 10766 9313 3026 11325 37182 4257 1953 1282 7434 3090 306 826 6179 8231 1249 3377 1031 145 2621 39 163 7670 320
internal_value=-0.00045726 -0.00529852 0.000281387 0.00374123 -0.00185038 0.0179625 -0.0172272 0.036088 0.00668539 -0.0430132 0.0503521 -0.0515429 -0.0250886 -0.0583449 0.0718948 0.0717154 0.0336549 0.0274513 0.0111343 -0.0436562 -0.0722224 0.0332432 -0.0424147 -0.0271791 0.101029 0.00992513 0.108631 0.0445254 0.0554854 -0.0201401
internal_weight=74100.6 67654.3 58934.9 55650.7 47448.5 20733.6 26715 8202.15 4493.63 8719.45 6446.3 8116.93 3561.23 3284.24 602.527 3708.52 4684.12 4334.3 587.449 2701.36 4555.69 859.871 1273.9 411.897 175.551 2666.97 480.237 644.444 1667.32 133.37
internal_count=439476 405083 321387 293364 252655 104965 147690 40709 22509 83696 34393 79349 30559 28023 4347 18200 23068 19978 3955 25053 48790 5506 11608 2984 971 11682 3065 2784 8296 626
is_linear=0
shrinkage=0.1


Tree=17
num_leaves=31
num_cat=0
split_feature=5 2 0 3 8 5 3 6 0 5 6 1 6 0 3 4 2 0 4 4 2 1 1 3 0 0 9 1 2 3
split_gain=1660.84 1403.68 1038.8 1116.56 972.657 1478.88 522.024 224.961 348.615 204.764 183.129 173.967 144.512 128.533 127.236 183.036 122.434 159.385 110.051 94.8345 85.2871 75.7987 73.2674 59.963 53.4869 50.0696 63.6237 49.0303 44.183 43.7434
threshold=1.1864607086386263 0.97904501030090441 0.71510481528166758 0.84209987999552427 1.0000000180025095e-35 1.0000000180025095e-35 2.3605525581922429 0.69609854628363677 1.4130165863773934 3.1738855462102387 2.9387399441071471 1.6094274618223128 1.0000000180025095e-35 -0.25296635107692006 2.3605525581922429 1.0000000180025095e-35 0.56656174077994603 1.8632822451488296 2.5410904904792142 1.0000000180025095e-35 -0.25840479826197094 -0.37125675401803798 2.9298836057158799 1.0000000180025095e-35 1.3905033034388217 -0.18542650226120466 1.0000000180025095e-35 1.0000000180025095e-35 4.2789111664685722 3.8790052363889607
decision_type=2 2 2 2 2 2 2 2 2 2 2 2 2 2 2 2 2 2 2 2 2 2 2 2 2 2 2 2 2 2
left_child=1 2 3 4 5 -1 7 19 -9 10 16 13 -8 -3 15 -5 25 27 21 -4 -14 -15 -6 -12 -20 26 -2 -18 -19 -27
right_child=9 11 6 14 22 -7 12 8 -10 -11 23 -13 20 18 -16 -17 17 28 24 -21 -22 -23 -24 -25 -26 29 -28 -29 -30 -31
leaf_value=0.0048675722633620098 0.040817426956392566 0.14465292554607775 0.14889085218851827 -0.076490819538732574 0.11845967617116474 -0.038811103078319233 -0.085671171907134247 -0.016912336931104149 0.10244472083039964 0.1069064441712063 -0.10194834188606353 0.079481957610038387 -0.052339719672623422 -0.092639307738213716 -0.10107407365831317 -0.016387523778545927 -0.072975870979607158 0.10775118748090882 -0.046716296006973038 0.083698798800352844 0.1513785555747347 -0.061573120512237567 -0.084207765867427453 0.025092237471830644 0.075965072021143276 0.07526049575174594 -0.17510723745006082 0.032089346057147444 -0.049218985116807751 -0.10107907179040834
leaf_weight=50621.846581034362 60.318890616297722 27.817056208848953 264.26761546730995 1260.6560177132487 722.70600360631943 9153.2506147250533 298.82207415997982 573.00830084830523 427.11106254160404 971.84308048337698 95.018783316016197 80.340227127075195 36.292665496468544 1384.9841107428074 718.04780491441488 847.19589026272297 166.89142818003893 133.53761198371649 70.760107807815075 1433.789141446352 47.378259852528572 1814.1539239510894 18.289284065365791 61.008304730057716 71.393847815692425 1760.6225076690316 17.636243760585785 60.524942979216576 20.713068380951881 14.180671140551565
leaf_count=267397 290 277 1390 13287 5714 57838 2166 3088 2342 7307 564 453 292 21129 7050 5916 1434 875 659 8009 262 20170 80 346 439 10091 72 328 146 65
internal_value=-0.000446928 -0.00375041 -0.00052044 -0.00327838 -0.000409326 -0.00182086 0.0561858 0.0716847 0.0340603 0.0682029 0.0524679 -0.0659467 -0.0531459 -0.0694146 -0.0647185 -0.0523339 0.0597819 0.00820746 -0.0711968 0.0938446 0.0630148 -0.0750224 0.113457 -0.0522741 0.0148979 0.0704063 -0.00803247 -0.0450137 0.0866729 0.0738515
internal_weight=73234.4 69872.1 66422.7 63342 60516.1 59775.1 3080.67 2698.18 1000.12 3362.3 2390.45 3449.45 382.493 3369.11 2825.9 2107.85 2234.43 381.667 3341.29 1698.06 83.6709 3199.14 740.995 156.027 142.154 1852.76 77.9551 227.416 154.251 1774.8
internal_count=439476 417958 374831 357282 331029 325235 17549 14829 5430 21518 14211 43127 2720 42674 26253 19203 13301 2783 42397 9399 554 41299 5794 910 1098 10518 362 1762 1021 10156
is_linear=0
shrinkage=0.1


Tree=18
num_leaves=31
num_cat=0
split_feature=1 0 5 4 4 5 1 5 0 5 5 8 4 4 0 4 1 1 0 4 9 1 5 5 3 1 2 2 4 3
split_gain=1485.4 1214.7 2242.35 4337.03 1223.12 1157.58 943.16 877.827 763.777 760.382 737.919 731.939 717.892 541.504 521.892 605.88 493.865 445.943 404.472 743.996 336.937 301.372 272.039 261.004 260.679 221.772 221.735 214.953 208.194 203.151
threshold=1.0000000180025095e-35 -0.45558589752406625 -0.36891525120002727 -0.59231946797385926 0.66104451540737008 0.23595317762611565 -0.37125675401803798 -0.28250547565343548 1.3905033034388217 -0.19609570010684363 0.84082160645225879 1.0000000180025095e-35 -0.59231946797385926 -1.2190014596644738 -0.36553276576977906 1.0000000180025095e-35 -0.37125675401803798 2.2696555337690962 -0.43307261458549445 -0.59231946797385926 1.0000000180025095e-35 -0.37125675401803798 -0.36891525120002727 1.0000000180025095e-35 1.6013262190938835 -0.37125675401803798 1.3915282798218629 -0.25840479826197094 -0.59231946797385926 1.0000000180025095e-35
decision_type=2 2 2 2 2 2 2 2 2 2 2 2 2 2 2 2 2 2 2 2 2 2 2 2 2 2 2 2 2 2
left_child=1 2 12 5 6 -4 18 21 11 -5 23 17 13 -1 22 -16 -15 20 28 -20 24 27 -8 -9 -2 -7 -12 -6 -3 -23
right_child=8 4 3 9 7 25 14 10 -10 -11 26 -13 -14 16 15 -17 -18 -19 19 -21 -22 29 -24 -25 -26 -27 -28 -29 -30 -31
leaf_value=0.14445890819992463 0.0092616497356531446 -0.1201901557390152 0.11299597498250652 0.032057200994139598 -0.015948013041146524 -0.11820680405806386 -0.0022643552186291461 -0.0028657921841820913 0.08521513047855836 -0.085530406783910606 0.065180155529788925 0.11090529423511214 0.017338447938193172 -0.050202829768382765 -0.043392968562204981 0.0067303152801531279 -0.0011990120793453261 0.082996920930588705 0.027130980760607871 -0.063069589194185524 0.14308120388325093 0.08452958436435315 0.060682911779118623 -0.061740522618874263 -0.069261820273645011 0.20436580560692416 -0.076101889028324071 0.054108245175446393 -0.033951943549448117 0.014389269909577547
leaf_weight=173.03112101554871 14546.813846342266 1387.3270628526807 5171.1428507566452 765.17370171099901 1042.571968331933 266.55643091350794 2089.337131947279 1113.433331489563 1832.8161365091801 1954.9741905555129 1024.8717146888375 794.74144979566336 4592.4620744138956 6251.1457656696439 7773.0011808946729 3496.3818875923753 3064.9455142691731 851.66725999861956 1086.5607240013778 5772.3966379836202 184.13102765381336 1764.3794743940234 1022.5770363584161 2326.0389871783555 435.42767990380526 23.165636345744133 124.59050415456295 755.24568518251181 350.70991679280996 539.11202244460583
leaf_count=782 71967 7675 22028 3431 4621 1246 12584 6411 12977 10376 6198 6534 24247 36068 58771 23902 17015 5370 7857 49807 857 7958 5279 22636 2636 111 1464 4015 2098 2555
internal_value=-0.000414833 -0.00882667 0.00907286 0.0507105 -0.0214098 0.102098 -0.0334957 0.010547 0.0239158 -0.0524532 -0.0194995 0.0172334 -0.0151175 -0.0308252 -0.0178315 -0.027842 -0.0340808 0.0125858 -0.0596992 -0.0487805 0.0086319 0.0441658 0.0184202 -0.0426815 0.00697953 -0.0924145 0.0498666 0.0134819 -0.102789 0.0681139
internal_weight=72576.7 53931.1 22262.6 8181.01 31668.5 5460.86 22978.3 8690.24 18645.6 2720.15 4588.93 16812.8 14081.6 9489.12 14381.3 11269.4 9316.09 16018 8596.99 6858.96 15166.4 4101.31 3111.91 3439.47 14982.2 289.722 1149.46 1797.82 1738.04 2303.49
internal_count=439476 339135 115304 37192 223831 23385 167973 55858 100341 13807 36709 87364 78112 53865 100536 82673 53083 80830 67437 57664 75460 19149 17863 29047 74603 1357 7662 8636 9773 10513
is_linear=0
shrinkage=0.1


Tree=19
num_leaves=31
num_cat=0
split_feature=5 2 4 5 0 5 1 4 3 0 0 4 5 6 2 2 0 3 1 0 4 4 0 2 5 1 5 0 0 6
split_gain=1295.14 1121.67 898.027 949.018 882.737 2256.65 1367.91 868.961 500.147 420.434 394.822 382.202 225.859 185.687 181.077 172.568 161.239 139.936 131.877 123.456 97.9079 85.3241 84.7505 111.043 78.0212 69.5408 67.8843 61.7397 54.2443 49.9075
threshold=1.0136411575454425 0.97904501030090441 1.2877265070979849 -0.19609570010684363 -0.5681523122169253 -0.36891525120002727 -0.37125675401803798 -0.59231946797385926 0.84209987999552427 -0.45558589752406625 0.58002511765023679 -1.2190014596644738 3.1738855462102387 2.9387399441071471 1.8040115493428217 -0.25840479826197094 -0.095373370506917465 1.0000000180025095e-35 1.6094274618223128 -0.14039993638406106 2.5410904904792142 2.5410904904792142 1.3454767375616781 1.0000000180025095e-35 -0.36891525120002727 -0.37125675401803798 0.49518250426589122 2.2910346209816939 3.1915659385245658 1.0000000180025095e-35
decision_type=2 2 2 2 2 2 2 2 2 2 2 2 2 2 2 2 2 2 2 2 2 2 2 2 2 2 2 2 2 2
left_child=1 2 4 17 5 11 9 -7 -8 -6 16 -1 13 14 22 -12 -5 21 19 24 26 -4 23 -2 -3 -26 -21 -16 -15 -19
right_child=12 18 3 10 6 7 8 -9 -10 -11 15 -13 -14 28 27 -17 -18 29 -20 20 -22 -23 -24 -25 25 -27 -28 -29 -30 -31
leaf_value=0.13843829571399424 0.058139123069515623 -0.042185412110714963 0.075598189759262038 -0.092756060592122602 -0.010003638330435712 0.087009291993018142 0.0027563530396038137 -0.012689723647457886 -0.047240820708333048 -0.051412353873982464 -0.008060869284774971 -0.015414140518275318 0.10210425603826929 -0.085033651029497337 -0.074832158373937738 0.090532463054588772 -0.019524107383374106 0.023802292321211737 0.072353997669352119 -0.079741361731329993 0.014355836851534562 0.11905528652008522 0.092176418633804769 -0.0081082003819563393 0.052740187008160515 0.32860439555437193 -0.037612588138368513 0.054081927583905454 0.040786754318431311 0.12248948091953422
leaf_weight=164.29137831926346 1607.1400360912085 37.57640914618969 1787.5454952567816 417.29414667934179 3400.7305281981826 4453.8122656941414 30216.738046765327 1087.7177093327045 2142.6926580965519 8788.7721342295408 303.12641244381666 9392.6314030885696 860.05409353971481 137.71253331005573 146.42122982442379 428.45227662101388 1075.6461428999901 553.77749525755644 70.90286673605442 2347.2425339445472 134.85327162593603 604.62355967611074 552.84370358288288 300.29705687239766 23.389263510704041 14.997219450771807 456.94133559241891 49.781007163226604 45.614745236933231 56.469649642705917
leaf_count=782 8841 455 7748 3318 18191 20530 164645 5796 20704 60459 1719 52887 7307 833 1572 2618 6839 2460 430 33958 1064 3420 3914 1909 313 133 5698 375 282 276
internal_value=-0.000409149 -0.00354593 -0.00074399 0.0390008 -0.00422685 0.0166696 -0.011309 0.0674399 -0.00055423 -0.0398598 -0.0105021 -0.0127693 0.0572082 0.0436112 0.0503287 0.0496807 -0.0399933 0.075678 -0.0624506 -0.0656208 -0.068874 0.086582 0.0577015 0.0477095 0.0602469 0.160518 -0.0728765 -0.0421237 -0.0537275 0.0329344
internal_weight=71660.1 67960.2 64874.3 5226.94 59647.4 15098.5 44548.9 5541.53 32359.4 12189.5 2224.52 9556.92 3699.86 2839.81 2656.48 731.579 1492.94 3002.42 3085.9 3015 2939.04 2392.17 2460.28 1907.44 75.9629 38.3865 2804.18 196.202 183.327 610.247
internal_count=439476 414443 372392 28398 343994 79995 263999 26326 185349 78650 14494 53669 25033 17726 16611 4337 10157 13904 42051 41621 40720 11168 14664 10750 901 446 39656 1947 1115 2736
is_linear=0
shrinkage=0.1


Tree=20
num_leaves=31
num_cat=0
split_feature=0 2 3 4 5 4 4 5 0 2 2 5 1 3 0 2 1 3 4 5 6 6 5 0 4 5 4 5 1 0
split_gain=1135.7 1174.93 890.533 695.238 967.44 1908.38 1218.63 751.072 656.103 561.099 555.372 419.51 389.158 354.122 478.022 368.53 215.2 162.787 155.892 182.038 118.03 117.659 104.727 153.089 103.41 83.2616 78.8654 70.3436 66.909 62.3148
threshold=1.36799002050025 1.0000000180025095e-35 1.0000000180025095e-35 0.66104451540737008 -0.36891525120002727 -0.59231946797385926 -0.59231946797385926 -0.19609570010684363 0.12975945887880058 3.453944627426655 -0.25840479826197094 1.0000000180025095e-35 -0.37125675401803798 2.3605525581922429 0.24232587357165961 -0.25840479826197094 1.0000000180025095e-35 6.1566842536840385 1.0000000180025095e-35 -0.36891525120002727 1.0000000180025095e-35 1.2567588957395144 0.49518250426589122 -0.36553276576977906 -0.59231946797385926 2.8282464440238715 2.5410904904792142 -0.36891525120002727 -0.37125675401803798 3.0789995238317069
decision_type=2 2 2 2 2 2 2 2 2 2 2 2 2 2 2 2 2 2 2 2 2 2 2 2 2 2 2 2 2 2
left_child=1 2 3 4 6 -6 -1 10 -9 17 -5 12 24 14 16 -16 -4 21 19 -14 -20 -2 -13 -24 27 -11 -26 -3 -23 -30
right_child=9 11 13 7 5 -7 -8 8 -10 25 -12 22 18 -15 15 -17 -18 -19 20 -21 -22 28 23 -25 26 -27 -28 -29 29 -31
leaf_value=-0.034000941744172279 0.1040147928153335 -0.030367002522948511 -0.048318854579905111 0.03365314095262481 0.049471933881767655 -0.01197844852823126 0.010050513139954189 -0.053071803320055511 0.040286252974232911 -0.078813955809735423 0.10485551686491423 -0.077797304686125834 -0.043158839080681639 -0.091841244629431482 -0.008063209005491883 0.09396376939445919 0.0011412602356184092 -0.050230551924019741 0.027293344015080323 0.040145302438270775 0.16681628248160818 -0.064015885060248551 0.78351411601383669 -0.041903800170104366 -0.070444918508738172 0.076256248867211704 0.12264810502745033 0.089381893543239721 0.037053465113226672 0.094092376303529568
leaf_weight=12356.19479931891 1410.2221777737141 170.80327068269253 4054.4503579363227 3216.8412078246474 9795.0329691842198 10440.669586889446 12770.050871685147 1480.6804965287447 1531.2945414632559 282.10722801461816 1661.1343261078 2375.5537366420031 823.3629158064723 831.91694110631943 1108.2120418697596 520.22490237653255 1123.4487298056483 90.578098230063915 1024.7288650684059 384.96727963164449 64.445190820842981 43.743592835962772 2.2516900822520247 1072.2568332776427 1311.1593557521701 39.469147801399231 21.498923011124134 68.819938417524099 419.17958498001099 352.68862214684486
leaf_count=69098 10967 1596 38140 14230 47243 54796 65419 9783 8549 3770 7871 31599 7235 8652 6957 2896 6561 689 6863 3159 399 290 24 10651 15514 331 121 665 2512 2896
internal_value=-0.000382172 -0.00287206 0.00167845 0.00625862 0.00149331 0.0177664 -0.0116124 0.0336559 -0.00560837 0.0639984 0.0579002 -0.0407255 -0.0181212 -0.0302533 -0.0227255 0.0245306 -0.0375875 0.0811821 0.00811229 -0.0166186 0.0355488 0.0865298 -0.0660797 -0.0401741 -0.0564551 -0.0597812 -0.0673299 0.00402496 0.0562977 0.0631162
internal_weight=70848 68210 60890.2 53251.9 45361.9 20235.7 25126.2 7889.95 3011.98 2637.99 4877.98 7319.85 3869.79 7638.25 6806.34 1628.44 5177.9 2316.41 2297.5 1208.33 1089.17 2225.83 3450.06 1074.51 1572.28 321.576 1332.66 239.623 815.612 771.868
internal_count=439476 418021 340195 276989 236556 102039 134517 40433 18332 21455 22101 77826 35552 63206 54554 9853 44701 17354 17656 10394 7262 16665 42274 10675 17896 4101 15635 2261 5698 5408
is_linear=0
shrinkage=0.1


Tree=21
num_leaves=31
num_cat=0
split_feature=1 2 0 5 5 4 6 8 1 1 4 1 5 0 0 4 9 0 2 1 3 1 2 0 1 6 0 5 4 5
split_gain=993.938 870.88 621.672 1236.81 1707.05 829.225 634.647 548.383 649.273 512.017 375.59 681.526 327.689 642.206 318.4 286.852 283.892 273.783 262.949 246.717 181.902 131.688 109.866 171.573 89.2648 89.0543 69.8767 69.3818 53.6204 53.3375
threshold=1.0000000180025095e-35 0.56656174077994603 -0.5681523122169253 -0.36891525120002727 0.1495434020795238 0.66104451540737008 1.0000000180025095e-35 1.0000000180025095e-35 2.2696555337690962 -0.37125675401803798 -0.59231946797385926 -0.37125675401803798 -0.28250547565343548 0.12975945887880058 1.818255679271686 -0.59231946797385926 1.0000000180025095e-35 1.5706095669473961 -0.25840479826197094 -0.37125675401803798 1.6013262190938835 -0.37125675401803798 1.3915282798218629 1.0978306252373884 2.9298836057158799 8.5453434386659222 -0.27547963401549186 -0.10968592456025179 0.66104451540737008 0.49518250426589122
decision_type=2 2 2 2 2 2 2 2 2 2 2 2 2 2 2 2 2 2 2 2 2 2 2 2 2 2 2 2 2 2
left_child=1 2 3 10 15 6 9 8 14 -4 11 -1 18 -14 16 -5 20 -8 -7 -12 -2 26 23 27 -9 -16 -3 -23 -26 -24
right_child=7 21 5 4 -6 12 17 24 -10 -11 19 -13 13 -15 25 -17 -18 -19 -20 -21 -22 22 29 -25 28 -27 -28 -29 -30 -31
leaf_value=-0.037424461051150708 0.0080178294031798252 0.020841684246685987 -0.033280805903589013 0.086916228281577468 -0.10179209239938834 0.01765378866810053 -0.083241973895906207 0.11330692993750445 0.082773488357602135 -0.003903230279326356 0.060558100062226762 0.034232909773370505 -0.050853299185699155 0.036139846425266527 0.079282904937218207 0.016418569277104847 0.13202394421220306 0.05901040970700136 0.07017357136485014 -0.011749107387550891 -0.057846912201793811 0.0033765938167186552 -0.079587844996296425 0.11732636974269922 -0.15384216638513881 -0.29702140431441648 -0.081279518073939849 -0.057784655108561039 0.12852835312703795 -0.021501824126727354
leaf_weight=5221.2324079200625 14744.195448532701 69.945437662303448 9499.1370954476297 3672.9835470020771 617.70809867978096 2507.0541490316391 1885.2525997087359 681.37540992349386 1353.924630343914 15801.640248969197 1134.7774909809232 1779.6810587570071 1591.2719223350286 1818.2500681653619 707.7639322578907 684.78378537297249 181.30214578658342 145.75687338411808 1538.1697306334972 807.79812937229872 431.58074277639389 366.41202238947153 574.9735986366868 91.816211573779583 20.548970460891727 6.3453049361705771 1593.3034875355661 375.61513783037663 9.9965016543865186 218.03037475422025
leaf_count=31595 73488 886 61167 15767 3550 11123 13485 6437 11096 97342 5872 10048 11342 11678 5425 3115 906 911 6570 4212 2788 4038 9210 589 99 39 28444 5496 63 2695
internal_value=-0.000373258 -0.00740429 -0.00404064 0.0138199 0.0537853 -0.0111871 -0.0192504 0.0197835 0.0162688 -0.014933 -0.00841384 -0.0192087 0.0183759 -0.00446108 0.010666 0.0758382 0.00763082 -0.0730331 0.0376241 0.03049 0.00614472 -0.0571987 -0.0369697 -0.011627 0.10581 0.0759392 -0.076985 -0.0275833 -0.0614318 -0.0636175
internal_weight=70132.6 51995.6 48705.5 13919 4975.48 34786.5 27331.8 18137 17425.1 25300.8 8943.49 7000.91 7454.75 3409.52 16071.2 4357.77 15357.1 2031.01 4045.22 1942.58 15175.8 3290.1 1626.85 833.843 711.921 714.109 1663.25 742.027 30.5455 793.004
internal_count=439476 339135 287777 74159 22432 213618 172905 100341 93742 158509 51727 41643 40713 23020 82646 18882 77182 14396 17693 10084 76276 51358 22028 10123 6599 5464 29330 9534 162 11905
is_linear=0
shrinkage=0.1


Tree=22
num_leaves=31
num_cat=0
split_feature=5 5 5 4 0 0 4 8 4 1 4 0 5 1 4 1 3 2 4 1 4 5 6 2 0 3 6 1 0 4
split_gain=915.577 920.989 1641.87 2188.44 984.797 1455.03 1230.39 910.713 675.662 483.571 482.718 463.161 396.252 279.691 422.388 264.762 262.34 254.741 239.012 202.705 195.323 179.831 182.177 147.338 131.635 131.204 94.5339 83.2369 67.0809 76.4307
threshold=1.0136411575454425 -0.10968592456025179 -0.36891525120002727 1.0000000180025095e-35 -0.45558589752406625 -0.43307261458549445 -0.59231946797385926 1.0000000180025095e-35 1.0000000180025095e-35 -0.37125675401803798 -1.2190014596644738 0.71510481528166758 -0.19609570010684363 1.0000000180025095e-35 -0.59231946797385926 -0.37125675401803798 1.6013262190938835 1.8040115493428217 1.9144084987885994 -0.37125675401803798 1.2877265070979849 3.1738855462102387 1.2567588957395144 1.8040115493428217 -0.16291321932263286 1.0000000180025095e-35 0.69609854628363677 2.9298836057158799 1.232910322868819 -0.59231946797385926
decision_type=2 2 2 2 2 2 2 2 2 2 2 2 2 2 2 2 2 2 2 2 2 2 2 2 2 2 2 2 2 2
left_child=1 2 3 10 6 9 25 8 13 -6 -1 19 -8 14 -3 -12 20 -13 -7 -10 -5 22 23 28 -15 -4 -18 -9 29 -2
right_child=21 7 4 16 5 18 12 27 11 -11 15 17 -14 24 -16 -17 26 -19 -20 -21 -22 -23 -24 -25 -26 -27 -28 -29 -30 -31
leaf_value=0.13927699814566397 -0.016386995080814114 0.0063961259966513325 0.097522426378095536 0.025509746792909467 -0.11660400966992859 0.023282995583459476 0.029999998031751154 0.11094167900976182 -0.081146851686468693 0.054735274560340288 -0.038564193315632656 0.025072494456672031 -0.077660593226842434 0.060344786345039529 -0.047005663590599489 -0.01705447531960259 -0.089538344428755939 -0.058190516315949306 0.087662685946069532 -0.04521521776458895 0.060293846616576621 0.095158387867190247 -0.034757864078808126 -0.044594661765536746 0.0074635259743499622 -0.063324158432374142 0.18476013635423202 -0.088809334176695814 0.088462250913933144 0.052711023924328762
leaf_weight=178.98484408482909 178.4002218618989 3200.6268207803369 3890.8203750178218 8672.517472974956 1024.9047816544771 6721.4807671383023 856.17848542332649 532.64716730639338 2600.1116746217012 196.26287417858839 9465.857144869864 1173.5400407388806 569.11054167151451 664.17875493317842 2757.0142333619297 14470.561235565692 224.58773439750075 534.94371709600091 630.78041059151292 3963.0938741154969 1983.5576307065785 710.74826513975859 300.78082123398781 160.5825683735311 1616.1464326530695 51.383350439369678 13.30892815440893 21.711466558277607 462.71120671927929 1558.8230378516018
leaf_count=875 1002 19885 16520 45868 5929 38603 3840 5615 27452 936 63231 7901 2801 3380 21844 88682 1684 8207 3957 28998 9003 7307 1926 1790 8753 305 72 102 3867 9141
internal_value=-0.00035354 -0.00294974 0.00402409 -0.00753292 0.0330468 0.012017 0.0666375 -0.0229551 -0.0271883 -0.0890668 -0.0243372 -0.047377 -0.0129883 -0.00691697 -0.0183166 -0.0255607 0.0296659 -0.000998005 0.0288064 -0.0594501 0.0319846 0.0504721 0.0385378 0.0478773 0.022866 0.0954259 -0.0741929 0.103118 0.0546272 0.0456152
internal_weight=69386.4 66014.3 48950.3 35009.4 13940.9 8573.43 5367.49 17064 16509.7 1221.17 24115.4 8271.69 1425.29 8237.97 5957.64 23936.4 10894 1708.48 7352.26 6563.21 10656.1 3372.05 2661.3 2360.52 2280.33 3942.2 237.897 554.359 2199.93 1737.22
internal_count=439476 414443 282306 209415 72891 49425 23466 132137 126420 6865 152788 72558 6641 53862 41729 151913 56627 16108 42560 56450 54871 25033 17726 15800 12133 16825 1756 5717 14010 10143
is_linear=0
shrinkage=0.1


Tree=23
num_leaves=31
num_cat=0
split_feature=0 2 3 0 6 8 5 4 1 5 2 2 1 3 0 0 2 4 1 0 6 3 1 0 4 3 6 0 1 3
split_gain=798.798 843.471 716.462 646.86 643.541 632.913 690.654 335.677 327.87 300.25 283.453 273.15 187.92 132.976 187.329 122.181 151.386 114.297 111.069 105.176 93.9137 116.445 110.1 86.1567 71.1205 59.911 59.516 74.5111 59.1556 57.2825
threshold=1.6381494157631116 1.0000000180025095e-35 0.84209987999552427 0.24232587357165961 0.69609854628363677 1.0000000180025095e-35 0.063133626532931919 -0.59231946797385926 -0.37125675401803798 1.0000000180025095e-35 -0.25840479826197094 4.2789111664685722 -0.37125675401803798 2.3605525581922429 0.21981259063308778 1.0077774934831012 3.041461357905697 -0.59231946797385926 1.0000000180025095e-35 -0.47809918046263805 7.4240227397541672 6.1566842536840385 2.2696555337690962 -0.36553276576977906 2.5410904904792142 3.1197788972906015 1.2567588957395144 3.0789995238317069 2.9298836057158799 1.0000000180025095e-35
decision_type=2 2 2 2 2 2 2 2 2 2 2 2 2 2 2 2 2 2 2 2 2 2 2 2 2 2 2 2 2 2
left_child=1 2 3 5 12 6 -1 -6 17 18 25 20 -5 14 -12 23 -17 -3 19 -10 21 26 -22 -11 -19 -4 -2 -28 -7 -20
right_child=11 8 10 4 7 28 -8 -9 9 15 13 -13 -14 -15 -16 16 -18 24 29 -21 22 -23 -24 -25 -26 -27 27 -29 -30 -31
leaf_value=0.0032182889633641416 0.10303035078825303 -0.0049676617719280249 -0.055963353420652368 0.10527070140041613 -0.10971216900304848 0.10995146216551305 -0.036653019812296309 0.0067133197537890101 0.11144756725153047 0.23483074625806666 -0.050472125707328501 -0.065081667202680979 0.044833779876733412 -0.064013629468954267 0.094418440625376757 0.033837241946039959 -0.095946408083041251 -0.073274878442822503 0.025616129790578875 -0.015693786818088844 -0.15748334198109815 -0.057740437139260928 0.090971978086411928 -0.059405339279714836 0.049298088440821008 -0.099609982333002278 0.029875517903880679 0.10061848435265071 -0.10165337609466088 0.1032507267802554
leaf_weight=45784.097218327224 930.13789565116167 299.18026109784842 1878.5917820706964 590.08152071386576 371.6012177541852 561.19053655862808 4799.9744644984603 742.38231952488422 68.209537863731384 10.010809618979691 133.32258201390505 147.56528094410896 4015.5243894532323 149.15101642906666 269.83017589151859 345.66704333201051 121.45655211433768 2242.9406135901809 726.14863367378712 1411.1487326659262 36.275383487343788 57.514813423156738 35.087323732674122 1685.4186173453927 48.358145952224731 377.72230872139335 321.74366430565715 277.12527292221785 13.529778555035589 109.353749550879
leaf_count=244241 8826 3189 19917 3452 2098 6238 31186 4282 372 81 1230 2085 22221 1366 1605 2645 1752 35031 3972 13013 182 420 406 19446 426 4499 1983 2656 64 592
internal_value=-0.000341356 -0.0021165 0.00175161 0.00418622 0.0360802 0.000620446 -0.00056514 -0.0321237 -0.0347819 -0.0183993 -0.0475526 0.0652929 0.0525771 0.0166578 0.0465031 -0.0451915 9.22657e-05 -0.0630978 0.00662999 -0.00983161 0.0768973 0.0819451 -0.0353238 -0.057668 -0.070688 -0.0632701 0.0871995 0.0626117 0.10497 0.0357772
internal_weight=68560.3 66754.9 59687 56878.4 5719.59 51158.8 50584.1 1113.98 7067.89 4477.41 2808.62 1805.45 4605.61 552.304 403.153 2162.55 467.124 2590.48 2314.86 1479.36 1657.88 1586.52 71.3627 1695.43 2291.3 2256.31 1529.01 598.869 574.72 835.502
internal_count=439476 422918 342399 313782 32053 281729 275427 6380 80519 41873 28617 16558 25673 4201 2835 23924 4397 38646 17949 13385 14473 13885 588 19527 35457 24416 13465 4639 6302 4564
is_linear=0
shrinkage=0.1


Tree=24
num_leaves=31
num_cat=0
split_feature=1 8 2 4 0 6 0 3 0 0 5 2 1 5 1 5 5 2 6 5 6 5 2 1 1 4 0 4 0 4
split_gain=693.98 649.386 572.604 531.957 479.561 614.554 258.108 178.585 143.24 111.707 85.3695 75.4538 64.0097 53.871 44.8564 37.0119 35.629 76.571 35.6235 31.8127 30.2793 57.9472 29.8468 27.6217 27.5921 31.1885 34.7436 24.8539 24.2442 23.9872
threshold=1.6094274618223128 1.0000000180025095e-35 0.97904501030090441 -1.2190014596644738 1.232910322868819 0.69609854628363677 3.1690526555859946 5.3974579145856802 0.44494542001880583 -0.14039993638406106 0.49518250426589122 1.8040115493428217 -1.0314848259648213 -0.28250547565343548 2.2696555337690962 1.4456900352784019 -0.36891525120002727 -0.25840479826197094 7.4240227397541672 0.1495434020795238 1.2567588957395144 1.5320998108249937 7.9912605921571993 2.9298836057158799 2.2696555337690962 0.66104451540737008 0.19729930769451598 -0.59231946797385926 0.76013138115881118 1.0000000180025095e-35
decision_type=2 2 2 2 2 2 2 2 2 2 2 2 2 2 2 2 2 2 2 2 2 2 2 2 2 2 2 2 2 2
left_child=1 2 3 12 5 -5 9 -6 13 11 -11 -4 -1 24 16 19 17 28 22 29 27 -22 -8 -21 25 26 -2 -18 -10 -15
right_child=8 -3 6 4 7 -7 18 -9 14 10 -12 -13 -14 15 -16 -17 20 -19 -20 23 21 -23 -24 -25 -26 -27 -28 -29 -30 -31
leaf_value=-0.09546139798123171 0.028401300643805645 0.1089864235080029 0.043598209507629687 -0.0015201226322294173 0.070755506668081558 -0.066407285310242023 0.10169551852348349 -0.08416952941731734 -0.05093763441868146 -0.067936870815097264 -0.02703839116459544 0.47947832337725488 0.12824162314241913 0.0045343931410380704 0.081938457044585383 -0.29575984980205189 -0.03675971897803141 0.086773548949470133 -0.22096028348208169 0.065601567747823372 0.051197782954546384 -0.14380061472074526 -0.099668422083620506 -0.059607735625765684 0.078472942125610595 0.075192871093196542 -0.052581794593824949 0.071672048488312268 -0.20716244196657768 -0.059003900678075809
leaf_weight=13.280529737472532 221.70336076617241 520.22345513477921 67.499085739254951 59095.716804724187 1127.4696581624448 1496.5935286432505 134.37394432723522 79.662176087498665 32.530996769666672 1951.5212514214218 691.11957671493292 4.2197073698043814 346.94948721677065 113.83126217126846 993.14979274570942 4.5476901680231085 22.142116717994213 42.471706613898277 3.7655275315046302 79.91385556012392 57.91189806163311 20.681912548840046 7.7875549532473078 22.601959630846977 130.22811244428158 94.388907015323639 69.610658824443817 466.53613723069429 14.3004148080945 124.29489529132843
leaf_count=71 901 6226 853 347422 7806 10670 1540 613 152 34659 8820 48 2389 485 10158 26 112 259 19 446 369 141 118 108 651 420 283 3089 89 533
internal_value=-0.000319256 -0.00229583 -0.00318619 -0.00117314 -0.00187943 -0.0031228 -0.0469337 0.0605315 0.0512748 -0.0538989 -0.0572409 0.069244 0.119994 0.0182154 0.0685312 -0.0123629 0.048251 -0.0104603 0.0826236 -0.0085794 0.0574937 -0.000115925 0.0906649 0.0379963 0.0386741 0.0252365 0.00905006 0.066759 -0.0986424 -0.0286307
internal_weight=68051 65540.2 65020 62159.7 61799.4 60592.3 2860.29 1207.13 2510.85 2714.36 2642.64 71.7188 360.23 861.121 1649.72 345.19 656.575 89.3031 145.927 340.642 567.272 78.5938 142.161 102.516 515.931 385.703 291.314 488.678 46.8314 238.126
internal_count=439476 421254 415028 368971 366511 358092 46057 8419 18222 44380 43479 901 2460 3853 14369 1598 4211 500 1677 1572 3711 510 1658 554 2255 1604 1184 3201 241 1018
is_linear=0
shrinkage=0.1


Tree=25
num_leaves=31
num_cat=0
split_feature=5 5 5 4 0 0 4 4 1 1 1 4 4 6 5 0 0 1 3 0 4 5 6 2 5 5 4 2 2 0
split_gain=620.087 685.493 1327.91 1766.7 802.636 1225.15 1007.78 712.089 426.029 424.649 414.744 366.463 346.389 426.161 330.629 291.004 286.278 222.622 198.074 186.301 151.065 144.748 156.682 137.5 135.489 120.318 113.343 110.017 108.095 106.397
threshold=1.0136411575454425 -0.10968592456025179 -0.36891525120002727 1.0000000180025095e-35 -0.45558589752406625 -0.43307261458549445 -0.59231946797385926 1.0000000180025095e-35 -0.37125675401803798 -0.37125675401803798 1.0000000180025095e-35 -1.2190014596644738 -0.59231946797385926 1.0000000180025095e-35 -0.19609570010684363 -0.43307261458549445 1.232910322868819 -0.37125675401803798 1.6013262190938835 -0.38804604870835085 1.2877265070979849 3.1738855462102387 1.2567588957395144 3.453944627426655 1.0000000180025095e-35 0.92723138199885058 -0.59231946797385926 0.97904501030090441 1.0000000180025095e-35 -0.77077185866407139
decision_type=2 2 2 2 2 2 2 2 2 2 2 2 2 2 2 2 2 2 2 2 2 2 2 2 2 2 2 2 2 2
left_child=1 2 3 11 6 8 29 10 -6 25 12 -1 13 -3 -8 -12 28 -13 20 -7 -5 22 27 -18 -14 -9 -17 -2 -11 -4
right_child=21 7 4 18 5 19 14 9 -10 16 15 17 24 -15 -16 26 23 -19 -20 -21 -22 -23 -24 -25 -26 -27 -28 -29 -30 -31
leaf_value=0.12892613886245893 0.050662569657355043 0.022139349882182302 0.039534140738945608 0.022752731991110647 -0.11218449951980847 0.074495048872287861 0.026611258058912603 -0.07799513940924413 0.048113585833193633 -0.024510959852949391 0.10482299416104868 -0.035341595092296271 -0.068260109366905894 -0.084263374177994607 -0.072553272715887782 -0.010810461009338848 0.06387971736734227 -0.015414578538547911 -0.067674454132198705 0.02065872417522966 0.053506573134845796 0.088485837911073784 -0.035872506095647315 -0.079404018138067398 -0.022274677263220834 0.066724462782365657 0.036059710560129341 -0.01674405136792502 -0.059562793450596334 0.092370950228688214
leaf_weight=159.37563886493444 1928.32323987782 2717.5708528161049 428.16758380830288 8723.7946914471686 962.99891587719321 712.19000124186277 863.86074975878 2557.8860537484288 200.28173261135817 3479.2408922091126 464.44085629656911 9219.0039960443974 1112.5390572063625 436.93768300116062 550.4743337072432 852.04974160715938 465.88707317039371 14306.939710818231 219.06925717368722 6595.6764051653445 1955.1965376920998 581.79435724020004 290.98365403339267 78.218811932951212 1510.7552137002349 58.767922427505255 1307.9513709917665 276.90439691767097 1177.5751999020576 3468.1866309940815
leaf_count=875 12739 16551 2024 45868 5929 3538 3840 31714 936 21831 5103 63231 7576 3334 2801 4793 3270 88682 1756 39022 9003 7307 1926 1248 14268 524 7286 3061 14639 14801
internal_value=-0.000284191 -0.00237406 0.00359206 -0.00686808 0.0298402 0.0107324 0.0603192 -0.0201642 -0.084586 -0.0418865 4.65548e-05 -0.0221995 -0.0149272 0.00740128 -0.0119846 0.0330117 -0.025355 -0.0232233 0.0264525 0.0259054 0.0283834 0.043567 0.0330978 0.0432817 -0.0417771 -0.0747449 0.017571 0.0421985 -0.0333746 0.0865648
internal_weight=67663 64585 48365.2 34583.4 13781.8 8471.15 5310.69 16219.8 1163.28 7817.58 8402.24 23685.3 5777.8 3154.51 1414.34 2624.44 5200.92 23525.9 10898.1 7307.87 10679 3078.01 2496.21 544.106 2623.29 2616.65 2160 2205.23 4656.82 3896.35
internal_count=439476 414443 282306 209415 72891 49425 23466 132137 6865 73226 58911 152788 41729 19885 6641 17182 40988 151913 56627 42560 54871 25033 17726 4518 21844 32238 12079 15800 36470 16825
is_linear=0
shrinkage=0.1


Tree=26
num_leaves=31
num_cat=0
split_feature=0 2 3 0 6 4 6 4 1 2 1 5 3 2 5 0 5 3 5 4 4 0 2 6 3 5 5 1 3 5
split_gain=550.835 601.438 585.134 420.155 513.946 447.52 343.032 309.659 282.237 263.7 224.22 222.133 206.25 197.035 195.751 164.5 156.337 141.878 104.234 123.432 101 96.9769 121.145 89.7564 97.858 87.8675 81.2775 118.877 74.5175 70.1671
threshold=1.6381494157631116 1.0000000180025095e-35 1.0000000180025095e-35 0.46745870295737763 1.0000000180025095e-35 -1.2190014596644738 0.69609854628363677 1.0000000180025095e-35 -0.37125675401803798 -0.25840479826197094 0.94919938987552899 1.0000000180025095e-35 0.84209987999552427 4.2789111664685722 0.40877272871929943 0.35489228826451863 -0.28250547565343548 2.3605525581922429 -0.36891525120002727 1.0000000180025095e-35 -0.59231946797385926 1.0077774934831012 3.041461357905697 2.9387399441071471 6.1566842536840385 -0.19609570010684363 1.0136411575454425 3.5901116776626636 1.0000000180025095e-35 0.58159227981248318
decision_type=2 2 2 2 2 2 2 2 2 2 2 2 2 2 2 2 2 2 2 2 2 2 2 2 2 2 2 2 2 2
left_child=1 2 3 4 5 -1 29 -6 20 12 -8 18 14 23 -4 16 -11 -17 19 -10 -3 -13 -23 24 -2 -20 -25 28 -28 -5
right_child=13 8 9 6 7 -7 10 -9 11 15 -12 21 -14 -15 -16 17 -18 -19 25 -21 -22 22 -24 26 -26 -27 27 -29 -30 -31
leaf_value=0.11638231846448038 0.089647925295857453 -0.0030056104668290977 -0.027120959509464155 0.052802771487752476 -0.078788270171468638 0.0042015954695941568 -0.063417487275020903 0.021285696075345889 -0.037226315379884085 0.024775407844729348 0.052643828706740864 -0.051071155939504592 -0.059009272933789693 -0.059111575955440837 0.05311384478997714 0.083792124727146561 -0.068525555819089076 -0.0486026085348596 0.064177278995841427 0.021697393528472123 -0.065787530513301051 0.031057517806878099 -0.091749669474941564 0.080754267532358259 -0.051874811471616183 -0.00033833376691613901 -0.12859101442184467 0.095759783635113546 0.010751697648308073 0.09366294286892074
leaf_weight=358.3276635222137 1032.0014211013913 292.50812203064561 3480.3768374845386 1314.5060503929853 1180.7314377687871 46922.385966766626 409.74203156679869 418.90075555816293 771.01580567285419 429.27008383348584 280.34421185404062 1551.6134912446141 2121.3871714137495 132.53083427995443 333.1830848865211 429.03655419498682 308.77292029559612 99.762993510812521 454.017836779356 659.67271717265248 2066.8739486858249 338.68412529304624 105.30040185526013 161.78469524160028 51.287042040377855 394.56698999553919 79.677846278995275 69.972745057195425 74.04336741194129 617.79659335315228
leaf_count=3461 11038 3189 27909 7824 6462 250073 2291 2278 7262 3219 1710 19527 24416 2085 2476 2599 2600 868 3131 4196 35457 2645 1752 1024 394 3360 466 1020 531 4213
internal_value=-0.000280786 -0.00170088 0.00152442 0.00525775 0.0031657 0.00505178 0.0442527 -0.0525816 -0.0302406 -0.0251741 -0.0162681 -0.0149174 -0.0340148 0.0576643 -0.020111 0.0162433 -0.0142586 0.0588146 0.00641223 -0.0100573 -0.058004 -0.0392791 0.00193117 0.0682013 0.0829477 0.0341794 0.0267605 -0.01229 -0.0614734 0.0658666
internal_weight=66940.1 65338.8 58704.5 51502.7 48880.3 47280.7 2622.39 1599.63 6634.25 7201.79 690.086 4274.87 5934.95 1601.3 3813.56 1266.84 738.043 528.8 2279.27 1430.69 2359.38 1995.6 443.985 1468.77 1083.29 848.585 385.479 223.694 153.721 1932.3
internal_count=439476 422918 342399 278312 262274 253534 16038 8740 80519 64087 4001 41873 54801 16558 30385 9286 5819 3467 17949 11458 38646 23924 4397 14473 11432 6491 3041 2017 997 12037
is_linear=0
shrinkage=0.1


Tree=27
num_leaves=31
num_cat=0
split_feature=1 8 2 3 0 5 6 0 2 0 5 0 2 5 5 3 4 0 5 5 0 5 3 1 6 4 4 2 1 4
split_gain=477.376 520.232 414.495 387.993 537.334 622.906 390.311 184.432 125.898 95.885 82.4367 80.9773 78.7754 65.7225 63.0879 42.5642 38.3569 35.3582 41.3124 30.0959 53.3525 81.0795 32.6639 34.1019 29.4681 27.8709 24.0386 23.8468 11.9421 11.3652
threshold=1.6094274618223128 1.0000000180025095e-35 0.97904501030090441 2.3605525581922429 0.46745870295737763 0.063133626532931919 0.69609854628363677 3.1690526555859946 -0.25840479826197094 -0.11788665344548928 0.49518250426589122 1.3004501716845345 -0.25840479826197094 0.66800205535907498 0.1495434020795238 0.84209987999552427 5.0478184572416724 -0.050346804629773867 -0.28250547565343548 -0.10968592456025179 0.53499855177309319 1.4456900352784019 1.0000000180025095e-35 2.2696555337690962 6.8633623902982892 3.1677724821698288 1.9144084987885994 7.9912605921571993 2.2696555337690962 1.9144084987885994
decision_type=2 2 2 2 2 2 2 2 2 2 2 2 2 2 2 2 2 2 2 2 2 2 2 2 2 2 2 2 2 2
left_child=1 2 3 4 5 -1 -6 9 13 14 -11 25 -13 15 -4 17 29 28 -19 -10 21 -21 23 -22 27 -5 -17 -9 -2 -15
right_child=8 -3 7 11 6 -7 -8 24 19 10 -12 12 -14 16 -16 26 -18 18 -20 20 22 -23 -24 -25 -26 -27 -28 -29 -30 -31
leaf_value=0.0012107655408762647 -0.034758939313823178 0.10632322113220544 0.027947184500780473 -0.086242351979876272 0.054520625086364252 -0.031900572203350262 -0.014956686738057855 0.097795218556446614 0.090524732051779758 -0.062890431713850628 -0.020987953115713075 -0.079011744331678208 0.066792973764647462 0.088663571170870092 0.31152312150059108 -0.11935569957834716 -0.37821560376028041 0.048540450167976402 0.004987291556964926 0.0024084718387727896 -0.0028731216028797901 -0.41323011431533141 0.095022798650653328 0.067497076251470542 -0.17956114783289742 0.070493143919012624 0.079885552175963756 -0.094984481998612688 0.033092686524987501 0.01038911591704394
leaf_weight=49874.551752176136 147.18691254779696 441.31348204053938 73.735267873853445 667.90155577659607 2912.3298089243472 6412.0173976831138 1119.3644354380667 112.1986267156899 427.62586688250303 1732.4056296683848 644.05386067926884 70.248721428215504 78.420587047934532 176.74057661369443 8.7793687768280488 34.845481604337692 1.8402770347893227 421.35070157051086 450.81149297952652 57.557398930191994 100.4960837289691 5.1099852621555319 226.11955578252673 218.79720767959952 4.3046629279851905 11.54134441912174 7.3292022421956053 6.8058764673769465 31.488795720040798 20.724972032010555
leaf_count=284687 620 6226 985 8803 18475 49223 6611 1537 3566 34480 8815 540 564 2127 100 178 23 2334 2402 275 707 29 2728 2795 22 68 49 118 154 235
internal_value=-0.000262754 -0.00187657 -0.00262584 -0.000968511 -3.51565e-05 -0.00256119 0.0352309 -0.0418701 0.0442207 -0.0478547 -0.0515343 -0.0689524 -0.00210218 0.0234022 0.058119 0.0137724 0.0762132 0.0177257 0.0260283 0.0701972 0.0559021 -0.0314833 0.0659426 0.0453484 0.0774726 -0.08358 -0.0847312 0.0867701 -0.0228012 0.0804483
internal_weight=66498 64170 63728.7 61146.4 60318.3 56286.6 4031.69 2582.28 2328.02 2458.97 2376.46 828.112 148.669 1292.32 82.5146 1093.01 199.306 1050.84 872.162 1035.71 608.08 62.6674 545.413 319.293 123.309 679.443 42.1747 119.005 178.676 197.466
internal_count=439476 421254 415028 368971 358996 333910 25086 46057 18222 44380 43295 9975 1104 8122 1085 5737 2385 5510 4736 10100 6534 304 6230 3502 1677 8871 227 1655 774 2362
is_linear=0
shrinkage=0.1


Tree=28
num_leaves=31
num_cat=0
split_feature=4 1 0 5 5 4 4 0 5 5 4 5 8 4 0 5 2 1 2 2 6 3 6 2 3 1 1 0 5 5
split_gain=442.956 466.477 740.927 832.924 1184.45 717.679 561.95 422.285 417.251 357.611 702.735 549.332 465.789 234.162 231.216 216.352 191.589 180.431 158.869 145.398 158.155 96.88 82.4787 76.7131 68.8005 61.7586 60.2389 47.2592 38.6081 35.9106
threshold=-1.2190014596644738 -0.37125675401803798 -0.47809918046263805 -0.36891525120002727 0.1495434020795238 -0.59231946797385926 -0.59231946797385926 1.232910322868819 0.92723138199885058 -0.10968592456025179 0.66104451540737008 -0.36891525120002727 1.0000000180025095e-35 1.9144084987885994 -0.63569216103264059 1.0000000180025095e-35 -0.25840479826197094 0.94919938987552899 3.453944627426655 0.56656174077994603 1.0000000180025095e-35 6.1566842536840385 1.2567588957395144 -0.25840479826197094 0.84209987999552427 -1.0314848259648213 2.9298836057158799 3.349158919094569 1.7049193619181773 0.32236295317270752
decision_type=2 2 2 2 2 2 2 2 2 2 2 2 2 2 2 2 2 2 2 2 2 2 2 2 2 2 2 2 2 2
